{"layers": [{"out_depth": 1, "out_sx": 24, "out_sy": 24, "layer_type": "input"}, {"sx": 5, "sy": 5, "stride": 1, "in_depth": 1, "out_depth": 8, "out_sx": 24, "out_sy": 24, "layer_type": "conv", "l1_decay_mul": 0, "l2_decay_mul": 1, "pad": 2, "filters": [{"sx": 5, "sy": 5, "depth": 1, "w": {"0": 0.171875, "1": 0.0390625, "2": 0.03125, "3": -0.1484375, "4": -0.3359375, "5": 0.0546875, "6": -0.359375, "7": 0.015625, "8": 0.078125, "9": 0.4375, "10": 0.1875, "11": -0.2890625, "12": -0.3125, "13": 0.3359375, "14": 0.515625, "15": 0.21875, "16": -0.078125, "17": -0.0859375, "18": -0.328125, "19": -0.4609375, "20": -0.109375, "21": 0.2265625, "22": 0.171875, "23": -0.0234375, "24": -0.171875}}, {"sx": 5, "sy": 5, "depth": 1, "w": {"0": 0.1484375, "1": -0.09375, "2": 0.1484375, "3": 0.515625, "4": -0.1953125, "5": 0.046875, "6": 0.0234375, "7": 0, "8": 0.3125, "9": -0.421875, "10": 0.1796875, "11": 0.109375, "12": -0.0859375, "13": 0.1953125, "14": -0.109375, "15": -0.3515625, "16": 0.1875, "17": 0.21875, "18": 0.3984375, "19": -0.328125, "20": -0.3515625, "21": 0.21875, "22": 0.1796875, "23": 0.265625, "24": 0.0546875}}, {"sx": 5, "sy": 5, "depth": 1, "w": {"0": -0.125, "1": -0.328125, "2": -0.5859375, "3": -0.3046875, "4": -0.328125, "5": -0.21875, "6": -0.40625, "7": -0.53125, "8": -0.5234375, "9": -0.2265625, "10": 0.421875, "11": -0.1875, "12": -0.3203125, "13": -0.6796875, "14": -0.6015625, "15": 0.7265625, "16": 0.2890625, "17": 0.203125, "18": -0.1171875, "19": -0.0859375, "20": 0.2890625, "21": 0.9921875, "22": 0.4609375, "23": -0.0078125, "24": 0.0625}}, {"sx": 5, "sy": 5, "depth": 1, "w": {"0": 0.6171875, "1": 0.7421875, "2": -0.390625, "3": -0.703125, "4": -0.484375, "5": 0.296875, "6": 0.5078125, "7": -0.15625, "8": -0.328125, "9": -0.84375, "10": 0.6171875, "11": 0.4453125, "12": -0.421875, "13": -0.5, "14": -0.53125, "15": 0.375, "16": -0.09375, "17": -0.4453125, "18": -0.6796875, "19": -0.5234375, "20": -0.0546875, "21": -0.4140625, "22": -0.6015625, "23": -0.796875, "24": -0.46875}}, {"sx": 5, "sy": 5, "depth": 1, "w": {"0": 0.2421875, "1": 0.3984375, "2": 0.1796875, "3": -0.25, "4": -0.5390625, "5": 0.6328125, "6": -0.03125, "7": -0.015625, "8": -0.8515625, "9": -0.46875, "10": -0.1015625, "11": -0.578125, "12": -0.796875, "13": -0.375, "14": -0.0703125, "15": -0.15625, "16": -0.3828125, "17": -0.5, "18": 0.078125, "19": 0.5, "20": -0.1953125, "21": -0.15625, "22": 0.078125, "23": 0.4765625, "24": 0.53125}}, {"sx": 5, "sy": 5, "depth": 1, "w": {"0": -0.1875, "1": -0.3125, "2": -0.0625, "3": 0.2421875, "4": -0.0078125, "5": 0.0390625, "6": 0, "7": 0.1640625, "8": 0, "9": 0.0703125, "10": 0.2578125, "11": 0.421875, "12": 0.2421875, "13": 0, "14": 0.1328125, "15": -0.28125, "16": -0.5390625, "17": -0.46875, "18": 0.046875, "19": 0.203125, "20": 0.0703125, "21": 0.0390625, "22": -0.1953125, "23": -0.25, "24": -0.2578125}}, {"sx": 5, "sy": 5, "depth": 1, "w": {"0": 0.25, "1": 0.40625, "2": 0.5703125, "3": 0.5625, "4": 0.1953125, "5": 0.25, "6": 0.2734375, "7": 0.4140625, "8": 0.828125, "9": 0.609375, "10": -0.296875, "11": -0.1328125, "12": -0.296875, "13": -0.0703125, "14": 0.1328125, "15": -0.9765625, "16": -0.3515625, "17": -0.4453125, "18": -0.7734375, "19": -0.40625, "20": -0.5625, "21": -0.46875, "22": -0.7421875, "23": -0.65625, "24": -0.1796875}}, {"sx": 5, "sy": 5, "depth": 1, "w": {"0": -0.3046875, "1": -0.1796875, "2": 0, "3": 0.265625, "4": -0.1484375, "5": -0.3359375, "6": -0.21875, "7": 0.1953125, "8": 0.359375, "9": 0.171875, "10": -0.3984375, "11": 0.1953125, "12": 0.328125, "13": 0.078125, "14": -0.0625, "15": 0.1015625, "16": 0.21875, "17": -0.0546875, "18": -0.2421875, "19": -0.0234375, "20": 0.125, "21": -0.1015625, "22": 0.1953125, "23": -0.1484375, "24": 0.09375}}], "biases": {"sx": 1, "sy": 1, "depth": 8, "w": {"0": -0.0703125, "1": -0.3125, "2": 0.015625, "3": 0.1171875, "4": 0, "5": 0.015625, "6": 0.03125, "7": -0.2265625}}}, {"out_depth": 8, "out_sx": 24, "out_sy": 24, "layer_type": "relu"}, {"sx": 2, "sy": 2, "stride": 2, "in_depth": 8, "out_depth": 8, "out_sx": 12, "out_sy": 12, "layer_type": "pool", "pad": 0}, {"out_depth": 10, "out_sx": 1, "out_sy": 1, "layer_type": "fc", "num_inputs": 1152, "l1_decay_mul": 0, "l2_decay_mul": 1, "filters": [{"sx": 1, "sy": 1, "depth": 1152, "w": {"0": 0.0390625, "1": -0.0546875, "2": -0.03125, "3": -0.0390625, "4": -0.0234375, "5": -0.0078125, "6": 0.0078125, "7": -0.0390625, "8": 0.015625, "9": -0.046875, "10": -0.03125, "11": 0, "12": 0.03125, "13": 0.0078125, "14": -0.015625, "15": -0.015625, "16": -0.0546875, "17": -0.0390625, "18": -0.0078125, "19": -0.015625, "20": -0.015625, "21": -0.015625, "22": -0.03125, "23": 0.0234375, "24": -0.0078125, "25": -0.03125, "26": -0.015625, "27": -0.0625, "28": -0.0390625, "29": 0.0234375, "30": 0.0078125, "31": -0.0390625, "32": -0.0625, "33": -0.015625, "34": -0.1171875, "35": 0, "36": -0.0625, "37": -0.0625, "38": -0.0390625, "39": -0.0859375, "40": -0.046875, "41": 0, "42": -0.0234375, "43": -0.0859375, "44": -0.015625, "45": -0.046875, "46": 0, "47": -0.078125, "48": -0.015625, "49": 0.03125, "50": -0.0234375, "51": -0.109375, "52": -0.03125, "53": -0.0390625, "54": -0.0234375, "55": -0.015625, "56": 0.078125, "57": 0.0859375, "58": 0.0234375, "59": -0.078125, "60": -0.015625, "61": -0.03125, "62": 0.015625, "63": 0.0234375, "64": -0.0078125, "65": 0, "66": 0.0546875, "67": -0.125, "68": 0.0390625, "69": 0.0234375, "70": -0.03125, "71": 0.0078125, "72": 0.0625, "73": 0.03125, "74": 0.0546875, "75": -0.1015625, "76": 0.0625, "77": -0.0390625, "78": 0.0078125, "79": 0.0078125, "80": 0.046875, "81": 0.03125, "82": 0.078125, "83": -0.1015625, "84": -0.0078125, "85": -0.0390625, "86": -0.015625, "87": -0.0390625, "88": -0.015625, "89": 0, "90": 0.0546875, "91": -0.0390625, "92": -0.015625, "93": 0, "94": -0.0625, "95": 0.0234375, "96": 0, "97": 0.015625, "98": 0.0234375, "99": 0, "100": 0, "101": 0.0078125, "102": -0.0546875, "103": 0, "104": -0.0234375, "105": -0.015625, "106": -0.0078125, "107": -0.0390625, "108": 0, "109": -0.015625, "110": 0.0078125, "111": -0.03125, "112": -0.0703125, "113": -0.0078125, "114": -0.0078125, "115": -0.015625, "116": 0, "117": -0.0546875, "118": -0.0234375, "119": -0.0703125, "120": -0.0859375, "121": 0, "122": 0.0078125, "123": -0.0625, "124": -0.0234375, "125": -0.0703125, "126": -0.0703125, "127": -0.046875, "128": -0.0390625, "129": -0.0234375, "130": -0.1015625, "131": -0.1328125, "132": 0.03125, "133": -0.09375, "134": -0.09375, "135": -0.046875, "136": 0.0234375, "137": 0.0078125, "138": -0.0703125, "139": -0.1328125, "140": -0.0390625, "141": -0.0625, "142": -0.0703125, "143": 0.0234375, "144": 0.0234375, "145": 0.0390625, "146": 0, "147": -0.1953125, "148": -0.0390625, "149": -0.078125, "150": -0.0859375, "151": 0.0390625, "152": 0.09375, "153": 0.0234375, "154": -0.0078125, "155": -0.2109375, "156": -0.0625, "157": -0.046875, "158": -0.046875, "159": 0.078125, "160": 0.125, "161": 0.1015625, "162": 0.015625, "163": -0.1875, "164": -0.0078125, "165": -0.078125, "166": -0.109375, "167": 0.0625, "168": 0.078125, "169": 0.109375, "170": 0.0625, "171": -0.0703125, "172": -0.0078125, "173": -0.0390625, "174": -0.0625, "175": 0, "176": 0.046875, "177": -0.0078125, "178": 0.0390625, "179": -0.1015625, "180": -0.015625, "181": -0.0078125, "182": -0.03125, "183": 0.015625, "184": 0.03125, "185": -0.0078125, "186": 0.0625, "187": -0.03125, "188": -0.078125, "189": 0.0234375, "190": 0.0234375, "191": 0.015625, "192": 0.015625, "193": -0.03125, "194": 0, "195": -0.0625, "196": -0.03125, "197": -0.0546875, "198": -0.03125, "199": -0.015625, "200": -0.015625, "201": 0, "202": 0.015625, "203": -0.0234375, "204": 0, "205": 0.0078125, "206": -0.015625, "207": -0.015625, "208": -0.0234375, "209": -0.0625, "210": 0, "211": -0.0546875, "212": 0.0625, "213": -0.0625, "214": -0.1484375, "215": -0.0234375, "216": -0.1015625, "217": -0.0078125, "218": -0.0234375, "219": -0.0703125, "220": 0.015625, "221": -0.0703125, "222": -0.125, "223": -0.046875, "224": -0.09375, "225": 0.0234375, "226": -0.1015625, "227": -0.1015625, "228": -0.1015625, "229": -0.09375, "230": -0.0859375, "231": -0.0234375, "232": -0.078125, "233": 0.03125, "234": -0.09375, "235": -0.0703125, "236": -0.1015625, "237": -0.0625, "238": -0.140625, "239": 0.078125, "240": -0.078125, "241": 0.109375, "242": -0.046875, "243": -0.1171875, "244": -0.1015625, "245": -0.0390625, "246": -0.0625, "247": 0.0625, "248": 0.015625, "249": 0.078125, "250": -0.0078125, "251": -0.25, "252": -0.2421875, "253": -0.0234375, "254": -0.078125, "255": 0.0625, "256": 0.0234375, "257": 0.0546875, "258": 0.03125, "259": -0.2890625, "260": -0.1640625, "261": 0.0234375, "262": -0.0703125, "263": 0.0625, "264": 0.015625, "265": 0.0390625, "266": 0.0078125, "267": -0.2265625, "268": -0.21875, "269": -0.0390625, "270": -0.09375, "271": 0, "272": 0.03125, "273": 0.0390625, "274": 0.046875, "275": -0.1328125, "276": -0.1953125, "277": -0.015625, "278": -0.109375, "279": 0.046875, "280": 0.1015625, "281": 0.0390625, "282": 0.09375, "283": -0.0390625, "284": -0.0859375, "285": -0.0390625, "286": -0.1484375, "287": -0.0078125, "288": -0.015625, "289": -0.0390625, "290": 0, "291": -0.0546875, "292": 0.015625, "293": -0.0078125, "294": 0, "295": -0.0703125, "296": 0.0234375, "297": -0.0078125, "298": -0.015625, "299": -0.0859375, "300": 0.125, "301": -0.0546875, "302": -0.109375, "303": -0.015625, "304": -0.0234375, "305": 0.0390625, "306": -0.046875, "307": -0.046875, "308": 0.0625, "309": -0.03125, "310": -0.1171875, "311": 0.0234375, "312": 0.046875, "313": 0, "314": -0.1484375, "315": -0.0234375, "316": 0, "317": -0.0625, "318": -0.0859375, "319": 0.09375, "320": 0.0078125, "321": 0, "322": -0.140625, "323": -0.0078125, "324": -0.015625, "325": -0.03125, "326": -0.0703125, "327": 0.0625, "328": -0.03125, "329": -0.0546875, "330": -0.1953125, "331": -0.0703125, "332": -0.0625, "333": -0.0078125, "334": -0.078125, "335": 0.046875, "336": -0.0078125, "337": 0.0859375, "338": -0.171875, "339": -0.0546875, "340": -0.1953125, "341": -0.015625, "342": 0.015625, "343": 0.0234375, "344": -0.046875, "345": 0.078125, "346": -0.0546875, "347": -0.1328125, "348": -0.2109375, "349": -0.046875, "350": -0.015625, "351": 0.0078125, "352": 0.0390625, "353": 0.1015625, "354": 0.0390625, "355": -0.203125, "356": -0.25, "357": 0.015625, "358": 0.015625, "359": -0.0078125, "360": 0.0078125, "361": 0.0703125, "362": 0, "363": -0.1875, "364": -0.203125, "365": 0, "366": 0, "367": -0.0234375, "368": 0.015625, "369": 0.109375, "370": 0.0859375, "371": -0.1171875, "372": -0.1875, "373": -0.03125, "374": -0.078125, "375": -0.0078125, "376": 0.0390625, "377": 0.140625, "378": 0.0703125, "379": -0.03125, "380": -0.1328125, "381": -0.0546875, "382": -0.203125, "383": 0, "384": 0.015625, "385": 0.0390625, "386": 0.0078125, "387": -0.078125, "388": 0.0703125, "389": 0.0078125, "390": -0.0546875, "391": -0.0234375, "392": -0.046875, "393": 0.09375, "394": -0.0234375, "395": -0.0078125, "396": 0.046875, "397": -0.1015625, "398": -0.0859375, "399": 0.0390625, "400": -0.015625, "401": 0.0625, "402": 0, "403": -0.03125, "404": 0.09375, "405": -0.0390625, "406": -0.1640625, "407": 0.046875, "408": -0.03125, "409": 0.0625, "410": -0.0859375, "411": 0.0390625, "412": 0.046875, "413": -0.0625, "414": -0.15625, "415": 0.09375, "416": 0, "417": 0.015625, "418": -0.1640625, "419": 0.078125, "420": 0.0390625, "421": -0.0703125, "422": -0.1484375, "423": -0.0078125, "424": -0.046875, "425": -0.015625, "426": -0.1796875, "427": 0.0625, "428": -0.125, "429": -0.0625, "430": -0.0859375, "431": 0, "432": 0, "433": -0.0390625, "434": -0.2109375, "435": 0.0546875, "436": -0.15625, "437": -0.046875, "438": -0.046875, "439": 0.015625, "440": -0.171875, "441": -0.015625, "442": -0.234375, "443": -0.0234375, "444": -0.296875, "445": -0.03125, "446": 0.015625, "447": -0.1015625, "448": -0.0546875, "449": 0.046875, "450": -0.03125, "451": -0.1328125, "452": -0.21875, "453": 0.0078125, "454": 0.03125, "455": -0.125, "456": 0.0078125, "457": 0.0859375, "458": 0, "459": -0.109375, "460": -0.2109375, "461": -0.0703125, "462": -0.015625, "463": -0.046875, "464": 0.0625, "465": 0.1171875, "466": 0.03125, "467": -0.078125, "468": -0.15625, "469": -0.015625, "470": -0.0625, "471": 0.0546875, "472": 0, "473": 0.09375, "474": 0.0390625, "475": -0.0390625, "476": -0.078125, "477": -0.078125, "478": -0.1640625, "479": 0.078125, "480": 0.0625, "481": 0.046875, "482": 0.0078125, "483": -0.0703125, "484": 0.078125, "485": -0.0078125, "486": 0.0234375, "487": 0.09375, "488": -0.046875, "489": 0.1171875, "490": -0.078125, "491": -0.0234375, "492": -0.03125, "493": 0, "494": -0.1015625, "495": 0.0859375, "496": 0.0390625, "497": 0.1015625, "498": -0.015625, "499": -0.015625, "500": 0.0546875, "501": -0.0234375, "502": -0.1328125, "503": 0.0859375, "504": -0.03125, "505": 0.1015625, "506": -0.046875, "507": 0.046875, "508": 0.1171875, "509": -0.046875, "510": -0.2265625, "511": 0.046875, "512": -0.015625, "513": 0.109375, "514": -0.0703125, "515": 0.109375, "516": 0.0078125, "517": -0.1171875, "518": -0.171875, "519": 0.015625, "520": -0.0546875, "521": 0.0234375, "522": -0.0625, "523": 0.109375, "524": -0.09375, "525": -0.125, "526": -0.15625, "527": 0.0546875, "528": -0.0859375, "529": -0.0625, "530": -0.15625, "531": 0.0625, "532": -0.09375, "533": -0.109375, "534": -0.140625, "535": -0.0625, "536": -0.03125, "537": -0.03125, "538": -0.2265625, "539": -0.015625, "540": -0.2109375, "541": -0.0390625, "542": -0.0625, "543": -0.0703125, "544": -0.078125, "545": 0.015625, "546": -0.0546875, "547": -0.015625, "548": -0.1640625, "549": 0, "550": -0.0234375, "551": -0.0546875, "552": -0.03125, "553": 0, "554": -0.046875, "555": 0.0234375, "556": -0.09375, "557": -0.0390625, "558": -0.0546875, "559": 0.0078125, "560": 0.046875, "561": 0.0546875, "562": -0.0546875, "563": -0.0546875, "564": -0.0546875, "565": 0.03125, "566": -0.0625, "567": 0.0703125, "568": -0.0234375, "569": 0.125, "570": 0.046875, "571": -0.09375, "572": -0.078125, "573": -0.0234375, "574": -0.1875, "575": 0.0859375, "576": 0.078125, "577": 0.0390625, "578": -0.03125, "579": -0.078125, "580": 0, "581": 0.046875, "582": 0.0859375, "583": 0.0625, "584": -0.015625, "585": 0.09375, "586": -0.0546875, "587": -0.0703125, "588": -0.0859375, "589": 0, "590": -0.015625, "591": 0.1015625, "592": 0.0625, "593": 0.0546875, "594": -0.078125, "595": -0.0078125, "596": -0.0234375, "597": -0.0234375, "598": -0.140625, "599": 0.1171875, "600": 0.0703125, "601": 0.0859375, "602": -0.0625, "603": 0.078125, "604": 0.1015625, "605": -0.109375, "606": -0.203125, "607": 0.140625, "608": -0.0859375, "609": 0.0859375, "610": 0.0234375, "611": 0.0546875, "612": -0.0078125, "613": -0.140625, "614": -0.21875, "615": 0.078125, "616": -0.015625, "617": 0.078125, "618": -0.03125, "619": 0.0859375, "620": -0.0390625, "621": -0.1640625, "622": -0.1875, "623": 0, "624": -0.0390625, "625": -0.0625, "626": -0.09375, "627": 0.21875, "628": -0.015625, "629": -0.046875, "630": -0.171875, "631": -0.125, "632": -0.0625, "633": -0.0703125, "634": -0.21875, "635": 0.03125, "636": -0.1015625, "637": -0.078125, "638": -0.046875, "639": -0.140625, "640": -0.0625, "641": -0.015625, "642": -0.1015625, "643": -0.0234375, "644": -0.0625, "645": -0.109375, "646": -0.0859375, "647": -0.0390625, "648": -0.0078125, "649": -0.0234375, "650": -0.046875, "651": 0.0390625, "652": 0.015625, "653": -0.03125, "654": -0.015625, "655": 0, "656": 0.015625, "657": 0, "658": -0.0859375, "659": -0.0703125, "660": -0.015625, "661": 0.03125, "662": -0.0703125, "663": 0.03125, "664": 0.015625, "665": 0.078125, "666": -0.015625, "667": 0.0078125, "668": 0, "669": 0, "670": -0.109375, "671": 0.125, "672": 0.09375, "673": 0.0703125, "674": -0.0234375, "675": -0.0625, "676": -0.0703125, "677": 0.046875, "678": 0.1484375, "679": 0.1171875, "680": 0.0078125, "681": 0.09375, "682": -0.0859375, "683": -0.0390625, "684": -0.1796875, "685": 0.03125, "686": -0.03125, "687": 0.109375, "688": 0.046875, "689": 0.0390625, "690": -0.09375, "691": 0.0625, "692": -0.09375, "693": 0, "694": -0.0625, "695": 0.15625, "696": 0.015625, "697": 0.109375, "698": -0.03125, "699": 0.109375, "700": -0.046875, "701": -0.0390625, "702": -0.1484375, "703": 0.0859375, "704": -0.015625, "705": 0.09375, "706": -0.0546875, "707": 0.125, "708": -0.0234375, "709": -0.125, "710": -0.21875, "711": 0.015625, "712": -0.0546875, "713": -0.015625, "714": -0.0703125, "715": 0.171875, "716": 0.0625, "717": -0.140625, "718": -0.2265625, "719": -0.015625, "720": -0.0234375, "721": -0.1015625, "722": -0.0625, "723": 0.1015625, "724": 0.0703125, "725": -0.171875, "726": -0.1953125, "727": -0.125, "728": -0.0390625, "729": -0.078125, "730": -0.1875, "731": -0.0703125, "732": -0.0234375, "733": -0.0859375, "734": -0.0703125, "735": -0.0546875, "736": 0, "737": -0.015625, "738": -0.0703125, "739": -0.0625, "740": -0.046875, "741": -0.0234375, "742": -0.0546875, "743": -0.078125, "744": 0, "745": 0.0234375, "746": -0.0625, "747": 0.0625, "748": 0.0703125, "749": 0.0078125, "750": -0.0390625, "751": 0.0390625, "752": -0.0234375, "753": 0.0078125, "754": -0.09375, "755": 0.0078125, "756": 0, "757": 0.0078125, "758": -0.0703125, "759": 0.078125, "760": 0, "761": 0.09375, "762": -0.0859375, "763": 0.0234375, "764": 0.03125, "765": 0.0625, "766": 0, "767": 0.1015625, "768": 0.03125, "769": 0.0703125, "770": -0.0390625, "771": -0.078125, "772": -0.125, "773": 0.0703125, "774": 0.0390625, "775": 0.0390625, "776": 0, "777": 0.0703125, "778": -0.0625, "779": 0.03125, "780": -0.1640625, "781": 0.0078125, "782": -0.0234375, "783": 0.125, "784": -0.078125, "785": 0.1015625, "786": -0.0546875, "787": 0.078125, "788": -0.1171875, "789": -0.0234375, "790": -0.0859375, "791": 0.078125, "792": -0.0546875, "793": 0.0859375, "794": 0, "795": 0.046875, "796": -0.046875, "797": -0.0234375, "798": -0.1015625, "799": 0.109375, "800": 0, "801": 0.0078125, "802": -0.0625, "803": 0.1171875, "804": -0.03125, "805": 0, "806": -0.15625, "807": 0.015625, "808": -0.03125, "809": 0.03125, "810": 0.0625, "811": 0.140625, "812": -0.015625, "813": -0.1796875, "814": -0.2109375, "815": -0.046875, "816": -0.015625, "817": -0.09375, "818": -0.0234375, "819": -0.03125, "820": 0.046875, "821": -0.09375, "822": -0.15625, "823": -0.1015625, "824": -0.0546875, "825": -0.0703125, "826": -0.125, "827": -0.09375, "828": 0.09375, "829": -0.03125, "830": -0.03125, "831": 0, "832": -0.0234375, "833": -0.0234375, "834": -0.140625, "835": 0.03125, "836": 0.0703125, "837": 0.015625, "838": 0, "839": 0.03125, "840": -0.0390625, "841": -0.0703125, "842": -0.1015625, "843": 0.1171875, "844": 0, "845": 0.03125, "846": 0.0078125, "847": 0.0546875, "848": -0.0234375, "849": 0.03125, "850": -0.1015625, "851": 0.0390625, "852": 0.015625, "853": 0.078125, "854": 0.0078125, "855": 0.0390625, "856": 0, "857": 0.03125, "858": -0.09375, "859": 0.03125, "860": 0, "861": 0.0390625, "862": -0.0546875, "863": 0.0625, "864": 0.015625, "865": -0.03125, "866": 0, "867": -0.0859375, "868": -0.078125, "869": 0.0703125, "870": 0.09375, "871": 0.03125, "872": -0.0625, "873": 0.03125, "874": -0.015625, "875": -0.03125, "876": -0.1484375, "877": 0, "878": 0, "879": 0, "880": -0.0859375, "881": 0.0625, "882": 0, "883": 0, "884": -0.1328125, "885": 0.03125, "886": 0, "887": -0.0078125, "888": -0.03125, "889": 0, "890": 0, "891": -0.03125, "892": -0.125, "893": -0.0390625, "894": -0.0078125, "895": 0.015625, "896": -0.0078125, "897": 0.0078125, "898": 0.0546875, "899": -0.015625, "900": -0.0234375, "901": 0.0078125, "902": 0, "903": -0.046875, "904": -0.03125, "905": -0.0234375, "906": 0.125, "907": -0.0625, "908": 0.0078125, "909": -0.0546875, "910": -0.0078125, "911": -0.125, "912": 0, "913": -0.046875, "914": 0.1015625, "915": -0.0859375, "916": 0.078125, "917": -0.0546875, "918": -0.0234375, "919": -0.078125, "920": 0, "921": -0.1640625, "922": -0.03125, "923": -0.0078125, "924": 0.0546875, "925": -0.0234375, "926": -0.0078125, "927": -0.0390625, "928": -0.09375, "929": -0.125, "930": -0.171875, "931": -0.0078125, "932": 0.0390625, "933": 0, "934": -0.0078125, "935": 0, "936": -0.0390625, "937": -0.046875, "938": -0.2578125, "939": -0.03125, "940": -0.03125, "941": -0.03125, "942": 0.015625, "943": -0.03125, "944": -0.0703125, "945": 0.0078125, "946": -0.1953125, "947": 0.0234375, "948": 0.03125, "949": 0, "950": -0.0078125, "951": 0.046875, "952": -0.0546875, "953": -0.0078125, "954": -0.1015625, "955": 0.0078125, "956": -0.0234375, "957": -0.0234375, "958": -0.0078125, "959": 0, "960": 0, "961": 0.0078125, "962": -0.03125, "963": -0.0625, "964": -0.0703125, "965": 0.046875, "966": 0, "967": -0.0234375, "968": 0.03125, "969": 0.0390625, "970": 0, "971": -0.046875, "972": -0.09375, "973": 0, "974": 0.078125, "975": 0, "976": 0.0234375, "977": 0.015625, "978": -0.03125, "979": 0.046875, "980": -0.0546875, "981": 0.0078125, "982": -0.015625, "983": -0.015625, "984": 0, "985": 0.015625, "986": 0.0703125, "987": -0.046875, "988": -0.1640625, "989": 0.03125, "990": -0.015625, "991": -0.046875, "992": 0.0078125, "993": 0.046875, "994": 0.0546875, "995": -0.1796875, "996": -0.0859375, "997": -0.03125, "998": -0.0234375, "999": -0.0703125, "1000": -0.046875, "1001": -0.015625, "1002": 0.140625, "1003": -0.21875, "1004": -0.1328125, "1005": -0.0625, "1006": 0.03125, "1007": 0.03125, "1008": -0.046875, "1009": -0.0546875, "1010": 0.0234375, "1011": -0.046875, "1012": 0.03125, "1013": -0.015625, "1014": -0.0078125, "1015": -0.0703125, "1016": -0.0078125, "1017": -0.1015625, "1018": -0.015625, "1019": -0.0625, "1020": -0.015625, "1021": -0.0390625, "1022": -0.0078125, "1023": -0.078125, "1024": -0.1015625, "1025": -0.15625, "1026": -0.2109375, "1027": -0.03125, "1028": -0.03125, "1029": 0.015625, "1030": -0.03125, "1031": 0, "1032": -0.046875, "1033": -0.0625, "1034": -0.1640625, "1035": 0, "1036": 0.03125, "1037": 0.015625, "1038": -0.015625, "1039": -0.015625, "1040": 0.015625, "1041": -0.0234375, "1042": -0.1796875, "1043": -0.046875, "1044": 0.0078125, "1045": -0.0234375, "1046": 0.015625, "1047": -0.0078125, "1048": 0.0390625, "1049": -0.0234375, "1050": -0.1328125, "1051": 0.015625, "1052": 0.0390625, "1053": -0.015625, "1054": 0.0390625, "1055": -0.0390625, "1056": -0.015625, "1057": -0.0390625, "1058": -0.046875, "1059": -0.0390625, "1060": 0, "1061": 0.03125, "1062": 0, "1063": 0, "1064": -0.0703125, "1065": 0.03125, "1066": 0.0078125, "1067": 0, "1068": -0.0234375, "1069": 0.0859375, "1070": 0.0703125, "1071": -0.015625, "1072": -0.0078125, "1073": -0.0703125, "1074": -0.0234375, "1075": -0.0078125, "1076": 0.0078125, "1077": 0.0390625, "1078": 0.046875, "1079": 0.0390625, "1080": 0.015625, "1081": -0.0625, "1082": 0, "1083": -0.0546875, "1084": -0.078125, "1085": 0.0625, "1086": 0.046875, "1087": 0.0234375, "1088": -0.015625, "1089": 0, "1090": 0, "1091": -0.1015625, "1092": -0.1328125, "1093": 0.0625, "1094": -0.0390625, "1095": 0.03125, "1096": -0.03125, "1097": -0.0078125, "1098": -0.0390625, "1099": -0.15625, "1100": -0.1484375, "1101": 0.015625, "1102": -0.0078125, "1103": 0, "1104": -0.03125, "1105": -0.015625, "1106": 0.0078125, "1107": -0.1484375, "1108": -0.140625, "1109": 0.015625, "1110": 0.015625, "1111": -0.0859375, "1112": -0.0703125, "1113": -0.0703125, "1114": -0.046875, "1115": -0.1015625, "1116": -0.046875, "1117": -0.03125, "1118": -0.03125, "1119": -0.0703125, "1120": -0.171875, "1121": -0.03125, "1122": -0.0859375, "1123": -0.078125, "1124": -0.0546875, "1125": -0.046875, "1126": -0.078125, "1127": -0.0546875, "1128": -0.0625, "1129": -0.0703125, "1130": -0.1015625, "1131": -0.0703125, "1132": -0.0078125, "1133": -0.1171875, "1134": -0.0546875, "1135": -0.0703125, "1136": -0.0625, "1137": -0.0703125, "1138": -0.125, "1139": -0.0625, "1140": -0.015625, "1141": -0.09375, "1142": -0.0703125, "1143": -0.0078125, "1144": -0.015625, "1145": -0.0078125, "1146": -0.0546875, "1147": -0.046875, "1148": -0.015625, "1149": -0.03125, "1150": -0.0546875, "1151": -0.046875}}, {"sx": 1, "sy": 1, "depth": 1152, "w": {"0": -0.03125, "1": 0.0234375, "2": 0, "3": 0.0703125, "4": 0.015625, "5": 0.015625, "6": 0.0390625, "7": 0.0625, "8": 0.0078125, "9": 0.0390625, "10": 0.046875, "11": 0, "12": -0.0078125, "13": 0, "14": 0.0078125, "15": 0.0546875, "16": -0.0234375, "17": -0.0546875, "18": 0, "19": 0.0859375, "20": 0.0078125, "21": 0, "22": 0.0234375, "23": 0.015625, "24": -0.046875, "25": -0.0390625, "26": 0.0234375, "27": 0.015625, "28": -0.0546875, "29": 0.03125, "30": 0, "31": -0.03125, "32": -0.0078125, "33": -0.109375, "34": -0.0703125, "35": 0.03125, "36": -0.0390625, "37": 0, "38": 0.0390625, "39": 0.0078125, "40": 0.0078125, "41": -0.046875, "42": -0.0234375, "43": -0.0078125, "44": 0, "45": 0.0390625, "46": 0.03125, "47": -0.0234375, "48": 0.015625, "49": 0.046875, "50": 0.015625, "51": 0.015625, "52": -0.0390625, "53": 0.0390625, "54": 0.0390625, "55": 0.0625, "56": -0.0390625, "57": -0.015625, "58": 0, "59": 0.0703125, "60": -0.0625, "61": 0.0078125, "62": 0.0234375, "63": -0.015625, "64": 0.03125, "65": -0.0390625, "66": -0.015625, "67": 0.0859375, "68": 0.0234375, "69": 0.0078125, "70": 0.0390625, "71": 0, "72": -0.046875, "73": -0.046875, "74": -0.015625, "75": 0.0703125, "76": 0.046875, "77": -0.03125, "78": -0.0078125, "79": 0.015625, "80": 0.0078125, "81": 0.0078125, "82": -0.0078125, "83": 0.0703125, "84": 0, "85": 0, "86": -0.0234375, "87": -0.0234375, "88": -0.015625, "89": 0.0546875, "90": -0.03125, "91": 0, "92": 0.015625, "93": -0.0078125, "94": 0.0078125, "95": 0.03125, "96": 0.0234375, "97": 0, "98": -0.0234375, "99": 0.0625, "100": 0.0390625, "101": 0.0234375, "102": 0.0546875, "103": -0.03125, "104": 0, "105": -0.015625, "106": -0.0390625, "107": 0.0546875, "108": 0, "109": -0.015625, "110": 0, "111": 0.0234375, "112": 0.0078125, "113": -0.015625, "114": -0.0546875, "115": 0.0390625, "116": -0.0078125, "117": 0, "118": 0.0234375, "119": 0.0078125, "120": -0.0625, "121": -0.0703125, "122": -0.0703125, "123": 0.0390625, "124": -0.015625, "125": 0.015625, "126": -0.0703125, "127": -0.046875, "128": -0.03125, "129": 0, "130": -0.046875, "131": 0.140625, "132": -0.1484375, "133": -0.0390625, "134": 0, "135": -0.09375, "136": 0.03125, "137": -0.03125, "138": -0.0390625, "139": 0.125, "140": -0.1484375, "141": -0.0390625, "142": -0.03125, "143": 0, "144": -0.078125, "145": -0.015625, "146": -0.0234375, "147": 0.2265625, "148": -0.03125, "149": -0.09375, "150": -0.078125, "151": 0.03125, "152": -0.0234375, "153": -0.0078125, "154": -0.0703125, "155": 0.1484375, "156": 0.109375, "157": -0.078125, "158": -0.03125, "159": -0.0234375, "160": 0, "161": -0.0546875, "162": -0.1015625, "163": 0.109375, "164": 0.1328125, "165": -0.0625, "166": -0.1015625, "167": -0.0078125, "168": -0.046875, "169": 0, "170": -0.0234375, "171": 0.0625, "172": 0.0546875, "173": -0.0234375, "174": -0.0234375, "175": -0.0234375, "176": 0, "177": -0.0390625, "178": -0.015625, "179": 0.015625, "180": 0.0078125, "181": -0.0390625, "182": 0, "183": -0.0078125, "184": -0.015625, "185": -0.078125, "186": -0.03125, "187": 0.0625, "188": 0.015625, "189": -0.015625, "190": 0.0078125, "191": -0.015625, "192": -0.03125, "193": 0.015625, "194": -0.0078125, "195": 0.0859375, "196": -0.015625, "197": 0.03125, "198": 0.0078125, "199": 0.0078125, "200": -0.046875, "201": -0.0625, "202": -0.0234375, "203": 0.09375, "204": 0.0234375, "205": 0.03125, "206": -0.046875, "207": 0, "208": -0.109375, "209": -0.109375, "210": 0.0078125, "211": 0.109375, "212": -0.109375, "213": -0.0390625, "214": -0.1640625, "215": -0.0625, "216": -0.0859375, "217": -0.109375, "218": -0.109375, "219": 0.0859375, "220": -0.125, "221": -0.09375, "222": -0.1015625, "223": -0.0703125, "224": -0.171875, "225": -0.140625, "226": -0.078125, "227": 0.140625, "228": -0.21875, "229": -0.078125, "230": -0.109375, "231": -0.078125, "232": -0.234375, "233": -0.0625, "234": -0.0234375, "235": 0.2109375, "236": -0.1796875, "237": -0.1484375, "238": -0.125, "239": -0.1171875, "240": -0.1953125, "241": 0, "242": -0.015625, "243": 0.1953125, "244": 0, "245": -0.1875, "246": -0.3203125, "247": -0.0703125, "248": -0.0625, "249": 0, "250": -0.015625, "251": 0.09375, "252": 0.046875, "253": -0.2421875, "254": -0.34375, "255": -0.0859375, "256": -0.109375, "257": 0.015625, "258": -0.046875, "259": 0.109375, "260": 0.0703125, "261": -0.203125, "262": -0.3515625, "263": -0.0234375, "264": 0, "265": -0.015625, "266": 0, "267": 0.078125, "268": 0.0625, "269": -0.09375, "270": -0.1796875, "271": 0.0546875, "272": -0.1171875, "273": 0.015625, "274": 0, "275": 0.0234375, "276": -0.0625, "277": -0.078125, "278": -0.1015625, "279": 0.0078125, "280": 0.03125, "281": -0.1171875, "282": -0.0546875, "283": 0.0625, "284": 0, "285": -0.015625, "286": -0.046875, "287": -0.078125, "288": -0.03125, "289": 0.0234375, "290": 0, "291": 0.078125, "292": 0.03125, "293": 0.0625, "294": -0.0234375, "295": -0.0234375, "296": -0.046875, "297": -0.0390625, "298": 0, "299": 0.0390625, "300": -0.0546875, "301": 0.015625, "302": -0.0390625, "303": -0.015625, "304": -0.1015625, "305": -0.1171875, "306": -0.078125, "307": 0.09375, "308": -0.109375, "309": -0.0703125, "310": -0.1015625, "311": -0.1015625, "312": -0.1484375, "313": -0.171875, "314": -0.0234375, "315": 0.078125, "316": -0.1953125, "317": -0.078125, "318": -0.171875, "319": -0.171875, "320": -0.1875, "321": -0.15625, "322": -0.0859375, "323": 0.078125, "324": -0.203125, "325": -0.1484375, "326": -0.109375, "327": -0.1484375, "328": -0.234375, "329": -0.0703125, "330": -0.015625, "331": 0.0859375, "332": -0.1484375, "333": -0.1484375, "334": -0.1640625, "335": -0.1484375, "336": -0.1875, "337": 0.0234375, "338": 0.03125, "339": 0.0625, "340": -0.0546875, "341": -0.2265625, "342": -0.4140625, "343": -0.0625, "344": -0.125, "345": 0.03125, "346": 0.0625, "347": 0.1015625, "348": -0.03125, "349": -0.203125, "350": -0.453125, "351": -0.046875, "352": -0.0234375, "353": 0, "354": -0.0078125, "355": 0.0703125, "356": 0.0078125, "357": -0.1640625, "358": -0.4140625, "359": 0.0234375, "360": -0.0546875, "361": -0.0390625, "362": -0.125, "363": 0.078125, "364": -0.0234375, "365": -0.078125, "366": -0.2265625, "367": 0.0078125, "368": -0.078125, "369": -0.0390625, "370": -0.1328125, "371": 0.03125, "372": -0.0390625, "373": -0.0625, "374": -0.1875, "375": -0.0234375, "376": -0.015625, "377": -0.1328125, "378": -0.1484375, "379": 0, "380": -0.015625, "381": -0.0078125, "382": -0.0078125, "383": -0.1015625, "384": 0, "385": -0.0390625, "386": 0.0078125, "387": 0.1328125, "388": -0.015625, "389": 0.0078125, "390": 0, "391": 0, "392": -0.109375, "393": -0.0859375, "394": -0.0078125, "395": -0.0234375, "396": -0.0234375, "397": -0.046875, "398": -0.1171875, "399": -0.0703125, "400": -0.125, "401": -0.1171875, "402": -0.03125, "403": 0.0546875, "404": -0.125, "405": -0.09375, "406": -0.1484375, "407": -0.125, "408": -0.140625, "409": -0.109375, "410": -0.078125, "411": 0, "412": -0.203125, "413": -0.1328125, "414": -0.125, "415": -0.1171875, "416": -0.1953125, "417": -0.1875, "418": -0.1796875, "419": -0.0234375, "420": -0.15625, "421": -0.1328125, "422": -0.109375, "423": -0.1953125, "424": -0.1640625, "425": -0.015625, "426": -0.125, "427": -0.1640625, "428": -0.2421875, "429": -0.0546875, "430": -0.1484375, "431": -0.125, "432": -0.1953125, "433": 0, "434": -0.0390625, "435": 0.0546875, "436": -0.0546875, "437": -0.03125, "438": -0.1875, "439": -0.0234375, "440": -0.171875, "441": 0.0703125, "442": 0.0390625, "443": 0.140625, "444": -0.09375, "445": -0.1484375, "446": -0.3671875, "447": -0.015625, "448": -0.0625, "449": 0.0703125, "450": -0.0078125, "451": 0.046875, "452": -0.0703125, "453": -0.1328125, "454": -0.2578125, "455": -0.0546875, "456": -0.03125, "457": -0.046875, "458": -0.1328125, "459": 0.0625, "460": -0.078125, "461": -0.0859375, "462": -0.1796875, "463": -0.046875, "464": 0, "465": -0.0546875, "466": -0.25, "467": 0.0234375, "468": -0.0234375, "469": -0.0703125, "470": -0.078125, "471": -0.109375, "472": -0.0234375, "473": -0.109375, "474": -0.1484375, "475": -0.0234375, "476": -0.0078125, "477": -0.0546875, "478": -0.0078125, "479": -0.0859375, "480": 0.0078125, "481": 0, "482": 0.0859375, "483": 0.0390625, "484": 0.015625, "485": 0, "486": -0.046875, "487": 0.03125, "488": -0.0546875, "489": -0.0703125, "490": 0.0078125, "491": 0.0234375, "492": 0.0078125, "493": -0.0234375, "494": -0.046875, "495": -0.046875, "496": -0.125, "497": -0.1484375, "498": 0.0078125, "499": 0.0234375, "500": -0.0625, "501": -0.0625, "502": -0.1640625, "503": -0.109375, "504": -0.1875, "505": -0.234375, "506": -0.046875, "507": 0.0390625, "508": 0.0078125, "509": -0.140625, "510": -0.140625, "511": -0.140625, "512": -0.1875, "513": -0.1640625, "514": -0.2578125, "515": 0, "516": -0.09375, "517": -0.1484375, "518": -0.0859375, "519": -0.171875, "520": -0.2265625, "521": -0.0546875, "522": -0.3046875, "523": -0.140625, "524": -0.046875, "525": 0, "526": -0.0703125, "527": -0.109375, "528": -0.15625, "529": 0.0546875, "530": 0.0703125, "531": 0.0859375, "532": -0.0234375, "533": -0.0703125, "534": -0.0703125, "535": -0.0078125, "536": -0.1328125, "537": 0.0703125, "538": 0.03125, "539": 0.0546875, "540": -0.0703125, "541": -0.1875, "542": -0.25, "543": 0.015625, "544": -0.1171875, "545": 0.0078125, "546": -0.1015625, "547": 0.046875, "548": -0.125, "549": -0.1171875, "550": -0.328125, "551": -0.0234375, "552": -0.0546875, "553": -0.0546875, "554": -0.171875, "555": 0.03125, "556": -0.046875, "557": -0.046875, "558": -0.171875, "559": -0.03125, "560": -0.046875, "561": -0.09375, "562": -0.2109375, "563": 0, "564": -0.0078125, "565": -0.09375, "566": -0.078125, "567": -0.109375, "568": -0.0859375, "569": -0.0234375, "570": -0.09375, "571": -0.0390625, "572": -0.09375, "573": -0.0703125, "574": -0.03125, "575": -0.0390625, "576": 0, "577": -0.0234375, "578": 0.0234375, "579": 0.0859375, "580": -0.015625, "581": -0.0078125, "582": 0, "583": -0.015625, "584": -0.046875, "585": -0.015625, "586": 0, "587": 0.125, "588": 0, "589": -0.0625, "590": -0.1015625, "591": -0.0859375, "592": -0.109375, "593": -0.1484375, "594": -0.0234375, "595": 0.0859375, "596": -0.0234375, "597": -0.078125, "598": -0.15625, "599": -0.1015625, "600": -0.1640625, "601": -0.2265625, "602": -0.125, "603": 0.0703125, "604": -0.0546875, "605": -0.125, "606": -0.203125, "607": -0.15625, "608": -0.140625, "609": -0.09375, "610": -0.2734375, "611": 0.0625, "612": -0.1171875, "613": -0.1171875, "614": -0.203125, "615": -0.0546875, "616": -0.1953125, "617": -0.015625, "618": -0.3125, "619": -0.046875, "620": 0.0390625, "621": -0.03125, "622": -0.1328125, "623": -0.0234375, "624": -0.1328125, "625": 0.0546875, "626": 0.09375, "627": 0.1484375, "628": 0, "629": -0.0703125, "630": -0.15625, "631": -0.0078125, "632": -0.09375, "633": 0.03125, "634": -0.0546875, "635": 0.1015625, "636": -0.078125, "637": -0.140625, "638": -0.21875, "639": 0.0390625, "640": -0.03125, "641": -0.03125, "642": -0.03125, "643": 0.109375, "644": 0.0234375, "645": -0.0703125, "646": -0.234375, "647": -0.046875, "648": 0.015625, "649": -0.125, "650": -0.1015625, "651": 0.0625, "652": 0, "653": -0.1015625, "654": -0.1328125, "655": -0.140625, "656": -0.03125, "657": -0.1171875, "658": -0.140625, "659": 0, "660": 0.0078125, "661": -0.046875, "662": -0.0390625, "663": -0.1171875, "664": -0.046875, "665": -0.0703125, "666": -0.09375, "667": -0.0546875, "668": -0.0703125, "669": -0.03125, "670": -0.0625, "671": -0.0703125, "672": 0, "673": -0.0078125, "674": 0, "675": 0.0703125, "676": -0.0078125, "677": 0.015625, "678": -0.0234375, "679": -0.046875, "680": -0.015625, "681": -0.0703125, "682": 0, "683": 0.09375, "684": -0.0234375, "685": -0.015625, "686": -0.078125, "687": -0.078125, "688": -0.09375, "689": -0.140625, "690": -0.03125, "691": 0.03125, "692": -0.0078125, "693": -0.0859375, "694": -0.109375, "695": -0.1328125, "696": -0.21875, "697": -0.1953125, "698": -0.140625, "699": 0.0859375, "700": -0.0703125, "701": -0.1640625, "702": -0.2265625, "703": -0.1328125, "704": -0.1484375, "705": -0.0703125, "706": -0.09375, "707": 0.03125, "708": -0.109375, "709": 0.015625, "710": -0.125, "711": -0.109375, "712": -0.1328125, "713": 0.015625, "714": -0.140625, "715": 0.0390625, "716": 0, "717": -0.0546875, "718": -0.1328125, "719": -0.046875, "720": -0.0625, "721": 0.0703125, "722": 0.046875, "723": 0.2578125, "724": 0.0078125, "725": 0.0234375, "726": -0.046875, "727": 0.0703125, "728": -0.09375, "729": 0.03125, "730": -0.0703125, "731": 0.03125, "732": -0.0234375, "733": -0.1015625, "734": -0.1484375, "735": 0.0234375, "736": 0, "737": -0.015625, "738": -0.0234375, "739": 0.09375, "740": 0.015625, "741": -0.109375, "742": -0.1328125, "743": -0.0546875, "744": -0.0390625, "745": -0.140625, "746": -0.1171875, "747": 0.0390625, "748": -0.0390625, "749": -0.0546875, "750": -0.0625, "751": -0.0859375, "752": -0.0859375, "753": -0.09375, "754": -0.140625, "755": -0.0546875, "756": -0.1015625, "757": -0.0390625, "758": -0.109375, "759": -0.0859375, "760": -0.03125, "761": -0.078125, "762": -0.0703125, "763": 0, "764": 0.0078125, "765": -0.03125, "766": 0, "767": -0.0078125, "768": -0.0078125, "769": -0.046875, "770": 0.0390625, "771": 0.0859375, "772": 0.0078125, "773": 0.015625, "774": -0.0234375, "775": 0, "776": -0.09375, "777": -0.0703125, "778": 0.0390625, "779": 0.0078125, "780": 0.015625, "781": -0.0546875, "782": -0.09375, "783": -0.1640625, "784": -0.1953125, "785": -0.171875, "786": -0.0546875, "787": 0.1171875, "788": 0.0703125, "789": -0.0859375, "790": -0.140625, "791": -0.0703125, "792": -0.25, "793": -0.078125, "794": -0.1015625, "795": 0.1328125, "796": -0.0625, "797": -0.1875, "798": -0.25, "799": -0.1328125, "800": -0.1796875, "801": -0.109375, "802": -0.0234375, "803": 0.109375, "804": -0.03125, "805": -0.078125, "806": -0.140625, "807": -0.09375, "808": -0.0625, "809": 0.0078125, "810": -0.109375, "811": 0.1484375, "812": -0.0703125, "813": -0.0234375, "814": -0.0703125, "815": -0.03125, "816": -0.1328125, "817": 0.0859375, "818": 0.03125, "819": 0.140625, "820": -0.0546875, "821": -0.0859375, "822": -0.0859375, "823": 0.0703125, "824": -0.0625, "825": 0.0390625, "826": 0.0859375, "827": 0.0625, "828": 0, "829": -0.0234375, "830": -0.1171875, "831": -0.0078125, "832": 0.0546875, "833": -0.0703125, "834": 0.046875, "835": 0.078125, "836": 0.015625, "837": -0.0859375, "838": -0.1328125, "839": -0.0703125, "840": -0.015625, "841": -0.0625, "842": -0.0078125, "843": -0.09375, "844": -0.0546875, "845": -0.09375, "846": -0.0625, "847": -0.0703125, "848": -0.0390625, "849": -0.0546875, "850": -0.046875, "851": -0.125, "852": -0.0546875, "853": 0, "854": -0.0546875, "855": -0.046875, "856": -0.0234375, "857": -0.046875, "858": -0.0390625, "859": 0.015625, "860": 0, "861": 0, "862": 0.0234375, "863": -0.0546875, "864": 0, "865": 0, "866": 0.015625, "867": 0.0625, "868": 0.0390625, "869": -0.0390625, "870": -0.0625, "871": -0.015625, "872": -0.1015625, "873": -0.0390625, "874": 0.03125, "875": 0.09375, "876": 0.0546875, "877": -0.0078125, "878": -0.0390625, "879": -0.03125, "880": -0.0546875, "881": -0.09375, "882": -0.0390625, "883": 0.078125, "884": 0.078125, "885": -0.015625, "886": -0.0625, "887": -0.046875, "888": -0.21875, "889": -0.0078125, "890": -0.0390625, "891": 0.140625, "892": 0.0625, "893": -0.0859375, "894": -0.140625, "895": -0.078125, "896": -0.1796875, "897": -0.0390625, "898": -0.1015625, "899": 0.234375, "900": -0.0390625, "901": -0.078125, "902": -0.1171875, "903": -0.046875, "904": -0.125, "905": -0.046875, "906": -0.109375, "907": 0.1875, "908": -0.1015625, "909": -0.015625, "910": 0, "911": -0.0078125, "912": -0.1015625, "913": 0.0546875, "914": 0, "915": 0.0625, "916": -0.1484375, "917": -0.0078125, "918": -0.0859375, "919": 0.015625, "920": 0, "921": 0.0390625, "922": 0.09375, "923": 0, "924": -0.0859375, "925": -0.0390625, "926": -0.078125, "927": -0.1171875, "928": 0.0078125, "929": 0.0625, "930": 0.078125, "931": -0.09375, "932": -0.109375, "933": 0.015625, "934": -0.109375, "935": -0.109375, "936": 0, "937": -0.015625, "938": 0.0546875, "939": -0.1328125, "940": -0.0859375, "941": -0.03125, "942": -0.1640625, "943": -0.078125, "944": -0.0546875, "945": -0.0234375, "946": 0.0546875, "947": 0.0234375, "948": -0.046875, "949": -0.0625, "950": -0.09375, "951": -0.0390625, "952": 0, "953": -0.0078125, "954": 0, "955": 0, "956": 0, "957": 0.015625, "958": -0.015625, "959": 0, "960": 0.046875, "961": 0.0234375, "962": 0.0390625, "963": 0.0703125, "964": -0.0078125, "965": -0.0234375, "966": -0.0234375, "967": -0.0546875, "968": 0.015625, "969": -0.0390625, "970": 0.0078125, "971": 0.1015625, "972": -0.0078125, "973": -0.0390625, "974": -0.0390625, "975": 0, "976": 0, "977": -0.09375, "978": 0.0234375, "979": 0.078125, "980": 0.0390625, "981": -0.0234375, "982": 0, "983": -0.03125, "984": -0.046875, "985": -0.1640625, "986": -0.1328125, "987": 0.1015625, "988": 0.0234375, "989": -0.0390625, "990": -0.03125, "991": -0.0625, "992": -0.140625, "993": -0.0078125, "994": -0.1484375, "995": 0.25, "996": 0.015625, "997": -0.0234375, "998": -0.0859375, "999": -0.03125, "1000": -0.1328125, "1001": 0.0234375, "1002": -0.0859375, "1003": 0.0625, "1004": -0.0625, "1005": -0.0078125, "1006": 0.03125, "1007": 0.0234375, "1008": -0.03125, "1009": 0.03125, "1010": 0, "1011": 0, "1012": -0.09375, "1013": -0.0546875, "1014": -0.0234375, "1015": -0.0078125, "1016": 0.0078125, "1017": 0.0625, "1018": 0.109375, "1019": -0.0703125, "1020": -0.0703125, "1021": -0.0078125, "1022": -0.0546875, "1023": -0.0625, "1024": -0.0078125, "1025": 0, "1026": 0.0625, "1027": -0.1015625, "1028": -0.1015625, "1029": 0, "1030": 0.0703125, "1031": -0.0546875, "1032": 0, "1033": -0.015625, "1034": 0.078125, "1035": -0.0234375, "1036": -0.09375, "1037": -0.078125, "1038": -0.0703125, "1039": -0.0390625, "1040": 0, "1041": -0.078125, "1042": -0.0234375, "1043": 0, "1044": -0.0234375, "1045": 0.0078125, "1046": -0.0078125, "1047": -0.09375, "1048": -0.0390625, "1049": 0.03125, "1050": 0.03125, "1051": 0, "1052": -0.015625, "1053": -0.0625, "1054": -0.0078125, "1055": -0.0390625, "1056": -0.0625, "1057": 0.03125, "1058": 0, "1059": 0.03125, "1060": 0.0546875, "1061": 0.0078125, "1062": -0.0234375, "1063": -0.03125, "1064": -0.0703125, "1065": 0.0078125, "1066": -0.0234375, "1067": 0.0703125, "1068": -0.015625, "1069": -0.03125, "1070": -0.03125, "1071": -0.0078125, "1072": -0.0546875, "1073": 0.015625, "1074": -0.0234375, "1075": 0.0546875, "1076": 0.03125, "1077": -0.0390625, "1078": -0.015625, "1079": -0.0546875, "1080": 0, "1081": -0.0390625, "1082": -0.015625, "1083": 0.0625, "1084": -0.0078125, "1085": 0.015625, "1086": -0.0546875, "1087": -0.0234375, "1088": -0.0625, "1089": 0.015625, "1090": 0.0234375, "1091": 0.0234375, "1092": 0.015625, "1093": -0.0703125, "1094": -0.0625, "1095": -0.0234375, "1096": -0.0234375, "1097": 0.0546875, "1098": 0.03125, "1099": 0.125, "1100": 0.015625, "1101": -0.046875, "1102": -0.0234375, "1103": -0.015625, "1104": -0.0390625, "1105": 0.0390625, "1106": 0, "1107": 0.03125, "1108": -0.0234375, "1109": 0.015625, "1110": 0, "1111": -0.0234375, "1112": 0.03125, "1113": 0.0703125, "1114": 0.078125, "1115": 0.0390625, "1116": -0.0859375, "1117": -0.0390625, "1118": 0.015625, "1119": -0.03125, "1120": -0.0390625, "1121": 0.015625, "1122": 0.0546875, "1123": 0, "1124": -0.0078125, "1125": -0.0234375, "1126": -0.0078125, "1127": 0.03125, "1128": -0.03125, "1129": 0.0234375, "1130": 0.0625, "1131": -0.0078125, "1132": 0.0234375, "1133": 0.0078125, "1134": 0, "1135": -0.0390625, "1136": -0.015625, "1137": 0.0234375, "1138": -0.0234375, "1139": 0.03125, "1140": 0.0078125, "1141": -0.0078125, "1142": 0.03125, "1143": -0.0078125, "1144": -0.0234375, "1145": -0.015625, "1146": 0.03125, "1147": 0.0703125, "1148": 0.0234375, "1149": -0.0234375, "1150": -0.0078125, "1151": 0}}, {"sx": 1, "sy": 1, "depth": 1152, "w": {"0": 0, "1": 0.0234375, "2": -0.0234375, "3": 0, "4": -0.0078125, "5": 0, "6": 0.0078125, "7": 0.015625, "8": 0.0078125, "9": 0, "10": -0.0625, "11": 0.0078125, "12": 0.015625, "13": 0, "14": -0.0390625, "15": 0, "16": 0.0703125, "17": 0.0390625, "18": 0.0234375, "19": 0, "20": 0, "21": -0.015625, "22": 0.015625, "23": 0.0234375, "24": 0.0859375, "25": 0, "26": -0.0078125, "27": -0.0078125, "28": 0, "29": 0, "30": 0, "31": 0.0390625, "32": 0.0390625, "33": 0, "34": -0.046875, "35": -0.046875, "36": -0.046875, "37": 0.0703125, "38": 0.046875, "39": 0.03125, "40": 0.0390625, "41": 0, "42": -0.0078125, "43": -0.0546875, "44": -0.0546875, "45": 0.0703125, "46": 0.03125, "47": 0.015625, "48": 0.0390625, "49": 0.0078125, "50": -0.046875, "51": 0.0078125, "52": -0.0234375, "53": 0.078125, "54": 0.015625, "55": 0, "56": 0.0625, "57": 0, "58": -0.0234375, "59": -0.109375, "60": 0, "61": 0.0234375, "62": -0.0234375, "63": 0, "64": -0.0234375, "65": 0.1015625, "66": 0.0546875, "67": -0.0390625, "68": -0.078125, "69": 0.0234375, "70": 0.015625, "71": 0.0078125, "72": 0.015625, "73": 0.0234375, "74": 0.0234375, "75": -0.0078125, "76": -0.109375, "77": -0.015625, "78": 0.0234375, "79": 0.015625, "80": 0.0234375, "81": -0.03125, "82": 0.015625, "83": -0.0078125, "84": 0, "85": -0.0078125, "86": 0.0078125, "87": 0.0078125, "88": 0, "89": -0.03125, "90": -0.0625, "91": 0.0546875, "92": -0.0390625, "93": -0.0703125, "94": -0.015625, "95": -0.0703125, "96": -0.0234375, "97": 0.03125, "98": -0.03125, "99": 0.078125, "100": -0.015625, "101": -0.03125, "102": -0.0546875, "103": 0, "104": 0.015625, "105": -0.0234375, "106": -0.046875, "107": 0.0078125, "108": -0.1015625, "109": -0.015625, "110": 0.0234375, "111": -0.015625, "112": -0.0390625, "113": -0.0703125, "114": -0.0625, "115": 0.015625, "116": -0.1171875, "117": 0.015625, "118": 0.0390625, "119": -0.015625, "120": -0.015625, "121": -0.0546875, "122": -0.1171875, "123": -0.0078125, "124": -0.09375, "125": 0.0234375, "126": 0.109375, "127": 0.015625, "128": 0.0390625, "129": -0.03125, "130": 0.0078125, "131": -0.0390625, "132": -0.0546875, "133": 0, "134": 0.109375, "135": -0.015625, "136": 0.046875, "137": 0.0234375, "138": -0.03125, "139": -0.09375, "140": 0.0078125, "141": 0.046875, "142": 0.125, "143": -0.0078125, "144": 0.1640625, "145": -0.0546875, "146": 0.015625, "147": -0.1796875, "148": -0.046875, "149": 0.0703125, "150": 0.109375, "151": -0.03125, "152": 0.1171875, "153": 0, "154": -0.015625, "155": -0.1796875, "156": -0.09375, "157": 0.0625, "158": 0.0859375, "159": -0.0078125, "160": 0.0234375, "161": 0.0625, "162": 0.0078125, "163": -0.1796875, "164": -0.1171875, "165": 0.046875, "166": 0, "167": -0.0234375, "168": -0.0078125, "169": -0.0078125, "170": -0.0078125, "171": -0.0703125, "172": -0.1484375, "173": -0.046875, "174": -0.046875, "175": -0.0390625, "176": 0, "177": 0.0234375, "178": 0, "179": -0.125, "180": -0.0234375, "181": -0.03125, "182": -0.0390625, "183": -0.109375, "184": 0.0078125, "185": -0.078125, "186": -0.03125, "187": -0.03125, "188": -0.03125, "189": -0.046875, "190": -0.046875, "191": -0.046875, "192": -0.03125, "193": -0.0078125, "194": -0.03125, "195": 0.03125, "196": -0.0859375, "197": -0.03125, "198": -0.0078125, "199": -0.015625, "200": -0.0390625, "201": -0.078125, "202": -0.0078125, "203": 0.03125, "204": -0.1015625, "205": 0.0234375, "206": -0.015625, "207": 0.015625, "208": 0.0078125, "209": -0.046875, "210": -0.015625, "211": 0.0234375, "212": -0.078125, "213": 0.015625, "214": 0.0546875, "215": 0, "216": -0.0390625, "217": -0.1171875, "218": -0.03125, "219": -0.0703125, "220": -0.015625, "221": 0.03125, "222": 0.0234375, "223": -0.0546875, "224": 0, "225": -0.0625, "226": -0.0546875, "227": 0.0234375, "228": -0.0546875, "229": 0.078125, "230": 0.1484375, "231": 0.0078125, "232": -0.0234375, "233": -0.0546875, "234": 0, "235": -0.03125, "236": -0.0625, "237": 0.0703125, "238": 0.1328125, "239": -0.0546875, "240": 0.0625, "241": -0.046875, "242": 0.078125, "243": -0.1171875, "244": -0.1328125, "245": 0.015625, "246": 0.109375, "247": 0, "248": 0.03125, "249": 0, "250": 0.078125, "251": -0.1640625, "252": -0.15625, "253": 0.0546875, "254": 0.0859375, "255": 0.015625, "256": 0.015625, "257": 0, "258": 0.0625, "259": -0.1484375, "260": -0.2109375, "261": -0.015625, "262": 0.0234375, "263": -0.0390625, "264": -0.0078125, "265": 0.0078125, "266": -0.0546875, "267": -0.1484375, "268": -0.1484375, "269": -0.0078125, "270": -0.0234375, "271": -0.125, "272": 0, "273": -0.03125, "274": -0.0625, "275": -0.0546875, "276": -0.171875, "277": -0.09375, "278": -0.2421875, "279": -0.0859375, "280": -0.0625, "281": -0.0546875, "282": -0.0546875, "283": -0.015625, "284": -0.0859375, "285": -0.09375, "286": -0.1640625, "287": -0.0546875, "288": -0.0078125, "289": -0.0234375, "290": -0.0546875, "291": 0.03125, "292": -0.0625, "293": -0.0078125, "294": -0.0390625, "295": -0.0625, "296": -0.078125, "297": -0.09375, "298": -0.03125, "299": 0.0390625, "300": -0.09375, "301": -0.015625, "302": 0.0078125, "303": -0.0078125, "304": -0.0546875, "305": -0.140625, "306": -0.0625, "307": 0, "308": -0.09375, "309": -0.09375, "310": 0, "311": -0.109375, "312": -0.0703125, "313": -0.21875, "314": -0.1171875, "315": -0.03125, "316": -0.15625, "317": -0.0390625, "318": 0.078125, "319": -0.0625, "320": -0.078125, "321": -0.171875, "322": -0.0859375, "323": -0.0546875, "324": -0.171875, "325": -0.0390625, "326": 0.0703125, "327": -0.1015625, "328": -0.0234375, "329": -0.1875, "330": -0.1484375, "331": -0.0234375, "332": -0.1875, "333": -0.03125, "334": 0.0625, "335": -0.1015625, "336": 0.03125, "337": -0.0703125, "338": -0.0703125, "339": -0.03125, "340": -0.1015625, "341": 0, "342": 0.1015625, "343": -0.078125, "344": -0.0234375, "345": -0.0546875, "346": -0.0546875, "347": 0.0078125, "348": -0.0859375, "349": -0.015625, "350": 0.0390625, "351": -0.0859375, "352": 0.015625, "353": 0.046875, "354": -0.0234375, "355": -0.1796875, "356": -0.09375, "357": -0.0390625, "358": 0.015625, "359": -0.109375, "360": 0, "361": -0.0078125, "362": -0.0859375, "363": -0.1015625, "364": -0.15625, "365": -0.1484375, "366": -0.0625, "367": -0.0234375, "368": -0.0625, "369": -0.03125, "370": 0, "371": -0.0859375, "372": -0.109375, "373": -0.09375, "374": -0.2890625, "375": -0.0859375, "376": -0.078125, "377": -0.0859375, "378": -0.125, "379": -0.0625, "380": -0.046875, "381": -0.1015625, "382": -0.2734375, "383": -0.078125, "384": -0.046875, "385": -0.0546875, "386": -0.0078125, "387": 0.0546875, "388": -0.125, "389": -0.0078125, "390": 0.015625, "391": -0.0078125, "392": -0.0390625, "393": -0.1484375, "394": 0, "395": 0.078125, "396": 0.015625, "397": -0.0078125, "398": -0.0234375, "399": -0.125, "400": -0.015625, "401": -0.2265625, "402": -0.0078125, "403": 0.015625, "404": -0.03125, "405": 0.0078125, "406": 0.0390625, "407": -0.125, "408": -0.1640625, "409": -0.2421875, "410": -0.046875, "411": -0.0625, "412": -0.078125, "413": -0.0546875, "414": 0.0703125, "415": -0.2265625, "416": -0.1328125, "417": -0.2265625, "418": -0.03125, "419": -0.125, "420": -0.109375, "421": 0, "422": 0.09375, "423": -0.1484375, "424": -0.1328125, "425": -0.203125, "426": -0.0390625, "427": -0.09375, "428": -0.125, "429": 0, "430": 0.125, "431": -0.234375, "432": -0.1328125, "433": -0.1328125, "434": -0.109375, "435": -0.0546875, "436": -0.0078125, "437": -0.0625, "438": 0.078125, "439": -0.0859375, "440": -0.0859375, "441": -0.015625, "442": -0.09375, "443": -0.03125, "444": 0.046875, "445": 0, "446": -0.046875, "447": -0.1015625, "448": -0.0234375, "449": -0.03125, "450": -0.0390625, "451": 0.015625, "452": 0.015625, "453": -0.03125, "454": -0.109375, "455": 0.0078125, "456": -0.03125, "457": -0.0078125, "458": -0.03125, "459": -0.03125, "460": -0.03125, "461": -0.09375, "462": -0.1875, "463": 0, "464": -0.0625, "465": -0.03125, "466": -0.0859375, "467": -0.0390625, "468": 0.0234375, "469": -0.1015625, "470": -0.3203125, "471": -0.015625, "472": 0, "473": -0.0546875, "474": -0.0859375, "475": -0.0234375, "476": -0.0390625, "477": -0.015625, "478": -0.1875, "479": -0.0390625, "480": -0.0546875, "481": -0.03125, "482": 0.015625, "483": 0.0703125, "484": -0.046875, "485": -0.046875, "486": -0.078125, "487": -0.0625, "488": -0.0703125, "489": -0.125, "490": 0.046875, "491": 0.03125, "492": 0.09375, "493": -0.03125, "494": 0.015625, "495": -0.1171875, "496": -0.0859375, "497": -0.203125, "498": 0.0390625, "499": -0.03125, "500": 0.140625, "501": -0.0703125, "502": 0.015625, "503": -0.1953125, "504": -0.1875, "505": -0.1484375, "506": 0.109375, "507": -0.125, "508": 0.0859375, "509": -0.078125, "510": 0.015625, "511": -0.140625, "512": -0.203125, "513": -0.15625, "514": 0.0625, "515": -0.1328125, "516": -0.0625, "517": -0.03125, "518": -0.0234375, "519": -0.140625, "520": -0.140625, "521": -0.109375, "522": 0.0390625, "523": -0.171875, "524": -0.0546875, "525": -0.0234375, "526": -0.0078125, "527": -0.1640625, "528": -0.1015625, "529": -0.0703125, "530": 0.046875, "531": -0.03125, "532": 0.0078125, "533": -0.078125, "534": -0.0546875, "535": -0.078125, "536": -0.0625, "537": -0.0859375, "538": 0.015625, "539": 0.015625, "540": 0.0625, "541": -0.0546875, "542": -0.0703125, "543": -0.0546875, "544": 0, "545": -0.0859375, "546": -0.03125, "547": 0, "548": 0.015625, "549": -0.078125, "550": -0.140625, "551": 0.0390625, "552": 0.03125, "553": -0.078125, "554": -0.1484375, "555": 0.0546875, "556": 0.046875, "557": -0.0703125, "558": -0.1875, "559": 0.0703125, "560": -0.0078125, "561": -0.0390625, "562": -0.09375, "563": 0.0390625, "564": 0.0703125, "565": -0.03125, "566": -0.1328125, "567": 0.0234375, "568": -0.03125, "569": -0.0859375, "570": 0.0078125, "571": 0, "572": 0.015625, "573": -0.0078125, "574": -0.0859375, "575": -0.015625, "576": -0.046875, "577": -0.0625, "578": -0.0234375, "579": 0.0078125, "580": 0.109375, "581": -0.1171875, "582": -0.15625, "583": -0.0546875, "584": -0.046875, "585": -0.0546875, "586": -0.015625, "587": 0, "588": 0.15625, "589": -0.1484375, "590": -0.171875, "591": -0.109375, "592": -0.1171875, "593": -0.109375, "594": -0.0625, "595": -0.109375, "596": 0.1875, "597": -0.140625, "598": -0.0546875, "599": -0.0703125, "600": -0.125, "601": -0.0859375, "602": -0.0078125, "603": -0.203125, "604": 0.0234375, "605": -0.09375, "606": -0.03125, "607": -0.046875, "608": -0.0859375, "609": -0.1171875, "610": -0.03125, "611": -0.2421875, "612": 0.046875, "613": -0.0390625, "614": -0.078125, "615": -0.0625, "616": -0.0234375, "617": -0.0546875, "618": -0.015625, "619": -0.203125, "620": -0.0390625, "621": 0, "622": -0.09375, "623": -0.015625, "624": 0.046875, "625": -0.1171875, "626": 0.046875, "627": -0.1640625, "628": -0.015625, "629": -0.015625, "630": -0.1328125, "631": -0.0703125, "632": -0.015625, "633": -0.0078125, "634": -0.015625, "635": 0, "636": 0.015625, "637": 0.03125, "638": -0.1484375, "639": -0.03125, "640": 0.0078125, "641": -0.0234375, "642": -0.09375, "643": -0.015625, "644": 0.09375, "645": -0.046875, "646": -0.21875, "647": -0.0078125, "648": 0, "649": -0.0078125, "650": -0.1171875, "651": 0.0234375, "652": 0.0234375, "653": -0.0078125, "654": -0.1875, "655": -0.03125, "656": -0.0078125, "657": -0.0625, "658": -0.0625, "659": 0.0078125, "660": 0.03125, "661": 0, "662": 0.0234375, "663": 0, "664": -0.0078125, "665": 0.046875, "666": 0.0390625, "667": -0.0078125, "668": 0.0703125, "669": 0.0078125, "670": 0.0703125, "671": 0.046875, "672": -0.0546875, "673": 0, "674": 0, "675": 0.03125, "676": 0.0546875, "677": -0.0859375, "678": -0.0625, "679": -0.0234375, "680": 0.0390625, "681": 0.015625, "682": -0.0859375, "683": 0.0625, "684": 0.1875, "685": -0.0390625, "686": -0.1015625, "687": 0, "688": 0, "689": 0.015625, "690": -0.1171875, "691": -0.1640625, "692": 0.1484375, "693": -0.1015625, "694": -0.171875, "695": 0.0703125, "696": -0.0234375, "697": 0.0078125, "698": -0.1171875, "699": -0.1953125, "700": 0.125, "701": -0.09375, "702": -0.21875, "703": 0.03125, "704": 0, "705": -0.015625, "706": -0.09375, "707": -0.2109375, "708": 0.03125, "709": -0.015625, "710": -0.1015625, "711": -0.0390625, "712": 0.0546875, "713": 0.015625, "714": -0.0078125, "715": -0.1484375, "716": 0, "717": 0.0078125, "718": -0.0625, "719": 0, "720": -0.0390625, "721": -0.0078125, "722": -0.125, "723": -0.046875, "724": 0.0390625, "725": -0.03125, "726": -0.0625, "727": 0.0390625, "728": -0.0078125, "729": -0.046875, "730": -0.015625, "731": -0.03125, "732": 0, "733": -0.0625, "734": 0, "735": 0.046875, "736": 0.03125, "737": -0.078125, "738": -0.125, "739": -0.0859375, "740": 0.0390625, "741": 0, "742": -0.0703125, "743": 0.0625, "744": 0.078125, "745": -0.078125, "746": -0.0625, "747": -0.0234375, "748": 0.0390625, "749": 0.03125, "750": 0.0703125, "751": -0.0078125, "752": 0.0234375, "753": -0.0625, "754": -0.046875, "755": -0.0234375, "756": 0.0390625, "757": 0.09375, "758": 0.125, "759": 0, "760": -0.09375, "761": 0, "762": -0.046875, "763": -0.015625, "764": 0, "765": 0.109375, "766": 0.1171875, "767": 0.078125, "768": -0.0078125, "769": 0.03125, "770": -0.0234375, "771": -0.03125, "772": 0.0390625, "773": -0.0625, "774": 0, "775": 0, "776": 0.0625, "777": 0.0234375, "778": -0.0703125, "779": 0, "780": -0.0234375, "781": 0, "782": -0.03125, "783": 0.0546875, "784": 0.0703125, "785": 0.0234375, "786": -0.125, "787": -0.140625, "788": 0.046875, "789": 0.0390625, "790": 0, "791": 0.046875, "792": 0.03125, "793": 0.03125, "794": -0.1640625, "795": -0.046875, "796": 0.0234375, "797": 0.0234375, "798": -0.0234375, "799": 0.0703125, "800": 0.0546875, "801": 0.1171875, "802": -0.1484375, "803": -0.0234375, "804": 0.09375, "805": 0.0078125, "806": -0.046875, "807": 0.0625, "808": 0.1171875, "809": 0.015625, "810": -0.09375, "811": 0, "812": 0.078125, "813": 0.046875, "814": -0.03125, "815": 0.0390625, "816": 0.078125, "817": 0, "818": -0.0390625, "819": -0.09375, "820": 0.0546875, "821": 0.0234375, "822": 0, "823": 0.0625, "824": 0.0703125, "825": 0.0078125, "826": -0.0546875, "827": -0.1328125, "828": 0.046875, "829": 0.0625, "830": 0.03125, "831": 0.078125, "832": 0.078125, "833": -0.078125, "834": 0.1015625, "835": -0.1796875, "836": 0.03125, "837": 0.0390625, "838": 0.109375, "839": -0.0234375, "840": 0, "841": -0.109375, "842": 0.15625, "843": -0.1015625, "844": -0.0234375, "845": 0.078125, "846": 0.1328125, "847": -0.046875, "848": 0.0390625, "849": -0.0390625, "850": 0.1171875, "851": -0.0859375, "852": -0.046875, "853": 0.125, "854": 0.1953125, "855": -0.015625, "856": 0.0078125, "857": 0.0078125, "858": 0.078125, "859": -0.0625, "860": 0.015625, "861": 0.0859375, "862": 0.1171875, "863": 0.0234375, "864": 0.046875, "865": 0.0390625, "866": -0.03125, "867": 0, "868": 0.0078125, "869": 0.078125, "870": 0.03125, "871": 0.03125, "872": -0.1328125, "873": 0.0234375, "874": -0.078125, "875": 0.0078125, "876": 0, "877": 0.015625, "878": 0.0390625, "879": 0.03125, "880": 0, "881": 0.1171875, "882": -0.1796875, "883": -0.03125, "884": -0.015625, "885": -0.0546875, "886": 0.0078125, "887": 0.078125, "888": 0.1015625, "889": 0.0625, "890": -0.1953125, "891": 0.109375, "892": 0.015625, "893": -0.0390625, "894": -0.015625, "895": 0.046875, "896": 0.109375, "897": 0.1015625, "898": -0.203125, "899": 0.0234375, "900": -0.046875, "901": -0.03125, "902": -0.0234375, "903": 0.0625, "904": 0.0234375, "905": 0, "906": -0.078125, "907": -0.140625, "908": 0.0078125, "909": 0.0234375, "910": -0.0234375, "911": 0.015625, "912": 0.046875, "913": 0.0703125, "914": -0.1171875, "915": -0.21875, "916": -0.03125, "917": -0.0078125, "918": 0, "919": 0.015625, "920": 0.03125, "921": -0.0390625, "922": 0.0625, "923": -0.2890625, "924": -0.0625, "925": -0.0390625, "926": 0.046875, "927": -0.03125, "928": 0.109375, "929": -0.03125, "930": 0.1640625, "931": -0.2109375, "932": -0.1171875, "933": 0.0546875, "934": 0.03125, "935": -0.0703125, "936": 0.0625, "937": -0.078125, "938": 0.21875, "939": -0.140625, "940": -0.1171875, "941": 0.125, "942": 0.15625, "943": -0.0859375, "944": -0.0234375, "945": -0.0390625, "946": 0.1171875, "947": -0.15625, "948": 0.0078125, "949": 0.0390625, "950": 0.09375, "951": -0.09375, "952": -0.109375, "953": -0.0078125, "954": 0.0625, "955": -0.0859375, "956": -0.0234375, "957": 0.046875, "958": 0.109375, "959": 0.0859375, "960": 0, "961": 0.0234375, "962": -0.0703125, "963": 0.0390625, "964": -0.0859375, "965": 0.046875, "966": 0.0234375, "967": 0.0234375, "968": 0.0859375, "969": 0.0625, "970": -0.0546875, "971": 0.0546875, "972": -0.0625, "973": 0.0234375, "974": 0.046875, "975": 0.0390625, "976": 0.03125, "977": 0.0390625, "978": -0.1328125, "979": -0.0078125, "980": -0.0859375, "981": 0.015625, "982": -0.0234375, "983": 0.0859375, "984": -0.0234375, "985": 0.0625, "986": -0.203125, "987": 0, "988": -0.078125, "989": 0.046875, "990": 0.0078125, "991": 0.078125, "992": -0.015625, "993": 0.046875, "994": -0.203125, "995": -0.1171875, "996": -0.078125, "997": 0.0078125, "998": 0.046875, "999": 0.0078125, "1000": -0.0546875, "1001": 0, "1002": -0.2265625, "1003": -0.203125, "1004": -0.09375, "1005": -0.0625, "1006": -0.0625, "1007": 0, "1008": 0.0234375, "1009": 0.0078125, "1010": -0.1484375, "1011": -0.234375, "1012": -0.0625, "1013": -0.015625, "1014": 0.046875, "1015": -0.0390625, "1016": 0.0625, "1017": -0.015625, "1018": -0.0703125, "1019": -0.1953125, "1020": -0.0859375, "1021": -0.03125, "1022": 0.0234375, "1023": -0.046875, "1024": 0.0234375, "1025": -0.0390625, "1026": 0.1171875, "1027": -0.15625, "1028": -0.078125, "1029": 0, "1030": 0.1015625, "1031": -0.0859375, "1032": 0.015625, "1033": -0.1015625, "1034": 0.1328125, "1035": -0.1875, "1036": -0.078125, "1037": 0.0078125, "1038": 0.0859375, "1039": -0.0625, "1040": -0.0625, "1041": -0.0390625, "1042": 0.078125, "1043": -0.1328125, "1044": -0.0546875, "1045": 0.0625, "1046": 0.125, "1047": -0.0078125, "1048": -0.015625, "1049": 0.0390625, "1050": 0.0390625, "1051": -0.0625, "1052": -0.03125, "1053": 0.0078125, "1054": 0.046875, "1055": 0.046875, "1056": 0, "1057": 0.015625, "1058": -0.046875, "1059": 0.0546875, "1060": 0, "1061": 0.015625, "1062": -0.0078125, "1063": -0.046875, "1064": -0.03125, "1065": 0.03125, "1066": -0.046875, "1067": -0.0234375, "1068": -0.0234375, "1069": 0.0546875, "1070": 0.03125, "1071": 0.0390625, "1072": -0.0234375, "1073": 0.0703125, "1074": -0.078125, "1075": 0.03125, "1076": 0.0234375, "1077": 0.0390625, "1078": 0.09375, "1079": 0, "1080": -0.03125, "1081": -0.015625, "1082": -0.015625, "1083": -0.0390625, "1084": -0.0234375, "1085": 0.046875, "1086": 0.078125, "1087": -0.015625, "1088": -0.0390625, "1089": 0.03125, "1090": -0.046875, "1091": -0.1328125, "1092": -0.0546875, "1093": -0.015625, "1094": 0.0546875, "1095": -0.03125, "1096": -0.0859375, "1097": -0.078125, "1098": -0.0546875, "1099": -0.171875, "1100": -0.1796875, "1101": -0.015625, "1102": 0.0078125, "1103": -0.09375, "1104": -0.03125, "1105": -0.015625, "1106": -0.1171875, "1107": -0.1796875, "1108": -0.1640625, "1109": -0.0078125, "1110": 0.0390625, "1111": -0.0859375, "1112": -0.078125, "1113": -0.0546875, "1114": -0.1171875, "1115": -0.1484375, "1116": -0.078125, "1117": -0.0390625, "1118": 0.03125, "1119": -0.1015625, "1120": 0, "1121": -0.0390625, "1122": -0.03125, "1123": -0.109375, "1124": -0.1171875, "1125": -0.03125, "1126": 0.0390625, "1127": -0.0859375, "1128": -0.0546875, "1129": -0.0859375, "1130": 0.015625, "1131": -0.0546875, "1132": -0.0390625, "1133": 0.0234375, "1134": 0.0234375, "1135": -0.0859375, "1136": 0, "1137": 0.0234375, "1138": 0.03125, "1139": -0.078125, "1140": -0.0625, "1141": 0.0234375, "1142": 0.03125, "1143": -0.0078125, "1144": 0, "1145": -0.015625, "1146": -0.0234375, "1147": -0.0078125, "1148": -0.0078125, "1149": 0, "1150": 0.0078125, "1151": 0}}, {"sx": 1, "sy": 1, "depth": 1152, "w": {"0": 0, "1": 0.015625, "2": 0, "3": -0.046875, "4": 0.03125, "5": -0.0078125, "6": 0.0078125, "7": 0, "8": -0.0078125, "9": 0.015625, "10": 0, "11": -0.0234375, "12": -0.0234375, "13": 0.0078125, "14": -0.03125, "15": 0.0390625, "16": -0.03125, "17": 0.015625, "18": 0.0390625, "19": -0.03125, "20": -0.1015625, "21": 0.0390625, "22": -0.015625, "23": 0, "24": 0, "25": 0, "26": 0.015625, "27": 0.015625, "28": -0.140625, "29": 0.0078125, "30": -0.0390625, "31": -0.078125, "32": -0.0078125, "33": -0.015625, "34": -0.046875, "35": -0.03125, "36": -0.0703125, "37": 0, "38": -0.0078125, "39": -0.0546875, "40": 0, "41": 0.0546875, "42": -0.1015625, "43": -0.1015625, "44": -0.0078125, "45": 0.0625, "46": 0.0078125, "47": -0.0078125, "48": 0, "49": 0.0703125, "50": -0.03125, "51": -0.0390625, "52": -0.0078125, "53": 0.015625, "54": -0.03125, "55": 0.0078125, "56": -0.0546875, "57": 0.078125, "58": -0.0234375, "59": -0.046875, "60": -0.03125, "61": -0.0078125, "62": 0, "63": 0.03125, "64": -0.03125, "65": 0.03125, "66": 0.109375, "67": -0.0859375, "68": -0.078125, "69": -0.015625, "70": 0.0078125, "71": -0.0078125, "72": 0.0078125, "73": 0.0703125, "74": 0.0625, "75": -0.0703125, "76": -0.0234375, "77": -0.046875, "78": 0, "79": 0.0234375, "80": 0.0390625, "81": 0.0078125, "82": 0.0234375, "83": -0.03125, "84": 0.0234375, "85": 0, "86": 0.0078125, "87": 0, "88": -0.0078125, "89": -0.0703125, "90": 0, "91": -0.015625, "92": -0.0078125, "93": 0, "94": -0.0625, "95": 0, "96": 0, "97": 0.046875, "98": -0.03125, "99": 0.0234375, "100": 0.015625, "101": -0.015625, "102": -0.0078125, "103": 0.0234375, "104": 0.015625, "105": 0.0234375, "106": 0.015625, "107": 0, "108": -0.09375, "109": 0.0234375, "110": -0.0078125, "111": 0.046875, "112": 0.0859375, "113": 0, "114": -0.0234375, "115": 0.0390625, "116": -0.15625, "117": 0.0703125, "118": 0, "119": 0.0390625, "120": 0.0390625, "121": -0.0625, "122": -0.0859375, "123": 0.0546875, "124": -0.0859375, "125": 0.0546875, "126": 0.0625, "127": 0, "128": 0.078125, "129": -0.0859375, "130": -0.0703125, "131": -0.0078125, "132": -0.0390625, "133": 0.1484375, "134": 0.1484375, "135": -0.0859375, "136": 0.078125, "137": -0.0859375, "138": -0.0703125, "139": 0.015625, "140": 0.015625, "141": 0.0859375, "142": 0.109375, "143": -0.015625, "144": -0.015625, "145": 0.0234375, "146": -0.03125, "147": -0.015625, "148": -0.078125, "149": 0.03125, "150": 0.015625, "151": 0.03125, "152": -0.0859375, "153": 0.0234375, "154": -0.09375, "155": -0.1171875, "156": -0.171875, "157": -0.0078125, "158": -0.03125, "159": -0.0390625, "160": -0.0859375, "161": 0.0546875, "162": -0.0546875, "163": -0.15625, "164": -0.21875, "165": -0.046875, "166": -0.046875, "167": -0.0078125, "168": -0.0859375, "169": 0.0703125, "170": -0.0078125, "171": -0.0546875, "172": -0.140625, "173": -0.09375, "174": -0.0859375, "175": -0.0234375, "176": 0, "177": 0.015625, "178": 0.0234375, "179": -0.140625, "180": -0.1171875, "181": -0.078125, "182": -0.171875, "183": -0.0625, "184": 0, "185": -0.0390625, "186": -0.046875, "187": -0.078125, "188": 0.015625, "189": -0.09375, "190": -0.03125, "191": -0.046875, "192": 0.046875, "193": 0.0625, "194": 0.03125, "195": -0.0390625, "196": 0.0078125, "197": 0.0078125, "198": 0.0625, "199": 0, "200": 0.0703125, "201": 0.0390625, "202": 0.0625, "203": 0.0234375, "204": -0.1640625, "205": 0.0625, "206": 0.09375, "207": 0.046875, "208": 0.0703125, "209": -0.1015625, "210": -0.0078125, "211": 0, "212": -0.03125, "213": 0.0703125, "214": 0.0625, "215": -0.0234375, "216": 0.015625, "217": -0.140625, "218": 0.03125, "219": 0.015625, "220": -0.03125, "221": 0.0625, "222": 0.1484375, "223": -0.1328125, "224": 0.0546875, "225": -0.1171875, "226": 0.109375, "227": -0.203125, "228": -0.015625, "229": 0.09375, "230": 0.140625, "231": -0.1484375, "232": -0.015625, "233": 0.0234375, "234": 0.0859375, "235": -0.28125, "236": -0.0703125, "237": 0.0234375, "238": 0.1640625, "239": -0.0703125, "240": -0.0234375, "241": 0, "242": 0.125, "243": -0.1796875, "244": -0.1796875, "245": -0.015625, "246": 0.0859375, "247": 0.03125, "248": -0.03125, "249": 0.0546875, "250": -0.015625, "251": -0.0625, "252": -0.1875, "253": -0.0390625, "254": 0, "255": 0.0078125, "256": -0.03125, "257": 0.015625, "258": -0.0390625, "259": -0.1015625, "260": -0.234375, "261": -0.0703125, "262": -0.046875, "263": 0, "264": -0.0234375, "265": 0.0234375, "266": -0.078125, "267": -0.09375, "268": -0.109375, "269": -0.078125, "270": -0.1015625, "271": -0.03125, "272": -0.046875, "273": 0.015625, "274": -0.0625, "275": -0.0546875, "276": -0.09375, "277": -0.0703125, "278": -0.234375, "279": -0.0859375, "280": 0, "281": -0.0390625, "282": 0.03125, "283": -0.0078125, "284": -0.015625, "285": 0, "286": -0.078125, "287": -0.0078125, "288": -0.0078125, "289": 0.0390625, "290": -0.0390625, "291": -0.0859375, "292": -0.109375, "293": 0.0546875, "294": 0.1171875, "295": 0.0703125, "296": 0, "297": -0.0546875, "298": -0.0234375, "299": 0, "300": -0.09375, "301": 0.0390625, "302": 0.0234375, "303": 0.0234375, "304": 0.03125, "305": -0.125, "306": -0.03125, "307": -0.0234375, "308": -0.0234375, "309": 0.0234375, "310": 0.0703125, "311": -0.109375, "312": 0.0390625, "313": -0.2109375, "314": -0.0703125, "315": -0.078125, "316": 0.0546875, "317": 0.0625, "318": 0.03125, "319": -0.1484375, "320": 0.0859375, "321": -0.21875, "322": 0, "323": -0.2734375, "324": 0.015625, "325": 0.0390625, "326": 0.1640625, "327": -0.125, "328": -0.03125, "329": -0.078125, "330": -0.046875, "331": -0.2734375, "332": 0.0078125, "333": 0.0546875, "334": 0.125, "335": 0, "336": 0.015625, "337": -0.0234375, "338": -0.078125, "339": -0.1953125, "340": -0.03125, "341": 0, "342": 0.1171875, "343": 0.078125, "344": 0, "345": -0.0234375, "346": -0.1171875, "347": -0.09375, "348": -0.0625, "349": -0.0625, "350": -0.0546875, "351": 0.0390625, "352": -0.0703125, "353": 0.0078125, "354": -0.09375, "355": -0.0546875, "356": -0.109375, "357": -0.0546875, "358": -0.0859375, "359": 0, "360": 0.0078125, "361": 0.046875, "362": -0.125, "363": 0, "364": -0.03125, "365": -0.0078125, "366": -0.203125, "367": -0.0078125, "368": -0.1015625, "369": -0.015625, "370": -0.109375, "371": -0.0234375, "372": -0.125, "373": -0.125, "374": -0.2578125, "375": -0.0078125, "376": -0.015625, "377": -0.0859375, "378": -0.078125, "379": 0.03125, "380": -0.015625, "381": -0.0859375, "382": -0.1640625, "383": -0.109375, "384": -0.0390625, "385": -0.03125, "386": -0.0390625, "387": 0.0078125, "388": -0.078125, "389": 0.0546875, "390": 0.046875, "391": 0, "392": 0, "393": -0.1640625, "394": -0.0546875, "395": 0.046875, "396": -0.0546875, "397": -0.0234375, "398": 0.015625, "399": -0.0703125, "400": 0.0390625, "401": -0.28125, "402": -0.0859375, "403": -0.015625, "404": 0.03125, "405": -0.0625, "406": 0.0390625, "407": -0.1640625, "408": 0.0078125, "409": -0.203125, "410": -0.0703125, "411": -0.15625, "412": 0.2109375, "413": -0.03125, "414": 0.0625, "415": -0.1328125, "416": -0.0234375, "417": -0.1875, "418": -0.15625, "419": -0.234375, "420": 0.1875, "421": -0.0625, "422": 0.09375, "423": -0.0234375, "424": -0.0546875, "425": -0.0390625, "426": -0.3046875, "427": -0.2421875, "428": 0.109375, "429": 0.0546875, "430": 0.1484375, "431": -0.0234375, "432": -0.015625, "433": -0.0390625, "434": -0.171875, "435": -0.140625, "436": 0.0234375, "437": -0.015625, "438": 0.125, "439": 0.0234375, "440": 0.015625, "441": 0.015625, "442": -0.171875, "443": -0.078125, "444": 0.0390625, "445": 0.0078125, "446": 0, "447": 0.015625, "448": -0.046875, "449": -0.03125, "450": -0.1328125, "451": -0.03125, "452": 0.015625, "453": 0.0234375, "454": -0.0625, "455": 0.0390625, "456": 0.015625, "457": -0.03125, "458": -0.1328125, "459": 0, "460": 0.0546875, "461": -0.0078125, "462": -0.1015625, "463": 0.0078125, "464": -0.109375, "465": -0.0546875, "466": -0.0859375, "467": 0.046875, "468": -0.0078125, "469": -0.1015625, "470": -0.1328125, "471": -0.046875, "472": -0.0078125, "473": -0.1171875, "474": -0.0703125, "475": 0, "476": 0, "477": -0.0625, "478": -0.15625, "479": -0.125, "480": -0.046875, "481": 0, "482": 0.0078125, "483": 0.03125, "484": -0.0859375, "485": -0.0390625, "486": 0.0234375, "487": -0.078125, "488": -0.109375, "489": -0.2421875, "490": 0, "491": 0.125, "492": -0.0390625, "493": -0.046875, "494": -0.046875, "495": -0.1953125, "496": -0.046875, "497": -0.265625, "498": -0.1015625, "499": 0, "500": -0.015625, "501": -0.0546875, "502": -0.078125, "503": -0.234375, "504": 0, "505": -0.25, "506": -0.234375, "507": -0.0859375, "508": 0.03125, "509": -0.015625, "510": 0.0859375, "511": -0.1171875, "512": -0.0078125, "513": -0.1796875, "514": -0.265625, "515": -0.1953125, "516": 0.15625, "517": 0.015625, "518": 0.0859375, "519": 0.0234375, "520": 0, "521": -0.0390625, "522": -0.28125, "523": -0.2578125, "524": 0.1640625, "525": 0.03125, "526": 0.1015625, "527": 0.03125, "528": 0.03125, "529": 0, "530": -0.09375, "531": -0.1796875, "532": 0, "533": 0.078125, "534": 0.046875, "535": 0, "536": 0.1171875, "537": 0.015625, "538": -0.109375, "539": -0.0234375, "540": 0.015625, "541": 0.0703125, "542": 0, "543": 0.046875, "544": -0.0234375, "545": -0.0078125, "546": -0.078125, "547": -0.1171875, "548": -0.0390625, "549": 0, "550": -0.03125, "551": 0.015625, "552": -0.0234375, "553": -0.0078125, "554": -0.015625, "555": -0.0078125, "556": 0.0234375, "557": 0, "558": 0.0390625, "559": -0.0859375, "560": -0.046875, "561": -0.125, "562": -0.0703125, "563": 0.0390625, "564": 0, "565": -0.046875, "566": 0.015625, "567": -0.078125, "568": 0, "569": -0.1796875, "570": -0.0625, "571": 0.0078125, "572": -0.0078125, "573": -0.0625, "574": -0.1015625, "575": -0.140625, "576": -0.1171875, "577": -0.0234375, "578": 0.015625, "579": 0.0390625, "580": -0.0625, "581": -0.1484375, "582": -0.125, "583": -0.09375, "584": -0.046875, "585": -0.1796875, "586": 0.0390625, "587": 0.0546875, "588": -0.1015625, "589": -0.1328125, "590": -0.1171875, "591": -0.2265625, "592": -0.0546875, "593": -0.25, "594": 0.0859375, "595": 0.0234375, "596": -0.171875, "597": 0, "598": -0.0546875, "599": -0.171875, "600": -0.1015625, "601": -0.2265625, "602": -0.03125, "603": -0.171875, "604": -0.0625, "605": -0.0546875, "606": 0.0234375, "607": -0.171875, "608": 0.015625, "609": -0.21875, "610": -0.1328125, "611": -0.21875, "612": -0.03125, "613": -0.03125, "614": 0.0625, "615": -0.140625, "616": 0.0625, "617": -0.125, "618": -0.171875, "619": -0.3515625, "620": -0.0078125, "621": 0.046875, "622": 0.1171875, "623": 0.0390625, "624": 0.03125, "625": -0.046875, "626": -0.1484375, "627": -0.1328125, "628": -0.0625, "629": 0.078125, "630": 0.140625, "631": 0, "632": 0, "633": -0.015625, "634": -0.03125, "635": -0.203125, "636": -0.1015625, "637": 0.0546875, "638": 0.1015625, "639": -0.03125, "640": -0.0546875, "641": -0.0078125, "642": -0.0078125, "643": -0.1953125, "644": -0.140625, "645": 0.109375, "646": 0.046875, "647": -0.0234375, "648": -0.078125, "649": -0.015625, "650": 0.015625, "651": -0.15625, "652": -0.046875, "653": 0.0078125, "654": 0.0546875, "655": -0.046875, "656": -0.0703125, "657": -0.046875, "658": -0.03125, "659": -0.0390625, "660": 0, "661": -0.0859375, "662": -0.0625, "663": -0.0703125, "664": -0.03125, "665": -0.0625, "666": -0.0078125, "667": -0.078125, "668": -0.0625, "669": -0.1015625, "670": -0.0703125, "671": -0.125, "672": -0.046875, "673": 0, "674": 0.0234375, "675": 0.046875, "676": 0, "677": -0.1015625, "678": -0.0546875, "679": -0.0546875, "680": -0.1015625, "681": -0.0625, "682": 0.15625, "683": 0, "684": -0.078125, "685": -0.078125, "686": -0.171875, "687": -0.171875, "688": -0.0859375, "689": -0.0703125, "690": 0.1484375, "691": -0.09375, "692": -0.1484375, "693": -0.0390625, "694": -0.1015625, "695": -0.2109375, "696": -0.1328125, "697": -0.15625, "698": 0.1640625, "699": -0.1640625, "700": -0.15625, "701": 0.0078125, "702": 0.03125, "703": -0.265625, "704": 0, "705": -0.171875, "706": 0.0859375, "707": -0.1640625, "708": -0.1328125, "709": 0, "710": 0.125, "711": -0.1484375, "712": 0.0234375, "713": -0.1171875, "714": 0.0234375, "715": -0.25, "716": -0.09375, "717": 0.078125, "718": 0.1953125, "719": -0.125, "720": 0.0234375, "721": -0.0703125, "722": -0.1171875, "723": -0.28125, "724": -0.1328125, "725": 0.0546875, "726": 0.1171875, "727": -0.0078125, "728": 0.09375, "729": -0.0625, "730": 0.0859375, "731": -0.140625, "732": -0.125, "733": 0.0546875, "734": 0.1015625, "735": -0.078125, "736": -0.0234375, "737": -0.0390625, "738": 0.0390625, "739": -0.125, "740": -0.0703125, "741": -0.015625, "742": -0.046875, "743": -0.09375, "744": 0, "745": 0.015625, "746": 0.0234375, "747": -0.1484375, "748": -0.0859375, "749": -0.140625, "750": -0.046875, "751": -0.0234375, "752": -0.03125, "753": -0.0625, "754": -0.03125, "755": -0.0546875, "756": -0.125, "757": -0.1328125, "758": -0.2109375, "759": -0.0390625, "760": -0.03125, "761": -0.0546875, "762": -0.0078125, "763": -0.015625, "764": -0.1484375, "765": -0.0625, "766": -0.234375, "767": -0.0859375, "768": -0.0390625, "769": -0.0625, "770": 0.015625, "771": -0.0078125, "772": -0.0390625, "773": -0.1015625, "774": -0.03125, "775": -0.0703125, "776": -0.0234375, "777": -0.046875, "778": 0.125, "779": -0.0703125, "780": -0.0625, "781": -0.03125, "782": -0.0078125, "783": -0.109375, "784": -0.140625, "785": -0.0625, "786": 0.1484375, "787": -0.0859375, "788": -0.0859375, "789": -0.03125, "790": -0.0390625, "791": -0.1484375, "792": -0.03125, "793": -0.15625, "794": 0.140625, "795": -0.171875, "796": -0.109375, "797": -0.109375, "798": 0.015625, "799": -0.1875, "800": -0.015625, "801": -0.1484375, "802": 0.140625, "803": -0.3203125, "804": -0.1484375, "805": -0.0234375, "806": 0.0859375, "807": -0.1328125, "808": -0.0703125, "809": -0.109375, "810": 0.0859375, "811": -0.3515625, "812": -0.1875, "813": 0.0234375, "814": 0.1875, "815": -0.0625, "816": -0.140625, "817": -0.1171875, "818": 0.046875, "819": -0.296875, "820": -0.0625, "821": 0.015625, "822": 0.1015625, "823": -0.0546875, "824": -0.0234375, "825": -0.0625, "826": 0.015625, "827": -0.1015625, "828": -0.09375, "829": -0.0703125, "830": 0.0546875, "831": -0.046875, "832": -0.0234375, "833": -0.0234375, "834": 0.0078125, "835": -0.0859375, "836": -0.0859375, "837": 0.0078125, "838": -0.0390625, "839": 0, "840": -0.0546875, "841": 0.0078125, "842": 0, "843": -0.0703125, "844": -0.0859375, "845": -0.1015625, "846": -0.0859375, "847": 0.0234375, "848": -0.015625, "849": -0.0078125, "850": -0.015625, "851": 0.015625, "852": -0.0234375, "853": -0.09375, "854": -0.234375, "855": 0, "856": -0.0390625, "857": -0.046875, "858": -0.015625, "859": -0.015625, "860": 0, "861": -0.078125, "862": -0.1171875, "863": -0.0078125, "864": -0.046875, "865": 0, "866": 0.0390625, "867": 0.015625, "868": -0.0546875, "869": -0.0859375, "870": -0.09375, "871": -0.0859375, "872": 0.0390625, "873": -0.078125, "874": 0.0703125, "875": -0.1484375, "876": -0.0078125, "877": -0.0078125, "878": -0.0234375, "879": -0.0625, "880": -0.015625, "881": -0.0546875, "882": 0.140625, "883": -0.125, "884": -0.03125, "885": 0, "886": 0.0390625, "887": -0.078125, "888": -0.0546875, "889": -0.0390625, "890": 0.0859375, "891": -0.2109375, "892": -0.015625, "893": -0.0234375, "894": 0, "895": -0.046875, "896": -0.0859375, "897": -0.078125, "898": 0.09375, "899": -0.2890625, "900": 0.0078125, "901": -0.0078125, "902": 0.046875, "903": -0.1015625, "904": -0.0078125, "905": -0.1640625, "906": 0.0625, "907": -0.2890625, "908": -0.0546875, "909": 0, "910": 0.0625, "911": -0.0703125, "912": 0, "913": -0.125, "914": -0.0234375, "915": -0.203125, "916": -0.0234375, "917": 0.03125, "918": 0.0546875, "919": -0.015625, "920": -0.0390625, "921": -0.0859375, "922": -0.0546875, "923": -0.03125, "924": 0.0234375, "925": -0.03125, "926": 0.03125, "927": 0.03125, "928": -0.078125, "929": 0, "930": -0.140625, "931": -0.046875, "932": 0.046875, "933": 0, "934": -0.015625, "935": -0.0078125, "936": -0.046875, "937": 0.0546875, "938": -0.078125, "939": -0.0234375, "940": 0.0546875, "941": -0.0078125, "942": -0.125, "943": 0.0546875, "944": 0.0078125, "945": 0.0234375, "946": -0.0625, "947": -0.03125, "948": 0.03125, "949": -0.03125, "950": -0.1328125, "951": 0.015625, "952": 0, "953": -0.0703125, "954": 0, "955": -0.0234375, "956": -0.0625, "957": -0.03125, "958": -0.1484375, "959": -0.03125, "960": -0.0546875, "961": 0.046875, "962": 0.03125, "963": 0.046875, "964": 0.0234375, "965": -0.125, "966": -0.0546875, "967": -0.0234375, "968": -0.015625, "969": 0, "970": 0.1171875, "971": 0, "972": 0.0859375, "973": -0.0859375, "974": -0.03125, "975": -0.078125, "976": -0.03125, "977": 0.015625, "978": 0.1328125, "979": -0.09375, "980": 0.1015625, "981": -0.015625, "982": 0, "983": -0.0078125, "984": -0.015625, "985": 0, "986": 0.2265625, "987": -0.21875, "988": 0.0234375, "989": -0.0390625, "990": 0.046875, "991": -0.0234375, "992": 0.015625, "993": 0.0078125, "994": 0.1796875, "995": -0.21875, "996": 0.1640625, "997": 0, "998": 0.046875, "999": -0.0234375, "1000": -0.0546875, "1001": 0.046875, "1002": 0.140625, "1003": -0.1953125, "1004": 0.140625, "1005": -0.0703125, "1006": 0.03125, "1007": -0.046875, "1008": -0.109375, "1009": -0.0546875, "1010": 0.046875, "1011": -0.0859375, "1012": 0.03125, "1013": -0.0390625, "1014": -0.0390625, "1015": -0.0234375, "1016": -0.0546875, "1017": -0.0234375, "1018": -0.0859375, "1019": 0, "1020": 0.1015625, "1021": -0.0234375, "1022": -0.0859375, "1023": -0.0078125, "1024": -0.0625, "1025": 0, "1026": -0.171875, "1027": 0.015625, "1028": 0.0234375, "1029": -0.046875, "1030": -0.03125, "1031": -0.0078125, "1032": -0.03125, "1033": 0.015625, "1034": -0.1640625, "1035": 0, "1036": 0.0390625, "1037": -0.0546875, "1038": -0.0703125, "1039": 0.0234375, "1040": -0.0546875, "1041": 0.0078125, "1042": -0.125, "1043": 0.015625, "1044": -0.046875, "1045": -0.0625, "1046": -0.0390625, "1047": 0.015625, "1048": -0.015625, "1049": -0.0703125, "1050": -0.0390625, "1051": -0.03125, "1052": -0.03125, "1053": -0.0703125, "1054": -0.0703125, "1055": -0.03125, "1056": 0, "1057": 0.0078125, "1058": 0, "1059": -0.046875, "1060": 0.03125, "1061": 0.0703125, "1062": 0, "1063": 0.03125, "1064": 0.1328125, "1065": 0, "1066": -0.046875, "1067": 0.0234375, "1068": 0.0078125, "1069": 0, "1070": 0, "1071": 0.046875, "1072": 0.0703125, "1073": -0.0625, "1074": 0.015625, "1075": -0.0703125, "1076": -0.0234375, "1077": 0.015625, "1078": -0.015625, "1079": 0.015625, "1080": 0.109375, "1081": 0.0625, "1082": 0.0234375, "1083": -0.1484375, "1084": -0.0625, "1085": 0.109375, "1086": -0.0390625, "1087": 0.0625, "1088": 0.09375, "1089": 0.0078125, "1090": 0.03125, "1091": -0.1484375, "1092": -0.0546875, "1093": 0.0390625, "1094": 0.0390625, "1095": 0.1484375, "1096": 0.0078125, "1097": 0, "1098": 0, "1099": -0.109375, "1100": 0.046875, "1101": 0.0625, "1102": -0.0078125, "1103": 0.0859375, "1104": 0.0390625, "1105": 0.0234375, "1106": -0.0390625, "1107": -0.0078125, "1108": 0.015625, "1109": 0.0703125, "1110": 0, "1111": 0.0703125, "1112": -0.109375, "1113": -0.0234375, "1114": -0.1796875, "1115": -0.0546875, "1116": -0.015625, "1117": 0.046875, "1118": -0.046875, "1119": 0, "1120": -0.046875, "1121": -0.0703125, "1122": -0.125, "1123": -0.0234375, "1124": -0.0078125, "1125": 0, "1126": -0.0234375, "1127": -0.0546875, "1128": -0.015625, "1129": 0.015625, "1130": -0.046875, "1131": -0.0625, "1132": -0.0390625, "1133": 0.0078125, "1134": -0.0234375, "1135": 0.0078125, "1136": -0.03125, "1137": 0, "1138": -0.046875, "1139": 0.0390625, "1140": -0.0078125, "1141": -0.03125, "1142": -0.0234375, "1143": -0.03125, "1144": 0.0234375, "1145": -0.0703125, "1146": -0.03125, "1147": 0.03125, "1148": -0.0625, "1149": -0.015625, "1150": -0.0234375, "1151": -0.0234375}}, {"sx": 1, "sy": 1, "depth": 1152, "w": {"0": -0.0625, "1": 0, "2": -0.046875, "3": -0.0390625, "4": -0.03125, "5": 0, "6": -0.0546875, "7": 0.0078125, "8": 0, "9": 0.0390625, "10": -0.0546875, "11": 0, "12": -0.0390625, "13": 0, "14": 0.03125, "15": -0.0078125, "16": -0.046875, "17": -0.0625, "18": -0.0390625, "19": -0.0546875, "20": 0, "21": -0.0546875, "22": 0.078125, "23": -0.0234375, "24": -0.0390625, "25": -0.0703125, "26": 0, "27": -0.046875, "28": -0.078125, "29": 0.0078125, "30": -0.0390625, "31": -0.0546875, "32": -0.0625, "33": -0.1171875, "34": -0.03125, "35": -0.015625, "36": -0.125, "37": 0.0234375, "38": 0, "39": -0.125, "40": -0.125, "41": -0.203125, "42": -0.109375, "43": -0.0390625, "44": 0.015625, "45": -0.0625, "46": -0.0234375, "47": -0.2421875, "48": -0.140625, "49": -0.140625, "50": -0.125, "51": -0.125, "52": -0.0546875, "53": -0.046875, "54": -0.03125, "55": -0.2578125, "56": -0.140625, "57": -0.1640625, "58": -0.1484375, "59": -0.15625, "60": -0.0390625, "61": -0.046875, "62": -0.0234375, "63": -0.2890625, "64": -0.1171875, "65": -0.1953125, "66": -0.1484375, "67": -0.125, "68": 0, "69": -0.046875, "70": -0.015625, "71": -0.1875, "72": -0.1171875, "73": -0.09375, "74": -0.125, "75": -0.09375, "76": -0.0625, "77": 0, "78": 0.0078125, "79": -0.09375, "80": -0.0546875, "81": 0.0078125, "82": -0.0859375, "83": -0.125, "84": -0.0234375, "85": -0.03125, "86": -0.0078125, "87": -0.0546875, "88": 0, "89": -0.015625, "90": 0, "91": -0.0625, "92": 0.0078125, "93": -0.0234375, "94": 0.03125, "95": -0.015625, "96": -0.015625, "97": 0.03125, "98": -0.0078125, "99": -0.0859375, "100": 0.0078125, "101": -0.0390625, "102": -0.0234375, "103": 0.0078125, "104": 0.015625, "105": -0.0078125, "106": -0.03125, "107": -0.09375, "108": -0.0234375, "109": -0.015625, "110": 0, "111": 0.0390625, "112": 0, "113": -0.0234375, "114": 0.0546875, "115": -0.0703125, "116": 0.0625, "117": -0.046875, "118": -0.03125, "119": 0, "120": -0.0390625, "121": -0.03125, "122": 0.0234375, "123": -0.1015625, "124": -0.0234375, "125": -0.0078125, "126": -0.0859375, "127": -0.0390625, "128": -0.0859375, "129": -0.109375, "130": 0.0234375, "131": -0.046875, "132": -0.015625, "133": -0.0546875, "134": -0.109375, "135": -0.1171875, "136": -0.0703125, "137": -0.1171875, "138": 0.0078125, "139": -0.015625, "140": -0.0390625, "141": -0.046875, "142": -0.1796875, "143": -0.1875, "144": -0.1015625, "145": -0.0859375, "146": -0.03125, "147": -0.125, "148": 0.0546875, "149": -0.1171875, "150": -0.1875, "151": -0.1484375, "152": -0.109375, "153": -0.015625, "154": 0.015625, "155": -0.0625, "156": 0.0234375, "157": -0.1328125, "158": -0.1796875, "159": -0.15625, "160": -0.15625, "161": -0.0234375, "162": -0.0625, "163": -0.109375, "164": 0.0234375, "165": -0.1484375, "166": -0.203125, "167": -0.1015625, "168": -0.0390625, "169": -0.0234375, "170": -0.03125, "171": -0.0546875, "172": 0.0390625, "173": -0.046875, "174": -0.0859375, "175": 0.0625, "176": -0.015625, "177": 0, "178": -0.0390625, "179": -0.078125, "180": 0.1015625, "181": 0.0078125, "182": -0.0546875, "183": -0.0546875, "184": -0.015625, "185": 0.0390625, "186": 0, "187": -0.1171875, "188": -0.0078125, "189": 0.0546875, "190": -0.0234375, "191": 0.0546875, "192": -0.046875, "193": 0.0625, "194": -0.03125, "195": -0.0546875, "196": -0.0234375, "197": -0.03125, "198": 0.0078125, "199": -0.0078125, "200": 0, "201": -0.03125, "202": 0.0390625, "203": -0.046875, "204": -0.0078125, "205": -0.0546875, "206": -0.0859375, "207": 0.0078125, "208": 0, "209": 0.015625, "210": 0.1015625, "211": -0.0625, "212": -0.0390625, "213": 0, "214": -0.046875, "215": 0, "216": -0.046875, "217": 0, "218": 0.0625, "219": 0.03125, "220": 0.015625, "221": -0.0390625, "222": -0.125, "223": 0.015625, "224": -0.0390625, "225": -0.078125, "226": 0.1015625, "227": 0.09375, "228": 0.0625, "229": -0.125, "230": -0.2109375, "231": -0.1171875, "232": -0.0625, "233": -0.0703125, "234": 0.0078125, "235": 0.109375, "236": 0.0546875, "237": -0.203125, "238": -0.2890625, "239": -0.0546875, "240": -0.140625, "241": -0.046875, "242": -0.0234375, "243": 0.046875, "244": 0.09375, "245": -0.1640625, "246": -0.359375, "247": -0.0859375, "248": -0.046875, "249": -0.0859375, "250": -0.0625, "251": 0.1015625, "252": 0.109375, "253": -0.21875, "254": -0.34375, "255": -0.0390625, "256": 0.015625, "257": -0.078125, "258": -0.1171875, "259": 0.0625, "260": 0.078125, "261": -0.2109375, "262": -0.28125, "263": -0.0078125, "264": 0.0078125, "265": 0, "266": -0.0390625, "267": 0.078125, "268": 0.2109375, "269": -0.078125, "270": -0.171875, "271": -0.015625, "272": 0.03125, "273": -0.0078125, "274": -0.015625, "275": 0.0625, "276": 0.1484375, "277": 0.03125, "278": -0.0390625, "279": 0.0859375, "280": -0.0078125, "281": 0.09375, "282": -0.015625, "283": 0.015625, "284": 0.0078125, "285": -0.03125, "286": 0.0078125, "287": 0.1484375, "288": 0, "289": -0.0078125, "290": 0.0234375, "291": -0.078125, "292": -0.078125, "293": -0.015625, "294": -0.0078125, "295": 0.0078125, "296": -0.03125, "297": -0.0546875, "298": 0.03125, "299": -0.0078125, "300": -0.0234375, "301": -0.0234375, "302": -0.0234375, "303": -0.0234375, "304": -0.0546875, "305": 0.015625, "306": -0.03125, "307": 0.0546875, "308": -0.078125, "309": -0.0859375, "310": -0.015625, "311": -0.046875, "312": -0.078125, "313": -0.015625, "314": 0, "315": 0.015625, "316": -0.0234375, "317": -0.125, "318": -0.265625, "319": -0.046875, "320": -0.0078125, "321": 0.0234375, "322": 0.0390625, "323": 0.1484375, "324": 0.0078125, "325": -0.25, "326": -0.28125, "327": 0.0078125, "328": -0.0234375, "329": 0.015625, "330": 0, "331": 0.25, "332": 0.0234375, "333": -0.2109375, "334": -0.359375, "335": 0, "336": -0.1328125, "337": -0.0625, "338": -0.03125, "339": 0.2265625, "340": 0.0859375, "341": -0.234375, "342": -0.375, "343": -0.0390625, "344": -0.0390625, "345": 0.0078125, "346": -0.109375, "347": 0.2109375, "348": 0.0625, "349": -0.25, "350": -0.421875, "351": -0.0390625, "352": 0, "353": 0.0078125, "354": -0.109375, "355": 0.1328125, "356": 0.140625, "357": -0.2109375, "358": -0.34375, "359": -0.0078125, "360": 0.0625, "361": -0.0703125, "362": -0.1328125, "363": 0.125, "364": 0.09375, "365": -0.078125, "366": -0.3359375, "367": 0.0859375, "368": 0.0859375, "369": -0.078125, "370": -0.109375, "371": 0.1328125, "372": 0.140625, "373": 0, "374": -0.1328125, "375": 0.0859375, "376": -0.03125, "377": -0.0078125, "378": -0.046875, "379": 0.0234375, "380": 0.03125, "381": 0.015625, "382": 0, "383": 0.0546875, "384": -0.015625, "385": 0.015625, "386": -0.046875, "387": -0.0625, "388": -0.0390625, "389": -0.0859375, "390": -0.0390625, "391": -0.0078125, "392": -0.1015625, "393": 0.015625, "394": -0.09375, "395": -0.09375, "396": -0.015625, "397": -0.0546875, "398": -0.09375, "399": -0.0390625, "400": -0.015625, "401": 0.0390625, "402": 0.0078125, "403": 0, "404": 0.09375, "405": -0.09375, "406": -0.078125, "407": -0.0703125, "408": -0.0078125, "409": 0.0546875, "410": 0.03125, "411": 0.1171875, "412": 0.0546875, "413": -0.1015625, "414": -0.25, "415": 0.0546875, "416": -0.0546875, "417": 0.0859375, "418": 0.1015625, "419": 0.171875, "420": 0.0390625, "421": -0.1953125, "422": -0.3671875, "423": 0, "424": -0.046875, "425": 0.0390625, "426": 0.1015625, "427": 0.09375, "428": -0.0546875, "429": -0.203125, "430": -0.3671875, "431": 0, "432": -0.0546875, "433": -0.0625, "434": -0.0390625, "435": 0.140625, "436": 0.015625, "437": -0.1171875, "438": -0.3359375, "439": -0.0234375, "440": -0.046875, "441": -0.015625, "442": -0.125, "443": 0.0625, "444": 0.015625, "445": -0.15625, "446": -0.34375, "447": 0.0390625, "448": 0.0234375, "449": 0.0234375, "450": -0.078125, "451": 0.1015625, "452": 0.015625, "453": -0.1328125, "454": -0.421875, "455": 0, "456": -0.015625, "457": 0.0390625, "458": -0.078125, "459": 0.140625, "460": 0.1328125, "461": -0.0703125, "462": -0.2265625, "463": 0.015625, "464": 0.0234375, "465": -0.03125, "466": -0.1171875, "467": 0.0703125, "468": 0.046875, "469": -0.0078125, "470": -0.0859375, "471": 0.0703125, "472": 0.0234375, "473": -0.046875, "474": -0.09375, "475": 0.0078125, "476": 0.046875, "477": 0.0078125, "478": 0, "479": 0.015625, "480": -0.0078125, "481": -0.0078125, "482": 0, "483": -0.015625, "484": 0.0234375, "485": -0.03125, "486": -0.046875, "487": -0.015625, "488": -0.015625, "489": -0.0234375, "490": -0.0078125, "491": -0.078125, "492": 0.015625, "493": -0.0625, "494": -0.0703125, "495": -0.0234375, "496": -0.0234375, "497": 0.046875, "498": -0.0703125, "499": -0.0625, "500": 0.015625, "501": 0.0078125, "502": -0.1171875, "503": 0.015625, "504": 0.015625, "505": 0.015625, "506": -0.0390625, "507": 0.015625, "508": 0.0859375, "509": 0, "510": -0.0703125, "511": 0.0546875, "512": 0.0234375, "513": 0.078125, "514": 0.0703125, "515": 0.0390625, "516": 0.046875, "517": -0.03125, "518": -0.0703125, "519": 0.109375, "520": 0.03125, "521": -0.0390625, "522": 0.0625, "523": 0.0390625, "524": -0.09375, "525": -0.0703125, "526": -0.1484375, "527": -0.046875, "528": -0.03125, "529": 0.0078125, "530": -0.03125, "531": 0.0234375, "532": -0.09375, "533": -0.0390625, "534": -0.2421875, "535": -0.03125, "536": -0.0546875, "537": 0, "538": -0.0546875, "539": -0.0703125, "540": -0.1015625, "541": -0.09375, "542": -0.2578125, "543": 0, "544": 0.0078125, "545": 0.0390625, "546": -0.0234375, "547": 0, "548": 0.0546875, "549": -0.0234375, "550": -0.25, "551": 0, "552": 0.0546875, "553": -0.0078125, "554": 0.0078125, "555": 0.0234375, "556": -0.0078125, "557": -0.015625, "558": -0.2265625, "559": 0.0234375, "560": 0.03125, "561": -0.0390625, "562": 0, "563": 0.015625, "564": -0.015625, "565": 0, "566": -0.171875, "567": 0.0546875, "568": -0.0546875, "569": -0.0546875, "570": -0.0390625, "571": 0.0390625, "572": 0.0390625, "573": 0.046875, "574": -0.0078125, "575": -0.0234375, "576": -0.0078125, "577": -0.03125, "578": -0.046875, "579": -0.046875, "580": 0.0078125, "581": -0.0078125, "582": -0.0546875, "583": -0.0234375, "584": 0, "585": 0.0234375, "586": -0.0625, "587": -0.078125, "588": -0.0078125, "589": 0, "590": -0.0390625, "591": 0, "592": 0.03125, "593": 0.046875, "594": -0.0703125, "595": -0.109375, "596": 0, "597": 0.0078125, "598": 0, "599": 0.078125, "600": 0.0234375, "601": 0.0390625, "602": -0.0859375, "603": -0.0625, "604": 0.0234375, "605": -0.0078125, "606": -0.0078125, "607": 0.046875, "608": 0, "609": -0.078125, "610": 0.015625, "611": -0.03125, "612": -0.0078125, "613": 0.0703125, "614": 0.0859375, "615": 0.0234375, "616": -0.0078125, "617": -0.015625, "618": 0.09375, "619": -0.0234375, "620": 0.0078125, "621": -0.046875, "622": 0, "623": -0.0703125, "624": -0.03125, "625": 0.0234375, "626": -0.0234375, "627": 0.015625, "628": -0.125, "629": -0.0625, "630": -0.0546875, "631": -0.1484375, "632": -0.0703125, "633": -0.046875, "634": -0.046875, "635": -0.171875, "636": -0.1171875, "637": -0.0390625, "638": -0.0703125, "639": -0.046875, "640": 0, "641": 0, "642": -0.046875, "643": 0.0234375, "644": -0.0546875, "645": -0.0078125, "646": -0.0546875, "647": 0.0390625, "648": 0, "649": 0.078125, "650": 0, "651": 0.0078125, "652": -0.0546875, "653": 0.078125, "654": -0.015625, "655": 0.09375, "656": 0.0234375, "657": -0.0234375, "658": 0.0390625, "659": 0.0234375, "660": 0, "661": 0.125, "662": -0.0078125, "663": -0.046875, "664": -0.0078125, "665": -0.046875, "666": 0.015625, "667": -0.0390625, "668": -0.015625, "669": 0.0078125, "670": -0.0078125, "671": -0.0390625, "672": 0.0703125, "673": -0.0078125, "674": -0.015625, "675": -0.0703125, "676": -0.0703125, "677": 0.046875, "678": 0.015625, "679": -0.046875, "680": 0.0078125, "681": -0.015625, "682": 0, "683": -0.1171875, "684": -0.0390625, "685": 0.03125, "686": 0.0234375, "687": 0.03125, "688": 0.0546875, "689": 0, "690": -0.1328125, "691": -0.0703125, "692": 0, "693": 0.0625, "694": 0.0234375, "695": 0.015625, "696": -0.0078125, "697": 0.0078125, "698": -0.03125, "699": -0.0234375, "700": -0.03125, "701": -0.046875, "702": 0.0078125, "703": 0.046875, "704": -0.03125, "705": -0.015625, "706": -0.015625, "707": -0.0859375, "708": -0.0625, "709": -0.0078125, "710": 0.03125, "711": -0.03125, "712": -0.0703125, "713": -0.0625, "714": 0.1015625, "715": -0.140625, "716": -0.140625, "717": -0.0390625, "718": 0.0078125, "719": -0.1171875, "720": -0.0859375, "721": -0.046875, "722": 0.015625, "723": -0.234375, "724": -0.171875, "725": -0.046875, "726": -0.03125, "727": -0.09375, "728": -0.046875, "729": 0.03125, "730": -0.140625, "731": -0.0625, "732": -0.078125, "733": 0, "734": -0.0234375, "735": -0.0234375, "736": -0.078125, "737": -0.0234375, "738": -0.1484375, "739": -0.0859375, "740": -0.046875, "741": 0.0078125, "742": 0, "743": -0.015625, "744": -0.015625, "745": -0.0078125, "746": 0.0234375, "747": -0.0078125, "748": -0.0703125, "749": 0.0625, "750": 0.0703125, "751": -0.03125, "752": 0.0234375, "753": -0.0078125, "754": 0.015625, "755": -0.0234375, "756": 0.0546875, "757": 0.0625, "758": 0.0078125, "759": -0.0390625, "760": 0, "761": -0.0859375, "762": 0, "763": -0.046875, "764": -0.0078125, "765": -0.03125, "766": 0.0078125, "767": -0.0703125, "768": -0.015625, "769": -0.0234375, "770": -0.0625, "771": -0.0546875, "772": 0.0078125, "773": -0.0234375, "774": -0.0078125, "775": -0.0234375, "776": 0.015625, "777": -0.0625, "778": -0.046875, "779": 0, "780": -0.0078125, "781": -0.0078125, "782": -0.0078125, "783": 0, "784": 0.0078125, "785": 0.0078125, "786": -0.1015625, "787": -0.078125, "788": -0.09375, "789": 0.0234375, "790": -0.015625, "791": 0.0078125, "792": -0.0234375, "793": -0.03125, "794": -0.0625, "795": -0.0625, "796": -0.078125, "797": -0.0078125, "798": 0.0546875, "799": 0.0546875, "800": 0.0390625, "801": -0.09375, "802": -0.1171875, "803": -0.109375, "804": -0.1328125, "805": -0.0390625, "806": -0.0703125, "807": -0.1171875, "808": -0.0234375, "809": -0.109375, "810": -0.0625, "811": -0.1171875, "812": -0.1484375, "813": -0.0390625, "814": 0.0390625, "815": -0.0546875, "816": -0.1640625, "817": -0.03125, "818": -0.125, "819": -0.078125, "820": -0.1484375, "821": -0.03125, "822": 0, "823": -0.0234375, "824": -0.046875, "825": -0.0234375, "826": -0.1015625, "827": 0, "828": -0.1171875, "829": -0.0703125, "830": -0.0078125, "831": 0.0078125, "832": 0, "833": 0.046875, "834": -0.1171875, "835": -0.046875, "836": -0.1171875, "837": 0, "838": -0.015625, "839": 0.015625, "840": -0.0078125, "841": -0.0078125, "842": -0.09375, "843": -0.0234375, "844": -0.03125, "845": 0.046875, "846": 0.0546875, "847": -0.109375, "848": -0.015625, "849": -0.0703125, "850": -0.0078125, "851": 0, "852": 0.015625, "853": 0, "854": -0.015625, "855": -0.078125, "856": 0, "857": -0.0234375, "858": -0.015625, "859": -0.0625, "860": -0.0703125, "861": 0.078125, "862": -0.0234375, "863": -0.0078125, "864": -0.0078125, "865": -0.046875, "866": -0.046875, "867": -0.0078125, "868": -0.015625, "869": 0.03125, "870": -0.0703125, "871": -0.015625, "872": -0.015625, "873": -0.078125, "874": -0.0234375, "875": -0.0390625, "876": -0.0703125, "877": 0, "878": -0.0078125, "879": -0.0078125, "880": -0.0234375, "881": -0.0234375, "882": -0.0703125, "883": -0.1015625, "884": -0.0625, "885": 0.015625, "886": -0.0234375, "887": -0.03125, "888": -0.109375, "889": -0.0859375, "890": -0.1875, "891": -0.0546875, "892": -0.0546875, "893": -0.015625, "894": 0.0078125, "895": -0.0390625, "896": -0.015625, "897": -0.0859375, "898": -0.2890625, "899": -0.03125, "900": -0.0234375, "901": -0.0546875, "902": -0.0625, "903": -0.0390625, "904": -0.1484375, "905": -0.015625, "906": -0.3046875, "907": 0, "908": -0.1015625, "909": -0.046875, "910": -0.078125, "911": -0.0234375, "912": -0.0625, "913": 0, "914": -0.2890625, "915": 0.015625, "916": -0.078125, "917": -0.0625, "918": -0.015625, "919": -0.03125, "920": -0.0859375, "921": -0.0234375, "922": -0.09375, "923": -0.015625, "924": -0.125, "925": -0.03125, "926": -0.09375, "927": -0.03125, "928": -0.0390625, "929": -0.015625, "930": -0.0234375, "931": -0.0546875, "932": -0.125, "933": -0.015625, "934": -0.0625, "935": 0, "936": 0, "937": -0.015625, "938": -0.046875, "939": -0.0703125, "940": -0.0546875, "941": -0.015625, "942": -0.03125, 