{
   "layers":[
      {
         "out_depth":1,
         "out_sx":24,
         "out_sy":24,
         "layer_type":"input"
      },
      {
         "sx":3,
         "sy":3,
         "stride":1,
         "in_depth":1,
         "out_depth":8,
         "out_sx":22,
         "out_sy":22,
         "layer_type":"conv",
         "l1_decay_mul":0,
         "l2_decay_mul":1,
         "pad":0,
         "filters":[
            {
               "sx":3,
               "sy":3,
               "depth":1,
               "w":{
                  "0":-0.66951584610315,
                  "1":-0.7103871694457532,
                  "2":-0.5621440798245613,
                  "3":-0.15552907704100316,
                  "4":0.1204842023782657,
                  "5":-0.9171655793498629,
                  "6":0.9385821047772979,
                  "7":0.2684148443692437,
                  "8":-0.15282946524276927
               }
            },
            {
               "sx":3,
               "sy":3,
               "depth":1,
               "w":{
                  "0":0.40478707881738274,
                  "1":-0.05715987278515124,
                  "2":-0.10157138998304364,
                  "3":-0.38589034759654495,
                  "4":-0.3436247225989638,
                  "5":-0.5884939427086086,
                  "6":-0.3065413934937654,
                  "7":0.25914160864400904,
                  "8":0.3918209352155661
               }
            },
            {
               "sx":3,
               "sy":3,
               "depth":1,
               "w":{
                  "0":-0.6735590465646408,
                  "1":-0.6829403660012349,
                  "2":0.3132127849301532,
                  "3":-0.27560525639655464,
                  "4":-0.35039206185405336,
                  "5":0.17357630229179186,
                  "6":-0.1818697413988414,
                  "7":-0.45527142817340244,
                  "8":-0.12025061397742984
               }
            },
            {
               "sx":3,
               "sy":3,
               "depth":1,
               "w":{
                  "0":-0.10244744202564784,
                  "1":0.30469517755265196,
                  "2":0.6061792194888552,
                  "3":-0.27771249063464687,
                  "4":0.062943199313276,
                  "5":-0.26029956973464724,
                  "6":-0.28942236348105604,
                  "7":0.4189546533140778,
                  "8":0.01950795915983173
               }
            },
            {
               "sx":3,
               "sy":3,
               "depth":1,
               "w":{
                  "0":0.4207946833051571,
                  "1":0.3455772178423349,
                  "2":-0.4280873577959533,
                  "3":0.3797580046924879,
                  "4":-0.5071974118479993,
                  "5":-0.3630523858040521,
                  "6":-0.20336427344551364,
                  "7":-0.41904981567576505,
                  "8":0.10181384575471529
               }
            },
            {
               "sx":3,
               "sy":3,
               "depth":1,
               "w":{
                  "0":0.4495284596825928,
                  "1":-0.5807201330735646,
                  "2":-0.31712356466347114,
                  "3":-0.16416878542173505,
                  "4":-0.05703240845110922,
                  "5":-0.31544231475761697,
                  "6":-0.6993850096381498,
                  "7":0.014568541345571227,
                  "8":-0.2571238679176693
               }
            },
            {
               "sx":3,
               "sy":3,
               "depth":1,
               "w":{
                  "0":-0.7744860855997755,
                  "1":-0.08612193807054079,
                  "2":0.5022471241301827,
                  "3":-0.48989559253942955,
                  "4":-0.2921824568295737,
                  "5":0.6104480719074774,
                  "6":-0.2376852729367677,
                  "7":-0.40749640986138197,
                  "8":-0.09524521374370522
               }
            },
            {
               "sx":3,
               "sy":3,
               "depth":1,
               "w":{
                  "0":0.12584340126035143,
                  "1":0.2411687337448799,
                  "2":0.5195638679351973,
                  "3":0.22883520070971458,
                  "4":0.13381451917860052,
                  "5":0.3269185363518776,
                  "6":-0.884889279032192,
                  "7":-0.4898056058930251,
                  "8":-0.6569102292259097
               }
            }
         ],
         "biases":{
            "sx":1,
            "sy":1,
            "depth":8,
            "w":{
               "0":-0.0031340365165395826,
               "1":0.002162552284551899,
               "2":0.0722625590022265,
               "3":-0.2482704293991141,
               "4":-0.07039928119687142,
               "5":0.09946259979315301,
               "6":-0.02118806901010429,
               "7":-0.07736991619074136
            }
         }
      },
      {
         "out_depth":8,
         "out_sx":22,
         "out_sy":22,
         "layer_type":"relu"
      },
      {
         "sx":3,
         "sy":3,
         "stride":1,
         "in_depth":8,
         "out_depth":8,
         "out_sx":20,
         "out_sy":20,
         "layer_type":"pool",
         "pad":0
      },
      {
         "out_depth":10,
         "out_sx":1,
         "out_sy":1,
         "layer_type":"fc",
         "num_inputs":3200,
         "l1_decay_mul":0,
         "l2_decay_mul":1,
         "filters":[
            {
               "sx":1,
               "sy":1,
               "depth":3200,
               "w":{
                  "0":-0.02130292830560528,
                  "1":-0.02961461178703333,
                  "2":-0.018567254245446876,
                  "3":-0.012644764530223042,
                  "4":0.030826506697461908,
                  "5":-0.01787619307810243,
                  "6":-0.026530540793870176,
                  "7":0.016886341343497598,
                  "8":0.009692457232314771,
                  "9":-0.020723886895562867,
                  "10":-0.017669515698173474,
                  "11":-0.028889104867466937,
                  "12":-0.020271239618857288,
                  "13":-0.0005619555932653809,
                  "14":0.01998139090153832,
                  "15":0.001967691561734899,
                  "16":-0.020565850201956528,
                  "17":-0.014859931908453899,
                  "18":-0.01106102974734051,
                  "19":-0.012602119980608863,
                  "20":0.0034556407943976443,
                  "21":-0.029654061119553158,
                  "22":-0.024532676145746026,
                  "23":-0.015227241357715235,
                  "24":-0.03440986588547865,
                  "25":-0.01134410939389142,
                  "26":0.011024171431892198,
                  "27":-0.0513765233928242,
                  "28":-0.04221224980751843,
                  "29":0.006925536240873138,
                  "30":-0.022076636825152426,
                  "31":-0.019380892024987665,
                  "32":-0.006252192800015645,
                  "33":-0.050495443141324016,
                  "34":-0.019336161570174575,
                  "35":-0.053345812984572055,
                  "36":-0.029228233870393625,
                  "37":-0.006987629499374654,
                  "38":-0.01710208182022503,
                  "39":-0.04700370345821348,
                  "40":-0.01019232663243058,
                  "41":-0.01614582983057031,
                  "42":-0.022094548032614715,
                  "43":-0.051548507998394374,
                  "44":-0.006112746578435871,
                  "45":-0.0074321300604651384,
                  "46":-0.05142740477178932,
                  "47":-0.06931288985381784,
                  "48":-0.02881441495387649,
                  "49":-0.03657426577724452,
                  "50":-0.010848246356870914,
                  "51":-0.043575041885156145,
                  "52":-0.05118357823765635,
                  "53":0.028893676803991734,
                  "54":-0.048895825423784636,
                  "55":-0.057623122234113575,
                  "56":-0.05869166722766025,
                  "57":-0.03242386152632187,
                  "58":0.01604670849900004,
                  "59":-0.020967887768110736,
                  "60":-0.06896811132784438,
                  "61":0.02047873775020772,
                  "62":0.0072411854576358665,
                  "63":-0.025480422135785847,
                  "64":-0.008153632912717083,
                  "65":-0.02863372276346103,
                  "66":0.00682250082737207,
                  "67":-0.001396689217677558,
                  "68":-0.02584941358271054,
                  "69":-0.015584453589416819,
                  "70":-0.048733393079922076,
                  "71":-0.04165266572082209,
                  "72":-0.006165980613533251,
                  "73":0.011139049523651266,
                  "74":-0.007732585418944546,
                  "75":0.031543823421975696,
                  "76":-0.027136755725079384,
                  "77":-0.015614007358211153,
                  "78":0.018260760017112347,
                  "79":-0.008575161018528867,
                  "80":0.004899072609501948,
                  "81":0.014895047986560422,
                  "82":-0.030869711893902887,
                  "83":-0.005935859651004413,
                  "84":-0.06577951636015976,
                  "85":-0.018338764289202114,
                  "86":-0.06456844983379548,
                  "87":0.008698645857085753,
                  "88":0.0025265485293305846,
                  "89":0.022955284593857265,
                  "90":-0.015448758140006996,
                  "91":0.007107379441396463,
                  "92":-0.007821556014915272,
                  "93":-0.00011198303010086917,
                  "94":-0.02796989770231733,
                  "95":-0.04668557321206036,
                  "96":0.016504732857253325,
                  "97":0.025294847076835103,
                  "98":-0.03508436312776752,
                  "99":0.027659993391215495,
                  "100":-0.05916305271647619,
                  "101":-0.06567546362484551,
                  "102":-0.020315865541070104,
                  "103":-0.08993714126316701,
                  "104":0.041407491038370034,
                  "105":0.014639560610852908,
                  "106":-0.028288525666355237,
                  "107":0.008999389167772933,
                  "108":-0.04964969920589926,
                  "109":-0.007325903986595146,
                  "110":-0.045849113461880406,
                  "111":-0.009088212183104466,
                  "112":0.03549337790218364,
                  "113":0.01514611670196421,
                  "114":-0.007783833847616861,
                  "115":0.020868557988929823,
                  "116":-0.03106018418300328,
                  "117":-0.0103188351768286,
                  "118":-0.021351103099998856,
                  "119":-0.027750764280626568,
                  "120":0.019896945752057145,
                  "121":-0.016105668134495578,
                  "122":0.0029474695311184273,
                  "123":0.022284085959472743,
                  "124":-0.07606047150486603,
                  "125":-0.03102508621152115,
                  "126":0.015106502405752027,
                  "127":-0.0337434348642068,
                  "128":0.05077206393926307,
                  "129":-0.028266266115016418,
                  "130":0.005474535097189167,
                  "131":0.04145502342829514,
                  "132":-0.05483382689941638,
                  "133":-0.013502656993541353,
                  "134":0.026748687815068062,
                  "135":-0.018495736705151238,
                  "136":0.027307571341865945,
                  "137":-0.0004120508304733007,
                  "138":-0.007300941462094255,
                  "139":0.02333437093613134,
                  "140":-0.05545424976298992,
                  "141":-0.049591754456658636,
                  "142":-0.00016432186004373332,
                  "143":-0.04827648990748956,
                  "144":0.05549373136163646,
                  "145":0.009355315570877416,
                  "146":-0.008027401446230471,
                  "147":0.013353690147646867,
                  "148":-0.06108882111821968,
                  "149":-0.02992306932671426,
                  "150":-0.0006661615744334594,
                  "151":-0.016725629745110132,
                  "152":0.05111458215668886,
                  "153":-0.02029365841086425,
                  "154":0.03555190620474088,
                  "155":-0.012932926943528667,
                  "156":-0.02620840807546284,
                  "157":-0.025862137493743945,
                  "158":-0.004934122020950208,
                  "159":-0.022596464162992682,
                  "160":-0.0018304177129005966,
                  "161":-0.032670983066035685,
                  "162":-0.0012381017904397984,
                  "163":-0.00019849558780142288,
                  "164":0.032400140012816235,
                  "165":0.005967016168764462,
                  "166":-0.0019861543910791543,
                  "167":0.007246403258847175,
                  "168":-0.013695362979020558,
                  "169":0.0008585222611988494,
                  "170":-0.002162805140566524,
                  "171":-0.009521998693753603,
                  "172":0.007617190467618166,
                  "173":0.01333832178496094,
                  "174":-0.011892399488275794,
                  "175":-0.020056812675694313,
                  "176":-0.013554529173716566,
                  "177":-0.02231578898867345,
                  "178":-0.052172804805568414,
                  "179":-0.03369800343724488,
                  "180":-0.02213506858362746,
                  "181":0.008368773259819965,
                  "182":-0.04974213577163056,
                  "183":-0.008652827738632638,
                  "184":-0.03505918199168304,
                  "185":-0.02014560058586262,
                  "186":0.007570017535263515,
                  "187":-0.052475665550777734,
                  "188":-0.019370416567694095,
                  "189":0.02770074567026177,
                  "190":0.012956790242956581,
                  "191":-0.06444338234235997,
                  "192":-0.0597961456788656,
                  "193":-0.013270655722975172,
                  "194":-0.0508835922307219,
                  "195":-0.03573383244338177,
                  "196":-0.02476216100771823,
                  "197":-0.040635166372340936,
                  "198":-0.03165626437219874,
                  "199":-0.06280837236523026,
                  "200":-0.03600731393946727,
                  "201":-0.014912598584028878,
                  "202":-0.038228807959471506,
                  "203":-0.0031973531258417836,
                  "204":-0.03710560174800064,
                  "205":-0.0014099049584503354,
                  "206":-0.06578886006767906,
                  "207":-0.0319792565816133,
                  "208":-0.03764638630023057,
                  "209":-0.01019543759531878,
                  "210":0.012196893770147429,
                  "211":-0.04116911845877659,
                  "212":-0.009081652955748731,
                  "213":-0.011029956627812853,
                  "214":-0.08483498949463257,
                  "215":-0.04673287872328155,
                  "216":-0.03601293995645276,
                  "217":-0.0014733245931921784,
                  "218":-0.01656669394493588,
                  "219":-0.039295878882623765,
                  "220":-0.07460238803375703,
                  "221":0.007155710772913816,
                  "222":-0.05255099545641367,
                  "223":-0.042301051185862165,
                  "224":-0.03692222540177273,
                  "225":-0.017320112182987072,
                  "226":-0.02487005908091576,
                  "227":-0.017007338522200845,
                  "228":-0.0240695505316975,
                  "229":-0.019854813589418107,
                  "230":-0.05220231199876515,
                  "231":0.002782977935871465,
                  "232":-0.04710072453307175,
                  "233":-0.03005927812379821,
                  "234":-0.03688257283161091,
                  "235":-0.01666268826253905,
                  "236":-0.06148249813760063,
                  "237":-0.019556962318448744,
                  "238":-0.026286148136065057,
                  "239":-0.08086120945699139,
                  "240":-0.02934676835865231,
                  "241":-0.031087670313135304,
                  "242":-0.025832025710218802,
                  "243":-0.0022565973589090886,
                  "244":-0.07372689748199088,
                  "245":0.015800686204699422,
                  "246":-0.03220627611508066,
                  "247":-0.047234336226686116,
                  "248":-0.019420765186532445,
                  "249":-0.04603523042738244,
                  "250":-0.03412926959321423,
                  "251":0.006237103138621603,
                  "252":-0.051948920262733234,
                  "253":-0.0099548633217112,
                  "254":-0.03339127317236334,
                  "255":-0.019806831680705874,
                  "256":0.036645774201203324,
                  "257":0.003386221575611319,
                  "258":-0.023357511036931955,
                  "259":0.01994369467005228,
                  "260":-0.05549322893987066,
                  "261":-0.038328022500065985,
                  "262":0.01965432763531525,
                  "263":-0.043698522061852874,
                  "264":0.025501080832635206,
                  "265":-0.01778274741205562,
                  "266":-0.024435819481232596,
                  "267":0.049273851767366345,
                  "268":-0.05916732461121649,
                  "269":-0.0615957504303376,
                  "270":0.014595772416326728,
                  "271":-0.004766030936183572,
                  "272":0.01456011065613126,
                  "273":-0.02289515683078832,
                  "274":-0.024676427424044342,
                  "275":0.06879181640139742,
                  "276":-0.04417553322362278,
                  "277":-0.007139906566143607,
                  "278":-0.03250382997041816,
                  "279":0.006195577175097305,
                  "280":0.01712824343304462,
                  "281":-0.05889370428335601,
                  "282":-0.021170788481426697,
                  "283":0.04780010012827554,
                  "284":-0.12105719544169759,
                  "285":-0.06755235149377095,
                  "286":-0.033577984587718025,
                  "287":-0.025537400449009137,
                  "288":0.014272442334303387,
                  "289":-0.03531886700411485,
                  "290":-0.009684905514694569,
                  "291":0.017430993671319027,
                  "292":-0.0876167138643344,
                  "293":-0.055829473894748315,
                  "294":-0.0010178349367770108,
                  "295":-0.03401613274040454,
                  "296":0.034097731845647954,
                  "297":-0.02536063128280827,
                  "298":-0.017559712653980354,
                  "299":0.03926701696948127,
                  "300":-0.10365223096558297,
                  "301":-0.05442302301157258,
                  "302":0.008083239954252548,
                  "303":-0.021208210333087285,
                  "304":0.057151996817428316,
                  "305":-0.022854480409657544,
                  "306":-0.014225739482604603,
                  "307":0.022711258508546564,
                  "308":-0.04767399016195549,
                  "309":-0.048857641941042994,
                  "310":-0.00115437491963017,
                  "311":-0.04943203337500089,
                  "312":0.010495109135310132,
                  "313":-0.010484855107391331,
                  "314":-0.018612718431350487,
                  "315":-0.00413825010024721,
                  "316":-0.03950462354001262,
                  "317":-0.0429386351454059,
                  "318":0.029127210782514318,
                  "319":-0.041244104881801566,
                  "320":0.011562410953877712,
                  "321":0.009014988524579048,
                  "322":-0.027065862124392832,
                  "323":-0.02930570719095749,
                  "324":0.015810984614217403,
                  "325":0.01445972216805708,
                  "326":-0.022833599541998026,
                  "327":-0.04419533578316346,
                  "328":-0.014830337860279182,
                  "329":-0.00013446967831877248,
                  "330":-0.0041316879369258565,
                  "331":-0.06048461832803978,
                  "332":-0.009152707553776654,
                  "333":0.011640984108935493,
                  "334":-0.027865831769394382,
                  "335":-0.0390309384165801,
                  "336":-0.0012440029326434782,
                  "337":0.0022771982178622077,
                  "338":-0.008667695584457314,
                  "339":-0.032439127396375174,
                  "340":-0.005081889432295191,
                  "341":0.019159650106620643,
                  "342":-0.0392940970891645,
                  "343":-0.031212753056194725,
                  "344":-0.05884124142097781,
                  "345":0.004431914478601392,
                  "346":-0.022074342089146652,
                  "347":-0.04114516191572838,
                  "348":-0.04840143620486014,
                  "349":0.0023320665090605856,
                  "350":-0.054291700908480914,
                  "351":-0.04933166329352593,
                  "352":-0.029946888169219765,
                  "353":-0.005636637951334008,
                  "354":-0.055929919956832545,
                  "355":-0.03464818806320465,
                  "356":-0.031316400197435604,
                  "357":-0.016746489416293107,
                  "358":-0.03441202762154168,
                  "359":-0.07862012462226345,
                  "360":-0.007160134279605764,
                  "361":0.01639157556425353,
                  "362":-0.032031294672863725,
                  "363":0.005756047657650228,
                  "364":-0.04150493803229247,
                  "365":-0.05107153276658665,
                  "366":-0.04433645199046721,
                  "367":-0.06818444832841702,
                  "368":-0.013130335021651526,
                  "369":0.022432848526171504,
                  "370":-0.016625384762257625,
                  "371":-0.016904327108378945,
                  "372":-0.008598646516255018,
                  "373":-0.036058004527247646,
                  "374":-0.06433476248301837,
                  "375":-0.07628491901624905,
                  "376":-0.029723303961885928,
                  "377":0.008865204327279632,
                  "378":0.010502719465973075,
                  "379":-0.009781844265176132,
                  "380":-0.030174511853111145,
                  "381":-0.013469501138299868,
                  "382":-0.028559095876560914,
                  "383":-0.04930897437810881,
                  "384":-0.009613505955007939,
                  "385":-0.003969796083920543,
                  "386":-0.07999566595918925,
                  "387":-0.013423642795365542,
                  "388":-0.04140712114006524,
                  "389":-0.010315274125044764,
                  "390":-0.030238635353749963,
                  "391":-0.08800679048430857,
                  "392":-0.06276517308896838,
                  "393":-0.038188912520974214,
                  "394":-0.05894432345667378,
                  "395":0.026107520226001858,
                  "396":-0.05946535854199866,
                  "397":-0.004044985839087013,
                  "398":-0.011897976359336081,
                  "399":-0.062028480998909605,
                  "400":-0.015611479935477792,
                  "401":-0.0420030701311499,
                  "402":-0.04151985402007703,
                  "403":0.01633297671042109,
                  "404":-0.061136114063412676,
                  "405":-0.06175177594605117,
                  "406":-0.02134026638838792,
                  "407":-0.07194841675518303,
                  "408":-0.013745660969930863,
                  "409":-0.06473556254420014,
                  "410":-0.07481001102516142,
                  "411":0.05978465410833814,
                  "412":-0.03580515681446996,
                  "413":-0.04961441605133628,
                  "414":-0.014235597535948072,
                  "415":-0.04028232926125209,
                  "416":-0.002807895907408127,
                  "417":-0.05327887554024822,
                  "418":-0.046747969731930045,
                  "419":0.035912415544737064,
                  "420":-0.014346486762072268,
                  "421":-0.0409096186981021,
                  "422":-0.02465386941521053,
                  "423":-0.03521321111170052,
                  "424":-0.025225699908335803,
                  "425":-0.06750127229274432,
                  "426":-0.020085308370233004,
                  "427":0.03257214027642036,
                  "428":-0.03960871491150461,
                  "429":-0.04148808004349471,
                  "430":-0.0350027055772976,
                  "431":-0.0026070875146725686,
                  "432":0.01789477568481122,
                  "433":-0.06384164232470041,
                  "434":-0.06491025626780826,
                  "435":0.05436120783524518,
                  "436":-0.04708437375823638,
                  "437":-0.04846466368402562,
                  "438":-0.007275368541353941,
                  "439":-0.02205515062049761,
                  "440":0.039789595846878016,
                  "441":-0.0900257591627801,
                  "442":-0.023903223915885164,
                  "443":0.04427688005380572,
                  "444":-0.08002470742592609,
                  "445":-0.08535440622424334,
                  "446":-0.01233449682627958,
                  "447":0.05610521114039573,
                  "448":0.03527880403864738,
                  "449":-0.09465844743158178,
                  "450":-0.03746894888198899,
                  "451":0.025334824114561023,
                  "452":-0.11821110214229878,
                  "453":-0.1395077032877443,
                  "454":0.015192566983388814,
                  "455":0.02121596203404954,
                  "456":0.04251915806326963,
                  "457":-0.06660987941256348,
                  "458":0.0011874188814131339,
                  "459":0.04664389225760069,
                  "460":-0.06957009322263401,
                  "461":-0.06465378297505127,
                  "462":0.007506143218389169,
                  "463":0.026291741264966174,
                  "464":0.023668916966945643,
                  "465":-0.08086495460462921,
                  "466":0.006022860233826363,
                  "467":0.046306017505376745,
                  "468":-0.06341291819815807,
                  "469":-0.06899946295894839,
                  "470":0.011539447642150044,
                  "471":0.0514308225171356,
                  "472":0.033581099715123276,
                  "473":-0.035023245513637856,
                  "474":-0.021119665245627427,
                  "475":0.033056174116020694,
                  "476":-0.06309455064632997,
                  "477":-0.05454997898027033,
                  "478":-0.002644341790882043,
                  "479":0.006261888602931833,
                  "480":0.006092842258659886,
                  "481":0.016782275516102726,
                  "482":-0.011333769609131338,
                  "483":-0.030933024723167758,
                  "484":0.03294409171939291,
                  "485":-0.02458267295171241,
                  "486":-0.03960358543032432,
                  "487":-0.026715621989012422,
                  "488":0.03221970122981029,
                  "489":0.021725551386818136,
                  "490":-0.021989403427781284,
                  "491":-0.052576584688944196,
                  "492":-0.012148119286836716,
                  "493":-0.02195888950205472,
                  "494":-0.026686115222621567,
                  "495":-0.021258788907558637,
                  "496":-0.014110353205859056,
                  "497":0.00683187458796352,
                  "498":-0.04959237696521384,
                  "499":-0.03189867667497039,
                  "500":-0.03739851365688209,
                  "501":-0.008337926816643621,
                  "502":-0.044716962483736716,
                  "503":-0.06933204196048737,
                  "504":-0.038068449100541336,
                  "505":0.0389052252312326,
                  "506":-0.02570540335386904,
                  "507":-0.022121826417360508,
                  "508":-0.025104569580551465,
                  "509":0.006056500755226983,
                  "510":0.005496031242746615,
                  "511":-0.02098657098214329,
                  "512":-0.03589950585444759,
                  "513":0.015927470115604317,
                  "514":-0.03338522384593322,
                  "515":0.000011591278152609604,
                  "516":-0.018777018266511243,
                  "517":-0.02020510125840189,
                  "518":-0.06031622270934408,
                  "519":-0.08688896687473542,
                  "520":-0.013691727366940009,
                  "521":0.0688889384979528,
                  "522":-0.04891285848012183,
                  "523":0.01750092151355908,
                  "524":-0.024765843358226184,
                  "525":-0.007179024523977937,
                  "526":-0.0630056004245198,
                  "527":-0.07211556950850136,
                  "528":-0.024215458772445828,
                  "529":0.020223615666397257,
                  "530":-0.060404592053594656,
                  "531":-0.016360821569108865,
                  "532":-0.02089942513528926,
                  "533":-0.012699996755356956,
                  "534":-0.0994834757433812,
                  "535":-0.055837403246898024,
                  "536":-0.04034508642286885,
                  "537":0.0005275697914912651,
                  "538":-0.06365174408009283,
                  "539":0.01363794701869228,
                  "540":-0.019109870565629586,
                  "541":-0.0011549937314657512,
                  "542":-0.061596784279623604,
                  "543":-0.056503855741258845,
                  "544":-0.007993155061655873,
                  "545":-0.006982838325697839,
                  "546":-0.01542955500505763,
                  "547":0.013714952786385785,
                  "548":-0.05704449742941332,
                  "549":-0.027755980283124978,
                  "550":-0.031921084374136814,
                  "551":-0.060791959648940144,
                  "552":-0.08251275241376367,
                  "553":-0.05809078313994941,
                  "554":-0.04942489850071369,
                  "555":-0.0012564817714488992,
                  "556":-0.048049447552334715,
                  "557":-0.03342561969253619,
                  "558":-0.048751225263066925,
                  "559":-0.04539789214752397,
                  "560":-0.020149508420375224,
                  "561":-0.03163213693489209,
                  "562":-0.07340457791195565,
                  "563":0.0425192171627071,
                  "564":-0.03188534069019252,
                  "565":-0.03499177428796122,
                  "566":0.006085389646807645,
                  "567":-0.04951554880586182,
                  "568":-0.040186906150807084,
                  "569":-0.05699886270331568,
                  "570":-0.059734431178563765,
                  "571":0.03566067316302983,
                  "572":-0.030793227245080695,
                  "573":-0.0461405198892106,
                  "574":-0.016974749518453274,
                  "575":-0.00811691549061835,
                  "576":-0.02312080560658399,
                  "577":-0.044438444262211475,
                  "578":-0.029388809992882237,
                  "579":0.03090771575635468,
                  "580":-0.04057513799248713,
                  "581":-0.01437268417992944,
                  "582":-0.02015304760371246,
                  "583":-0.029532587019867034,
                  "584":-0.00718952271232141,
                  "585":-0.0938765119876432,
                  "586":-0.04707342980756619,
                  "587":-0.0029772521664593577,
                  "588":-0.05467453468795705,
                  "589":-0.050985616358687785,
                  "590":-0.007157156671194953,
                  "591":-0.01172958155748948,
                  "592":-0.021197163172061585,
                  "593":-0.11068412388337048,
                  "594":-0.02376284399400481,
                  "595":0.01663771702458096,
                  "596":-0.06717226864064864,
                  "597":-0.09158969572052357,
                  "598":0.012236830810650084,
                  "599":-0.02932108678885788,
                  "600":0.029897428197905866,
                  "601":-0.09493834633264782,
                  "602":0.020732766475747125,
                  "603":0.026146752474867183,
                  "604":-0.061733688122052,
                  "605":-0.06764719844163747,
                  "606":0.06075621449772328,
                  "607":0.007214033758530592,
                  "608":0.01660565411103939,
                  "609":-0.08099193141600242,
                  "610":-0.0006815097460267799,
                  "611":0.060598029896417674,
                  "612":-0.04047967040880788,
                  "613":-0.14218384166110218,
                  "614":0.03611170653172193,
                  "615":0.009356831962947188,
                  "616":0.03997796349482869,
                  "617":-0.0700813428400021,
                  "618":-0.041647252240610964,
                  "619":0.05615117267501103,
                  "620":-0.09342253185951233,
                  "621":-0.07760798857320851,
                  "622":0.04927260878049565,
                  "623":0.035738748919542374,
                  "624":-0.011952802941769052,
                  "625":-0.036863822772782454,
                  "626":-0.0047131393480411244,
                  "627":0.016836585431621184,
                  "628":-0.05788216017284779,
                  "629":-0.06683182234364513,
                  "630":0.03443551965541542,
                  "631":0.013543760037496647,
                  "632":0.00948989641826547,
                  "633":-0.06968228809146775,
                  "634":-0.01892969743024416,
                  "635":0.04046865612471424,
                  "636":-0.032589169660685424,
                  "637":-0.047207661137828774,
                  "638":0.03507792421151321,
                  "639":-0.021797155966834444,
                  "640":0.000590637340244772,
                  "641":-0.008163712249764697,
                  "642":-0.010431074163967753,
                  "643":-0.025486274872791734,
                  "644":0.0014919128817291526,
                  "645":0.03840671170638835,
                  "646":-0.02566587855450026,
                  "647":-0.0081738317582588,
                  "648":0.011932867619899423,
                  "649":0.044721951442506395,
                  "650":0.006479037367075469,
                  "651":-0.0345352757161722,
                  "652":-0.010445442669425048,
                  "653":0.00024353010049305558,
                  "654":-0.03723187838215574,
                  "655":-0.03719504759710813,
                  "656":-0.003896380911014031,
                  "657":0.02201495898193823,
                  "658":-0.006465006916161206,
                  "659":-0.02771761954162873,
                  "660":-0.029276777504465293,
                  "661":0.0004408585994616053,
                  "662":-0.05780646478527551,
                  "663":-0.048084306441357944,
                  "664":-0.007097980256388119,
                  "665":-0.009186174996480667,
                  "666":-0.005288836283205196,
                  "667":-0.005082097855303996,
                  "668":-0.05331163520629141,
                  "669":-0.0002727961086438779,
                  "670":-0.04481613227911491,
                  "671":-0.06410481888096432,
                  "672":0.006002583694564633,
                  "673":0.048832544357775814,
                  "674":-0.06336812897420674,
                  "675":0.033720629629137196,
                  "676":-0.04300289146849013,
                  "677":0.01184015926591401,
                  "678":-0.01896902674198781,
                  "679":-0.03720603495411161,
                  "680":-0.016561851589451938,
                  "681":0.0026413946596773085,
                  "682":-0.05879830748272508,
                  "683":0.041321570277478646,
                  "684":-0.0195852675793625,
                  "685":-0.023169994463888146,
                  "686":-0.07052732215844658,
                  "687":-0.005459288272224902,
                  "688":-0.03804370114573696,
                  "689":0.04220063401647782,
                  "690":-0.05845520756702737,
                  "691":0.01684030862601739,
                  "692":-0.01802441490487299,
                  "693":-0.03826994367479429,
                  "694":-0.08217909268700217,
                  "695":-0.0565824035962835,
                  "696":-0.057810094604367986,
                  "697":-0.054634239181448364,
                  "698":-0.055304150326651424,
                  "699":0.0076942921521728665,
                  "700":-0.02286294137607281,
                  "701":-0.022204608809615875,
                  "702":-0.03799039422152093,
                  "703":-0.03901883066622105,
                  "704":-0.08953257822095582,
                  "705":-0.015487025487335366,
                  "706":-0.06441221121151663,
                  "707":0.006712801618726277,
                  "708":-0.043645082696493864,
                  "709":-0.03731782223117699,
                  "710":-0.039698751750389887,
                  "711":-0.06717321262292965,
                  "712":-0.0836061478030255,
                  "713":-0.06254072503211514,
                  "714":-0.03045716859536875,
                  "715":0.009944143281969426,
                  "716":-0.03723770009470747,
                  "717":-0.02520633755420118,
                  "718":-0.019151564682769028,
                  "719":-0.05854944628872894,
                  "720":-0.07398091689158713,
                  "721":-0.03109764355077829,
                  "722":-0.023161531091900646,
                  "723":0.03266089515417434,
                  "724":-0.010053128144624437,
                  "725":-0.0039016192307332366,
                  "726":-0.014188976162062796,
                  "727":-0.029522004529865566,
                  "728":-0.06438882395064743,
                  "729":-0.054877320802960025,
                  "730":0.03526347050332845,
                  "731":-0.00934604249730884,
                  "732":-0.027960858100926782,
                  "733":-0.0019571562634341155,
                  "734":0.017237788975831617,
                  "735":-0.03780263209044755,
                  "736":0.0021001190500437978,
                  "737":-0.046116383034637026,
                  "738":-0.004277705336605718,
                  "739":0.004404470919763444,
                  "740":-0.030679558293907956,
                  "741":-0.010309854769745908,
                  "742":0.02618065384799495,
                  "743":-0.04022669115141281,
                  "744":0.0015854961235953332,
                  "745":-0.05080408139012826,
                  "746":0.013133270238589996,
                  "747":0.0293402714008276,
                  "748":-0.04239978340269352,
                  "749":-0.06185882375314951,
                  "750":0.027529072776734654,
                  "751":-0.00002426768273879878,
                  "752":-0.025764981862390908,
                  "753":-0.11161285088830845,
                  "754":0.011728668358170647,
                  "755":0.054084191200679727,
                  "756":-0.03800461062859376,
                  "757":-0.08624914774123706,
                  "758":0.06861633232087608,
                  "759":0.0339643253287471,
                  "760":-0.0024106653404627784,
                  "761":-0.11492453245130997,
                  "762":0.005581776204173658,
                  "763":0.036852528787913556,
                  "764":-0.06695210826330265,
                  "765":-0.09540003646353952,
                  "766":0.07523098413576573,
                  "767":0.04994735370696547,
                  "768":0.04481090399877196,
                  "769":-0.09846617378432591,
                  "770":0.05015261946902499,
                  "771":0.06060658542170476,
                  "772":-0.04920770916904168,
                  "773":-0.06467148273881981,
                  "774":0.07635776470986548,
                  "775":0.018465833407808704,
                  "776":0.028986870645731196,
                  "777":-0.08659961084325647,
                  "778":0.04352777367158241,
                  "779":0.05558468439997131,
                  "780":-0.038259053221823755,
                  "781":-0.08966150609321288,
                  "782":0.05880344429769796,
                  "783":0.022405858050235424,
                  "784":0.009459771520015318,
                  "785":-0.046028408292100066,
                  "786":0.006524377270619835,
                  "787":0.04091035995435828,
                  "788":-0.029949816623831702,
                  "789":-0.05999753757160703,
                  "790":0.092492876194505,
                  "791":0.0020850052927411434,
                  "792":0.023547600312448392,
                  "793":-0.0839652985117046,
                  "794":0.005396309390264856,
                  "795":0.07941645761652144,
                  "796":-0.06458953139015754,
                  "797":-0.06772676835142129,
                  "798":0.06865369333498493,
                  "799":0.025457351501223024,
                  "800":0.0056161053779585895,
                  "801":0.04319977200726186,
                  "802":-0.02556049015752136,
                  "803":-0.01516555367941592,
                  "804":0.016366939529258353,
                  "805":0.02091175947160122,
                  "806":-0.045178050300212054,
                  "807":-0.05153413924334118,
                  "808":0.0056281466766898965,
                  "809":0.014276715492945588,
                  "810":-0.05226050331837521,
                  "811":0.016630638350850865,
                  "812":-0.009247466376731572,
                  "813":0.019652402547157978,
                  "814":-0.044444573911038315,
                  "815":-0.06210462081853386,
                  "816":-0.010123542469437464,
                  "817":0.04442040759800127,
                  "818":-0.055801059235020496,
                  "819":-0.041025884354807286,
                  "820":-0.04263719017192856,
                  "821":0.0012694617635044822,
                  "822":-0.03521865735295722,
                  "823":-0.043886501183618164,
                  "824":-0.018100825931501245,
                  "825":0.029435419967593475,
                  "826":-0.023359537248884583,
                  "827":0.006699859983536288,
                  "828":-0.017467776039052887,
                  "829":0.021211965955070737,
                  "830":-0.052310003882428624,
                  "831":-0.07991948515502278,
                  "832":-0.023091394857791415,
                  "833":0.006606167673204365,
                  "834":-0.03651334233886322,
                  "835":0.026676422794431522,
                  "836":-0.01866767009807967,
                  "837":-0.05159162366151401,
                  "838":-0.029043015506565573,
                  "839":-0.04396580796051214,
                  "840":0.0005974545634238454,
                  "841":0.03126709733229193,
                  "842":-0.05553241935165411,
                  "843":0.05019199058878328,
                  "844":-0.024927855626947274,
                  "845":-0.05679395714784761,
                  "846":-0.09957799874947539,
                  "847":-0.061591849124645257,
                  "848":-0.025357883464871795,
                  "849":-0.02556266908891475,
                  "850":-0.08102180164110516,
                  "851":0.008478269261819615,
                  "852":-0.01184617945958224,
                  "853":-0.04396451142080781,
                  "854":-0.07084267150793792,
                  "855":-0.04711322370718198,
                  "856":-0.055769574094486615,
                  "857":-0.0040068083221074975,
                  "858":-0.09614393606480923,
                  "859":0.03646965385429733,
                  "860":0.012611549574937674,
                  "861":-0.009632633729688365,
                  "862":-0.08841256276857588,
                  "863":-0.045882462099788385,
                  "864":-0.033758946202027774,
                  "865":-0.040307657326030685,
                  "866":-0.09662648306266884,
                  "867":0.005552868303849721,
                  "868":-0.000008450150250003102,
                  "869":-0.0012270951882814175,
                  "870":-0.03910966936189569,
                  "871":-0.055179347723717485,
                  "872":-0.09019280570744564,
                  "873":-0.01923635290754196,
                  "874":-0.0442231260238489,
                  "875":0.02610637442763989,
                  "876":-0.030035846901062806,
                  "877":-0.02633399903705285,
                  "878":-0.03732442109177179,
                  "879":-0.0487999058127732,
                  "880":-0.08896555766316845,
                  "881":-0.03278953885061164,
                  "882":-0.019281790954123492,
                  "883":0.010254719038623072,
                  "884":-0.022369514645334418,
                  "885":0.0028987284309824313,
                  "886":0.01287048300698852,
                  "887":-0.028051777907008683,
                  "888":-0.04836613510767977,
                  "889":-0.014745523701411448,
                  "890":0.04407746419987922,
                  "891":0.013393014820916992,
                  "892":0.007523216041378127,
                  "893":0.01811530624906295,
                  "894":0.03628899136075685,
                  "895":-0.026135821316150932,
                  "896":-0.016282593551104715,
                  "897":-0.023073386230323536,
                  "898":0.040654508882942246,
                  "899":0.01233750395825268,
                  "900":-0.03522812225670082,
                  "901":0.07183974381904316,
                  "902":0.049276086669608046,
                  "903":-0.019424344674227077,
                  "904":-0.04216160560428328,
                  "905":-0.08545761772461988,
                  "906":0.06499796421632331,
                  "907":-0.001994422234761443,
                  "908":0.002148483156838643,
                  "909":-0.05727881401700905,
                  "910":0.03579445467471212,
                  "911":-0.004229088085270451,
                  "912":0.0027655500063203118,
                  "913":-0.10189796129970848,
                  "914":0.06887197986179226,
                  "915":0.03210822914590463,
                  "916":-0.050742738849467,
                  "917":-0.061223858821255285,
                  "918":0.0987938038455367,
                  "919":0.004139548962750079,
                  "920":0.000643528299676655,
                  "921":-0.08488331409548042,
                  "922":0.028968865830779348,
                  "923":0.022572099210491366,
                  "924":-0.08222184379469435,
                  "925":-0.0543605721123199,
                  "926":0.10379190587705134,
                  "927":0.014290995655499622,
                  "928":0.0358066736217352,
                  "929":-0.0751780800069082,
                  "930":0.044787401225644195,
                  "931":0.04448976280610838,
                  "932":-0.06898610676322223,
                  "933":-0.05224190784740066,
                  "934":0.10381427187898937,
                  "935":0.007030347942633472,
                  "936":0.044805056489000586,
                  "937":-0.03109445490063486,
                  "938":0.09816739336149806,
                  "939":0.04213728979509866,
                  "940":-0.062037211212788594,
                  "941":-0.11323371735519869,
                  "942":0.12127261014082051,
                  "943":0.03880044770910844,
                  "944":0.0004015243599611597,
                  "945":-0.07289404544376188,
                  "946":0.02880359817733032,
                  "947":0.05482399710935327,
                  "948":-0.0712936938181025,
                  "949":-0.1095199881481162,
                  "950":0.08743574442079809,
                  "951":0.019004358683261967,
                  "952":0.0015160850334908105,
                  "953":-0.05687253431848661,
                  "954":0.03567924321101353,
                  "955":0.03548079429589595,
                  "956":-0.05452744335532253,
                  "957":-0.08845287529005628,
                  "958":0.10492477816639054,
                  "959":0.009538135536432145,
                  "960":0.02320388068013226,
                  "961":0.04583060431190084,
                  "962":-0.00007356944020856646,
                  "963":-0.04013466789877754,
                  "964":0.018585267359452252,
                  "965":0.026006415609310277,
                  "966":-0.0376457548749325,
                  "967":-0.0370380333841846,
                  "968":0.015745514568902864,
                  "969":0.012203783102894316,
                  "970":-0.05215675177413302,
                  "971":0.010094103520091973,
                  "972":-0.010816892794133942,
                  "973":0.020035041666846616,
                  "974":-0.023607608122295187,
                  "975":-0.06667118891149168,
                  "976":-0.008097235336591398,
                  "977":0.03589007232719557,
                  "978":-0.013302626369328312,
                  "979":0.019131558339837,
                  "980":-0.05021761221425279,
                  "981":-0.02599291840840784,
                  "982":-0.03414114461647457,
                  "983":-0.03901198536787252,
                  "984":-0.04242260306682226,
                  "985":0.013447474235646037,
                  "986":-0.054776298968447656,
                  "987":0.019133995148096446,
                  "988":0.008633510786942857,
                  "989":-0.03798599604691214,
                  "990":-0.029879019580530335,
                  "991":-0.031713632117670934,
                  "992":-0.04787162206955347,
                  "993":-0.021264696043107992,
                  "994":-0.04295118925409956,
                  "995":0.0782604691389836,
                  "996":0.021367949009345025,
                  "997":-0.023908652053076736,
                  "998":0.003965018451087086,
                  "999":-0.027324382949945412,
                  "1000":-0.05242934824937078,
                  "1001":-0.004589516169670193,
                  "1002":-0.032465398722922055,
                  "1003":0.037896588172251035,
                  "1004":0.04078386942657172,
                  "1005":-0.0021836761970808463,
                  "1006":-0.008650038327845501,
                  "1007":-0.02903600585840851,
                  "1008":-0.03892243744495135,
                  "1009":0.017050376125433742,
                  "1010":-0.08075263162780456,
                  "1011":0.03668935198029923,
                  "1012":0.0008149153596016997,
                  "1013":-0.03514899120856634,
                  "1014":-0.09625454220022017,
                  "1015":-0.05557497469373253,
                  "1016":-0.08720526567427456,
                  "1017":-0.012678720307894803,
                  "1018":-0.09665287661887903,
                  "1019":0.04572275099331861,
                  "1020":0.022215870004181078,
                  "1021":0.01785085433267402,
                  "1022":-0.09614488989641168,
                  "1023":-0.047340321939724386,
                  "1024":-0.06557341195417553,
                  "1025":-0.055291328273951196,
                  "1026":-0.06250623534636633,
                  "1027":0.030500182142577017,
                  "1028":0.0013193222436881998,
                  "1029":0.0048479794394760255,
                  "1030":-0.06141146161095685,
                  "1031":-0.02533548135820295,
                  "1032":-0.11137537759977342,
                  "1033":-0.025355596596468973,
                  "1034":0.010926258851632517,
                  "1035":0.043783476700908,
                  "1036":-0.00444229482251884,
                  "1037":0.004639712699302283,
                  "1038":-0.0006457894127524173,
                  "1039":-0.05360422262639314,
                  "1040":-0.08708958191502189,
                  "1041":-0.07709737371680885,
                  "1042":-0.02141403729108353,
                  "1043":0.03909274649823295,
                  "1044":-0.019961540500064413,
                  "1045":0.00749202953038203,
                  "1046":0.009984087032990462,
                  "1047":-0.04234258764670389,
                  "1048":-0.11831494535688444,
                  "1049":-0.043564992088757665,
                  "1050":0.024327723312912143,
                  "1051":-0.0030253874530677643,
                  "1052":0.002873942290094588,
                  "1053":0.05019913716115724,
                  "1054":0.0442115395376108,
                  "1055":-0.043961152174861504,
                  "1056":-0.08790101296316728,
                  "1057":-0.06800722851285135,
                  "1058":0.06654633071289721,
                  "1059":-0.0003089761186618222,
                  "1060":-0.017961551073020696,
                  "1061":0.006378606607149173,
                  "1062":0.06275308465938616,
                  "1063":-0.04244346363381025,
                  "1064":-0.06539835677150231,
                  "1065":-0.054985180112698144,
                  "1066":0.061465221783185,
                  "1067":0.010202437118807464,
                  "1068":-0.054927375839043266,
                  "1069":-0.023715053657781385,
                  "1070":0.0877472891292096,
                  "1071":-0.023731274051932143,
                  "1072":-0.04727891697912477,
                  "1073":-0.09997264872377333,
                  "1074":0.09059399835316297,
                  "1075":0.019104748197076853,
                  "1076":-0.03260806724038181,
                  "1077":-0.018495971082607497,
                  "1078":0.10520390563013071,
                  "1079":0.030308974497308926,
                  "1080":-0.010870199019401616,
                  "1081":-0.08059398602411558,
                  "1082":0.08235326181505269,
                  "1083":0.003243507017796559,
                  "1084":-0.047145220993014554,
                  "1085":-0.05151658440336597,
                  "1086":0.09165111704598553,
                  "1087":-0.009865252563438027,
                  "1088":-0.002224615979366789,
                  "1089":-0.08094980473020716,
                  "1090":0.11340546581484057,
                  "1091":0.024443163176170544,
                  "1092":-0.109780846686035,
                  "1093":-0.03329565071617167,
                  "1094":0.14783124203202982,
                  "1095":-0.03300665281250147,
                  "1096":0.008202785793626525,
                  "1097":-0.04019198748674645,
                  "1098":0.10667775576442642,
                  "1099":0.03983863360880439,
                  "1100":-0.021362027480560854,
                  "1101":-0.06493573219613183,
                  "1102":0.1257710282218481,
                  "1103":-0.0003008490070842878,
                  "1104":-0.01177055126079067,
                  "1105":-0.07314493286364818,
                  "1106":0.0778483052451057,
                  "1107":0.06002215713337031,
                  "1108":-0.08106549720122964,
                  "1109":-0.12157176608143595,
                  "1110":0.09734454014660082,
                  "1111":0.010183790283891254,
                  "1112":-0.01569030176717897,
                  "1113":-0.03532806623365518,
                  "1114":0.02503427690429734,
                  "1115":0.08011796253023797,
                  "1116":-0.05488000996035164,
                  "1117":-0.11454906102205296,
                  "1118":0.09862457153426465,
                  "1119":0.02292196855878046,
                  "1120":0.00038910821859407187,
                  "1121":0.07121121218696821,
                  "1122":-0.018328450494997896,
                  "1123":0.03414949387720805,
                  "1124":-0.011491150686615598,
                  "1125":0.003906313594436991,
                  "1126":-0.02610465261420935,
                  "1127":-0.07070870401257519,
                  "1128":-0.017506627383734624,
                  "1129":0.07798415388895857,
                  "1130":-0.04557912334272106,
                  "1131":0.05147310457881492,
                  "1132":-0.021939016122963423,
                  "1133":-0.009622222827086049,
                  "1134":-0.0271391921432634,
                  "1135":-0.07369647074775497,
                  "1136":0.002338123649288577,
                  "1137":0.03280475669998839,
                  "1138":-0.04675093792774235,
                  "1139":0.023363456935352654,
                  "1140":-0.02845060412930691,
                  "1141":-0.03371155203594372,
                  "1142":-0.02137229004163562,
                  "1143":-0.055982304105416096,
                  "1144":-0.0231152462822955,
                  "1145":0.027328879878075075,
                  "1146":-0.06645625343972167,
                  "1147":0.015880200063086984,
                  "1148":0.017044916503185202,
                  "1149":-0.03833182437495095,
                  "1150":-0.04439892364023627,
                  "1151":-0.03379337406326058,
                  "1152":-0.006547676807530078,
                  "1153":-0.004610677565989123,
                  "1154":-0.10659656694505878,
                  "1155":0.041010405149960516,
                  "1156":0.03189244469969139,
                  "1157":0.0058692850678240946,
                  "1158":-0.011551844172465279,
                  "1159":-0.024929941825677104,
                  "1160":-0.03802434800226923,
                  "1161":-0.010894162418212843,
                  "1162":-0.046523287202435495,
                  "1163":0.08471373596465517,
                  "1164":0.04018574717126634,
                  "1165":-0.01718896574206588,
                  "1166":-0.04186692431987408,
                  "1167":0.011124797146591385,
                  "1168":-0.0669877044566204,
                  "1169":-0.031162603887633616,
                  "1170":-0.07443902676427326,
                  "1171":0.04043556992078327,
                  "1172":0.04419296806711579,
                  "1173":0.01231117317412745,
                  "1174":-0.06721012479806747,
                  "1175":-0.028538112171558955,
                  "1176":-0.08817043889702109,
                  "1177":0.020860042160119406,
                  "1178":-0.05352245822242534,
                  "1179":0.010511840580145662,
                  "1180":0.02328719490379526,
                  "1181":0.0010389778741881936,
                  "1182":-0.11573367431720497,
                  "1183":-0.052255414562584715,
                  "1184":-0.1057928268328723,
                  "1185":-0.013278049856371382,
                  "1186":-0.06337194753797355,
                  "1187":0.03438875011735295,
                  "1188":0.06247897047379702,
                  "1189":0.021255093225824907,
                  "1190":-0.026542172544360497,
                  "1191":-0.05267067592073836,
                  "1192":-0.11182396775241385,
                  "1193":-0.030790109400046225,
                  "1194":-0.008350839781669303,
                  "1195":-0.007923768813681668,
                  "1196":-0.0063035291658801755,
                  "1197":0.017615464275703846,
                  "1198":-0.03728905530362214,
                  "1199":-0.049113427273021634,
                  "1200":-0.09403723361494253,
                  "1201":-0.0970832255199653,
                  "1202":0.028443184458555287,
                  "1203":-0.0023492780889377033,
                  "1204":-0.0033225679788431504,
                  "1205":0.01579158922706564,
                  "1206":0.03458494583158863,
                  "1207":-0.04977732273589181,
                  "1208":-0.10468983517303339,
                  "1209":-0.11183986711766924,
                  "1210":0.01910723772547016,
                  "1211":-0.015584184900919144,
                  "1212":-0.02033660858884085,
                  "1213":-0.03228493131027114,
                  "1214":0.0182624120050808,
                  "1215":-0.03899179315771949,
                  "1216":-0.07995147781089547,
                  "1217":-0.08408025949585272,
                  "1218":0.053716971459555805,
                  "1219":0.00614850268195913,
                  "1220":-0.0281082421036953,
                  "1221":0.025780543130327863,
                  "1222":0.04708049069002969,
                  "1223":-0.04248842068805861,
                  "1224":-0.08568387870751634,
                  "1225":-0.13865457747962462,
                  "1226":0.06483424153766164,
                  "1227":-0.018619860611653,
                  "1228":-0.056730334224577954,
                  "1229":-0.04181474220075926,
                  "1230":0.07718968539228124,
                  "1231":0.00662515968936113,
                  "1232":-0.022404426165619197,
                  "1233":-0.08912714891546411,
                  "1234":0.07441403430714921,
                  "1235":0.010739104802020293,
                  "1236":-0.06899794150318261,
                  "1237":-0.04001231520610412,
                  "1238":0.055019695381996185,
                  "1239":-0.00897466494074749,
                  "1240":-0.05098066292278418,
                  "1241":-0.08899342416852239,
                  "1242":0.06889918865675443,
                  "1243":0.0183490931259972,
                  "1244":-0.06378115573460635,
                  "1245":-0.029986550517616478,
                  "1246":0.1141231416979677,
                  "1247":-0.027326378501039333,
                  "1248":-0.05997238428487591,
                  "1249":-0.05182475083023088,
                  "1250":0.06626164453009215,
                  "1251":0.03603592220938191,
                  "1252":-0.08008696360717685,
                  "1253":-0.05081439738028935,
                  "1254":0.11310341576705629,
                  "1255":-0.017971407716887874,
                  "1256":-0.018730276733648618,
                  "1257":-0.07347339395473679,
                  "1258":0.10359757835780668,
                  "1259":0.048475582523243875,
                  "1260":-0.0507145006865479,
                  "1261":-0.099946633066341,
                  "1262":0.1409639500811896,
                  "1263":-0.015252659942513604,
                  "1264":-0.028064167592491727,
                  "1265":-0.046545859955540766,
                  "1266":0.08856133598544427,
                  "1267":0.021784662554424093,
                  "1268":-0.03981029839154168,
                  "1269":-0.10498054143698074,
                  "1270":0.15732118663470637,
                  "1271":-0.04568737704972995,
                  "1272":-0.012724186113625252,
                  "1273":-0.043304341946303136,
                  "1274":0.09389316793474049,
                  "1275":0.054567676911279284,
                  "1276":-0.04496636284739403,
                  "1277":-0.10180751778465913,
                  "1278":0.10223106924055612,
                  "1279":0.0355282633770636,
                  "1280":0.029607145655726936,
                  "1281":0.05917904872780177,
                  "1282":-0.005693286803357513,
                  "1283":0.056037748218833186,
                  "1284":-0.014798834593848837,
                  "1285":-0.018457123891175934,
                  "1286":0.030417233936414694,
                  "1287":0.0022425333781277332,
                  "1288":-0.009180713757347024,
                  "1289":0.021315261347085276,
                  "1290":-0.01938833568389069,
                  "1291":0.05164262981840958,
                  "1292":0.004558806245436605,
                  "1293":-0.029460166256472114,
                  "1294":-0.004189535346409657,
                  "1295":-0.06596460394433498,
                  "1296":-0.017916231969071866,
                  "1297":0.007662797944538705,
                  "1298":-0.07180919095283084,
                  "1299":0.07294010878956185,
                  "1300":0.018014536136564386,
                  "1301":-0.0025663182350652,
                  "1302":-0.027669006805310245,
                  "1303":-0.024571219501761714,
                  "1304":-0.021197175694020173,
                  "1305":0.0027562879067525785,
                  "1306":-0.09064647151032933,
                  "1307":0.08057722062732295,
                  "1308":0.017832361860606213,
                  "1309":-0.03608193249766799,
                  "1310":-0.018670187623890618,
                  "1311":-0.09609532715840377,
                  "1312":-0.05636281149346167,
                  "1313":0.005660166196442286,
                  "1314":-0.08992914655536917,
                  "1315":0.02132662662165797,
                  "1316":0.06405899976026166,
                  "1317":0.00003756125832372809,
                  "1318":-0.011880606899126747,
                  "1319":-0.03444969048873198,
                  "1320":-0.04172202262616933,
                  "1321":0.008666383387206402,
                  "1322":-0.09930593343406632,
                  "1323":0.07205743029524345,
                  "1324":0.04172322187166439,
                  "1325":0.008248181232480424,
                  "1326":-0.0628552440388983,
                  "1327":-0.029270191861202985,
                  "1328":-0.09243991462137266,
                  "1329":-0.004380060847030036,
                  "1330":-0.053859567597250156,
                  "1331":0.051522533782575874,
                  "1332":0.022947002600307874,
                  "1333":-0.018462554714329484,
                  "1334":-0.049929733732091225,
                  "1335":-0.00698987544517209,
                  "1336":-0.1087663061091304,
                  "1337":-0.008903121682422677,
                  "1338":-0.07671945942747946,
                  "1339":0.036545157130265196,
                  "1340":0.03683769578026788,
                  "1341":0.05162774913589221,
                  "1342":-0.09377288866673818,
                  "1343":-0.053372108530884754,
                  "1344":-0.11472184926434295,
                  "1345":-0.030453752785076123,
                  "1346":-0.02632005816744459,
                  "1347":0.0017569480108966498,
                  "1348":0.0019520032278684332,
                  "1349":0.04346654130735603,
                  "1350":-0.04070899451812021,
                  "1351":-0.06494561127069767,
                  "1352":-0.09932954563299419,
                  "1353":-0.05663566828217056,
                  "1354":-0.030066739742995497,
                  "1355":0.0036071705622839657,
                  "1356":0.002084739922757795,
                  "1357":0.025300424286677375,
                  "1358":-0.013308162812059408,
                  "1359":-0.058989573026577126,
                  "1360":-0.11624799096523626,
                  "1361":-0.07128516306624183,
                  "1362":0.011132755221139712,
                  "1363":0.011091339840783865,
                  "1364":0.004936152894516111,
                  "1365":0.015318406403661371,
                  "1366":-0.01893645154532614,
                  "1367":-0.05845462719868694,
                  "1368":-0.0902926006036758,
                  "1369":-0.07842404202313022,
                  "1370":0.02837034128741541,
                  "1371":-0.04266200409797048,
                  "1372":0.023627733895274415,
                  "1373":0.022228691354855255,
                  "1374":0.028207357775653925,
                  "1375":-0.021562046726460758,
                  "1376":-0.05374801554752192,
                  "1377":-0.06294044118362127,
                  "1378":0.08151058535939056,
                  "1379":0.0035331406949878075,
                  "1380":-0.029722170404044655,
                  "1381":-0.013127418581706374,
                  "1382":0.016899734279118884,
                  "1383":-0.018098711380655004,
                  "1384":-0.0720137694281191,
                  "1385":-0.05688197265332325,
                  "1386":0.0915239750363787,
                  "1387":-0.03649635851117576,
                  "1388":-0.06402166790595877,
                  "1389":-0.0282898743089872,
                  "1390":0.10773163934168144,
                  "1391":-0.009811487185591258,
                  "1392":-0.09798034527666462,
                  "1393":-0.05828339282531827,
                  "1394":0.0068851041880759025,
                  "1395":-0.035616474173948,
                  "1396":-0.0546400626428094,
                  "1397":0.002811775067794503,
                  "1398":0.07537948408508378,
                  "1399":0.02208689425094898,
                  "1400":-0.06501742150421742,
                  "1401":-0.03896547328703791,
                  "1402":0.06603848600748272,
                  "1403":0.01201936782935949,
                  "1404":-0.07840995274803468,
                  "1405":-0.015668643823795878,
                  "1406":0.07288506578803286,
                  "1407":-0.025332609296372557,
                  "1408":-0.05001668642751205,
                  "1409":-0.04135881296818241,
                  "1410":0.10921622831047001,
                  "1411":0.006948784257673316,
                  "1412":-0.1076375789041458,
                  "1413":-0.023484769960850613,
                  "1414":0.09286172219550447,
                  "1415":-0.013416112216112814,
                  "1416":-0.03249912145505986,
                  "1417":-0.0971804416490191,
                  "1418":0.08348176562076098,
                  "1419":0.05666389607960196,
                  "1420":-0.03317144705359494,
                  "1421":-0.10955139782660055,
                  "1422":0.12516818170358193,
                  "1423":-0.034703527886582916,
                  "1424":-0.08009139525088911,
                  "1425":-0.0425627686832342,
                  "1426":0.06074153337828836,
                  "1427":0.045870791325361156,
                  "1428":-0.050876738664477554,
                  "1429":-0.1145284749158775,
                  "1430":0.11350937020014863,
                  "1431":0.003931653791198191,
                  "1432":-0.05769767303665497,
                  "1433":-0.0726425003575292,
                  "1434":0.08923925668776723,
                  "1435":0.05265665809800699,
                  "1436":-0.046000315480867304,
                  "1437":-0.07699739826314553,
                  "1438":0.12018052014507294,
                  "1439":0.04375793701364647,
                  "1440":0.005416119039316411,
                  "1441":0.02502977820203732,
                  "1442":-0.010129172630035507,
                  "1443":0.08145146262380186,
                  "1444":-0.008523345884620937,
                  "1445":-0.02587070241247506,
                  "1446":0.04354848456352768,
                  "1447":0.007642970728852076,
                  "1448":0.010274876482319365,
                  "1449":0.01194795616625575,
                  "1450":0.007609467790942894,
                  "1451":0.09170183486625891,
                  "1452":0.011823852661188215,
                  "1453":-0.05203674864784214,
                  "1454":0.042777354350708015,
                  "1455":-0.028704917473228155,
                  "1456":0.0009602917532446504,
                  "1457":-0.0008876133590622665,
                  "1458":-0.034522994892472736,
                  "1459":0.05277031049452967,
                  "1460":0.04843844265969421,
                  "1461":-0.030615982127158253,
                  "1462":-0.03166168139889424,
                  "1463":-0.046508974770469245,
                  "1464":-0.03531124143391827,
                  "1465":-0.0005626697823710352,
                  "1466":-0.0643241114092355,
                  "1467":0.05442724960266915,
                  "1468":0.05334276474690002,
                  "1469":-0.013071822993971034,
                  "1470":0.009093826489216248,
                  "1471":-0.07504424914156037,
                  "1472":-0.05598598226215253,
                  "1473":-0.005251628683229091,
                  "1474":-0.08009650920163054,
                  "1475":0.06025070234023746,
                  "1476":0.04301657530252831,
                  "1477":0.01818897419218491,
                  "1478":-0.010068903329270209,
                  "1479":-0.06455934439873645,
                  "1480":-0.029291092228750672,
                  "1481":0.05174124046037528,
                  "1482":-0.0823632301261652,
                  "1483":0.017528519230920834,
                  "1484":0.05235980510816103,
                  "1485":-0.01902387121393414,
                  "1486":-0.029292809019901014,
                  "1487":-0.023602342961854907,
                  "1488":-0.09119775681352028,
                  "1489":0.00884099222252881,
                  "1490":-0.06551458860920531,
                  "1491":0.07204789414894539,
                  "1492":0.06392610611068976,
                  "1493":0.02501550822426557,
                  "1494":-0.010273772045162862,
                  "1495":-0.05669778574321657,
                  "1496":-0.07475682535252422,
                  "1497":-0.0161258612169025,
                  "1498":-0.031882894199057474,
                  "1499":0.057673214205464916,
                  "1500":0.04430851011932443,
                  "1501":-0.012721142210376091,
                  "1502":-0.021897429434767735,
                  "1503":-0.03714027850110899,
                  "1504":-0.0900608665933707,
                  "1505":-0.01041867414876197,
                  "1506":-0.035981581628850616,
                  "1507":-0.008588615529789316,
                  "1508":0.03187817433280154,
                  "1509":0.04287470033467598,
                  "1510":0.010584426874586257,
                  "1511":-0.020853742864276072,
                  "1512":-0.07762253027254702,
                  "1513":-0.038250699613687426,
                  "1514":-0.04053079391152474,
                  "1515":-0.022735230588770326,
                  "1516":0.032391476922443256,
                  "1517":0.024254091454550243,
                  "1518":0.00009321923169846704,
                  "1519":-0.051237205352721964,
                  "1520":-0.11717418812392151,
                  "1521":-0.01983990707338034,
                  "1522":0.023736157681196066,
                  "1523":-0.02048794264315795,
                  "1524":0.025920915286461434,
                  "1525":0.009423700066246774,
                  "1526":-0.00237788151862537,
                  "1527":-0.018134692995981746,
                  "1528":-0.11105574897637747,
                  "1529":-0.043062805542005186,
                  "1530":0.03949044946198386,
                  "1531":-0.03980502472702143,
                  "1532":0.028659274529204484,
                  "1533":0.06172924119958646,
                  "1534":0.01743660816201598,
                  "1535":-0.02582465863001235,
                  "1536":-0.108887729095384,
                  "1537":-0.05691635839766586,
                  "1538":0.08828517623936606,
                  "1539":-0.03235319714745081,
                  "1540":-0.009792907654812638,
                  "1541":-0.0170211036512436,
                  "1542":0.09093970007212086,
                  "1543":-0.007417825444451291,
                  "1544":-0.11104675738339567,
                  "1545":-0.04723638715697561,
                  "1546":0.05068140548992418,
                  "1547":-0.035637667205872366,
                  "1548":-0.02348490359788469,
                  "1549":-0.00625766274324933,
                  "1550":0.10910578798657118,
                  "1551":0.013728469249886247,
                  "1552":-0.10089003925534755,
                  "1553":-0.07085996203176816,
                  "1554":0.07662265919612293,
                  "1555":-0.008801917868724321,
                  "1556":-0.0486115646068357,
                  "1557":-0.030463545676561787,
                  "1558":0.07627851066844327,
                  "1559":0.03135076198907684,
                  "1560":-0.0860008890515874,
                  "1561":-0.04365180423262017,
                  "1562":0.07892271329401598,
                  "1563":0.0065694955838412,
                  "1564":-0.05460418737488841,
                  "1565":-0.037018890979231917,
                  "1566":0.041504437476974326,
                  "1567":-0.02064919879432135,
                  "1568":-0.09921999542200498,
                  "1569":-0.026298347827306816,
                  "1570":0.03947248632165773,
                  "1571":0.03094614923692318,
                  "1572":-0.0650443535158287,
                  "1573":-0.0655681896224433,
                  "1574":0.07563317232532593,
                  "1575":-0.012106955145179036,
                  "1576":-0.09157134821703501,
                  "1577":-0.037622610701830074,
                  "1578":0.04323986757829826,
                  "1579":0.10982882012587666,
                  "1580":0.0008357224386808595,
                  "1581":-0.07108654389076194,
                  "1582":0.07471509178594041,
                  "1583":-0.028681066640598142,
                  "1584":-0.07217826281357581,
                  "1585":-0.027106622758669915,
                  "1586":0.05245110029670375,
                  "1587":0.0743517068358154,
                  "1588":-0.028767879258632785,
                  "1589":-0.00558159434161476,
                  "1590":0.1016313223389728,
                  "1591":0.013882798325443594,
                  "1592":-0.06384739506040514,
                  "1593":-0.03227579684087369,
                  "1594":0.07344778829106881,
                  "1595":0.06053587087868496,
                  "1596":-0.005899387254725684,
                  "1597":-0.09141522745213247,
                  "1598":0.11930121384801522,
                  "1599":0.029258311713231646,
                  "1600":0.0057879931188362255,
                  "1601":0.021836510114671186,
                  "1602":0.02073694520185907,
                  "1603":0.11722124801961968,
                  "1604":0.00455975125134372,
                  "1605":0.017704439986608343,
                  "1606":0.059280323858665405,
                  "1607":0.0017594051599271409,
                  "1608":-0.03625495383008395,
                  "1609":-0.018562775191563484,
                  "1610":-0.0019284569165349463,
                  "1611":0.057762241685400395,
                  "1612":0.06229122146748648,
                  "1613":-0.03938175698105111,
                  "1614":0.04027341801195918,
                  "1615":-0.011063459778017004,
                  "1616":-0.0737152387093341,
                  "1617":-0.023969327703430104,
                  "1618":-0.033815545874614765,
                  "1619":0.09804449797184449,
                  "1620":0.10092027644045745,
                  "1621":-0.032392995034692916,
                  "1622":-0.04984925624799745,
                  "1623":-0.02491802066904644,
                  "1624":-0.048339109418463116,
                  "1625":-0.002675635513237883,
                  "1626":-0.0346376249252675,
                  "1627":0.04264047138245188,
                  "1628":0.03855444471274203,
                  "1629":0.029452949977353548,
                  "1630":-0.011594055708060741,
                  "1631":-0.011850725291382274,
                  "1632":-0.03568240697583116,
                  "1633":-0.004019612221325853,
                  "1634":-0.04611531282214237,
                  "1635":0.08311306091809711,
                  "1636":0.07951582476105329,
                  "1637":-0.009862379278858392,
                  "1638":-0.02064062266443091,
                  "1639":-0.04008088217168628,
                  "1640":-0.055153518452791706,
                  "1641":0.026037242252960714,
                  "1642":-0.06690742047401842,
                  "1643":0.05365730831057946,
                  "1644":0.07658074426220134,
                  "1645":-0.006597204439901945,
                  "1646":0.0135939457185107,
                  "1647":-0.04539437956089054,
                  "1648":-0.10850420961691186,
                  "1649":-0.057882010685755665,
                  "1650":-0.029883728926571585,
                  "1651":0.06048611705073308,
                  "1652":0.06704521764118115,
                  "1653":0.026328956517561085,
                  "1654":-0.004869419891730944,
                  "1655":-0.0772094225929071,
                  "1656":-0.07751387540808048,
                  "1657":-0.03845354940764986,
                  "1658":0.01798321460702063,
                  "1659":0.026260538927498998,
                  "1660":0.03487324435919105,
                  "1661":0.0416810709592025,
                  "1662":-0.0028977192445275436,
                  "1663":-0.10558870653953513,
                  "1664":-0.07923570417937159,
                  "1665":-0.010589805673293604,
                  "1666":-0.01756760111370658,
                  "1667":0.016106423586706924,
                  "1668":0.03716582646015014,
                  "1669":0.01871805038352292,
                  "1670":-0.020285576723133712,
                  "1671":-0.049847981850754494,
                  "1672":-0.09746985759079294,
                  "1673":-0.04650970992906,
                  "1674":0.012447199388408966,
                  "1675":0.004865697825923886,
                  "1676":0.03392562822254322,
                  "1677":0.03340897971664584,
                  "1678":0.01618468601013822,
                  "1679":-0.07812147551246978,
                  "1680":-0.10741721874906278,
                  "1681":-0.004458046227863423,
                  "1682":0.005181911687319513,
                  "1683":-0.048908266216210264,
                  "1684":0.02192785847688657,
                  "1685":0.04898980913457927,
                  "1686":-0.030850030642053647,
                  "1687":-0.07150752290759531,
                  "1688":-0.10509409764983109,
                  "1689":-0.01579773802488455,
                  "1690":0.07862681430597164,
                  "1691":-0.06630355746713205,
                  "1692":-0.02077601508955098,
                  "1693":0.07158216756085621,
                  "1694":0.022989915927630784,
                  "1695":-0.048265462320559206,
                  "1696":-0.11410545804621622,
                  "1697":-0.03200470335857724,
                  "1698":0.0974452176614071,
                  "1699":-0.03771433309846355,
                  "1700":-0.021138067034547084,
                  "1701":0.054589880321082106,
                  "1702":0.11411349105428081,
                  "1703":-0.02889743785677677,
                  "1704":-0.09339981124925209,
                  "1705":-0.04401257431675645,
                  "1706":0.06894158440039791,
                  "1707":-0.022418927748468907,
                  "1708":-0.025221931330770556,
                  "1709":-0.010999777345207308,
                  "1710":0.0939949782666639,
                  "1711":-0.030760665145848146,
                  "1712":-0.1344527709139188,
                  "1713":-0.04599593728386385,
                  "1714":0.07434398990070999,
                  "1715":0.030041474443474166,
                  "1716":-0.1032551896390536,
                  "1717":-0.010141839309573453,
                  "1718":0.08726742607982817,
                  "1719":-0.028891582816936896,
                  "1720":-0.14526181001869876,
                  "1721":-0.050333931048328076,
                  "1722":0.03627090473487828,
                  "1723":0.03415508491455119,
                  "1724":-0.08592798192121828,
                  "1725":-0.013814005586345228,
                  "1726":0.0639587029634832,
                  "1727":-0.020903314166385384,
                  "1728":-0.09901076304326838,
                  "1729":-0.062559486348294,
                  "1730":0.04128485637483446,
                  "1731":-0.0038696682457831522,
                  "1732":-0.019317632809418634,
                  "1733":-0.04035227527913548,
                  "1734":0.1007640596626438,
                  "1735":-0.028022655110100037,
                  "1736":-0.10291854214210526,
                  "1737":-0.0290526460776057,
                  "1738":0.02882454104775699,
                  "1739":0.04951285961343631,
                  "1740":-0.004342403167736236,
                  "1741":0.0034264345858525985,
                  "1742":0.08820571119463344,
                  "1743":0.020531997207742823,
                  "1744":-0.1345794066081497,
                  "1745":0.02775064829862629,
                  "1746":0.02909374699152425,
                  "1747":0.0742843203367251,
                  "1748":-0.0102392342963014,
                  "1749":-0.014097765756688235,
                  "1750":0.10867737896042357,
                  "1751":0.01597268575064648,
                  "1752":-0.09889820561785428,
                  "1753":-0.044954739384470074,
                  "1754":0.014964797223769234,
                  "1755":0.06434366389409596,
                  "1756":-0.006610596106082673,
                  "1757":-0.051924423792656514,
                  "1758":0.13434831373845058,
                  "1759":0.03363445595677154,
                  "1760":-0.017193149592753698,
                  "1761":-0.0017974631633554522,
                  "1762":0.014950803389054497,
                  "1763":0.12521627823851156,
                  "1764":0.05365444584043307,
                  "1765":-0.03677679263824613,
                  "1766":0.054303326990218434,
                  "1767":-0.0010155859027128234,
                  "1768":-0.02484467153155116,
                  "1769":-0.007468085370853661,
                  "1770":-0.021597718037282432,
                  "1771":0.07512919301106129,
                  "1772":0.0570145683257204,
                  "1773":-0.04296852117116393,
                  "1774":0.01761736033721588,
                  "1775":0.012419493292837747,
                  "1776":-0.06580268867106849,
                  "1777":-0.029862866321452616,
                  "1778":-0.061794732839362695,
                  "1779":0.10543242508982419,
                  "1780":0.07290485766468309,
                  "1781":-0.026027456247228648,
                  "1782":0.009467305302481832,
                  "1783":-0.010549069886387926,
                  "1784":-0.09102981381683871,
                  "1785":-0.008824747641787338,
                  "1786":0.004396820994429647,
                  "1787":0.0704648099087821,
                  "1788":0.0792080910289105,
                  "1789":0.01383077326959045,
                  "1790":-0.0265730482220748,
                  "1791":-0.011857812924978634,
                  "1792":-0.06789799435184414,
                  "1793":0.011040133285541799,
                  "1794":-0.04683562476688931,
                  "1795":0.037999388489270376,
                  "1796":0.060169472698471255,
                  "1797":0.0018993261372419964,
                  "1798":-0.020043954878427823,
                  "1799":-0.05492517947465665,
                  "1800":-0.07648601462339737,
                  "1801":0.0021352818655722854,
                  "1802":0.0014905522016361397,
                  "1803":0.09970245606451368,
                  "1804":0.06717714791246822,
                  "1805":0.011048429832240452,
                  "1806":-0.007653773895573785,
                  "1807":-0.07393528406883222,
                  "1808":-0.0635956035997978,
                  "1809":-0.020400832197825854,
                  "1810":-0.007112870757548161,
                  "1811":0.03680363330700887,
                  "1812":0.06961730676179953,
                  "1813":0.01221717205150145,
                  "1814":-0.006223866548894488,
                  "1815":-0.07778417668452044,
                  "1816":-0.06727007062888785,
                  "1817":-0.04671093218983597,
                  "1818":-0.015696470852619313,
                  "1819":0.01033709956755974,
                  "1820":0.01977433700292366,
                  "1821":0.037435726051523004,
                  "1822":-0.016112998375212163,
                  "1823":-0.10380059701076806,
                  "1824":-0.10942603441036125,
                  "1825":-0.0346890603670739,
                  "1826":-0.007272636394809633,
                  "1827":0.0003697136013325424,
                  "1828":0.09558479396078298,
                  "1829":0.01601125028272636,
                  "1830":-0.012773349052503333,
                  "1831":-0.10511374901325735,
                  "1832":-0.11812047630942543,
                  "1833":0.01142017833919282,
                  "1834":0.02997571421339762,
                  "1835":-0.03303553379105321,
                  "1836":0.084621865873669,
                  "1837":0.0966054396939295,
                  "1838":-0.020682540453222768,
                  "1839":-0.07802100532668586,
                  "1840":-0.12323763506282535,
                  "1841":0.03827662335332355,
                  "1842":0.03181380415207724,
                  "1843":-0.05297478248359926,
                  "1844":0.047668797968825734,
                  "1845":0.08779401416529303,
                  "1846":-0.0003138880407106472,
                  "1847":-0.06488449438315633,
                  "1848":-0.15099723816389418,
                  "1849":0.02950022474669173,
                  "1850":0.06430032768475592,
                  "1851":-0.046075591963451026,
                  "1852":0.0023802666889996557,
                  "1853":0.05267981175052206,
                  "1854":0.024900180722792375,
                  "1855":-0.06633279009643592,
                  "1856":-0.09391749442920862,
                  "1857":-0.04182453928985124,
                  "1858":0.09218595815869546,
                  "1859":-0.040997493361876414,
                  "1860":-0.03457068744756,
                  "1861":0.02869781173774383,
                  "1862":0.03687901295300491,
                  "1863":-0.07468947173611581,
                  "1864":-0.10072775297921453,
                  "1865":-0.04595239067599869,
                  "1866":0.07904824255438299,
                  "1867":-0.026187653999260735,
                  "1868":-0.056371837409177665,
                  "1869":-0.010883601027454608,
                  "1870":0.08652324517282457,
                  "1871":-0.08899046912201489,
                  "1872":-0.15996280661789725,
                  "1873":-0.0586325091648021,
                  "1874":0.049909772747448684,
                  "1875":-0.015601792898361055,
                  "1876":-0.0855184007810233,
                  "1877":0.003086370779440965,
                  "1878":0.07493728043709673,
                  "1879":-0.033138417943844624,
                  "1880":-0.12112944075056613,
                  "1881":-0.0670985645497087,
                  "1882":0.028121946336815345,
                  "1883":0.03441702962320358,
                  "1884":-0.05185082188127924,
                  "1885":-0.04434077001854848,
                  "1886":0.07043791474890726,
                  "1887":-0.0141884552008125,
                  "1888":-0.15143469174014437,
                  "1889":-0.019367770821050064,
                  "1890":0.06567104618628933,
                  "1891":0.03313174411610222,
                  "1892":-0.013823927735488059,
                  "1893":-0.014409835281114244,
                  "1894":0.09306510582147089,
                  "1895":0.033712183588709276,
                  "1896":-0.1142988731258663,
                  "1897":-0.0394479650044674,
                  "1898":-0.0269902548257819,
                  "1899":0.05865172166615602,
                  "1900":0.011010495214103874,
                  "1901":-0.0005415898578718401,
                  "1902":0.04384721139396253,
                  "1903":0.00295855595739106,
                  "1904":-0.12731232653951577,
                  "1905":0.0318576444352202,
                  "1906":-0.0021836202113235887,
                  "1907":0.03593831742822496,
                  "1908":-0.025622583896846518,
                  "1909":-0.05658787913529312,
                  "1910":0.06882846806067658,
                  "1911":-0.002140728456977485,
                  "1912":-0.1107019519300147,
                  "1913":0.023302590094225098,
                  "1914":-0.000652920226355447,
                  "1915":0.06257570340447963,
                  "1916":0.011787303577715815,
                  "1917":-0.011637638222628963,
                  "1918":0.10602560295873628,
                  "1919":0.030663970242577603,
                  "1920":-0.04499776788182048,
                  "1921":-0.021357853056035415,
                  "1922":0.007009847264059267,
                  "1923":0.0919682397158075,
                  "1924":0.010199112458953002,
                  "1925":-0.05444957923301624,
                  "1926":0.06191118869790453,
                  "1927":0.03588576011448544,
                  "1928":-0.053173076908553836,
                  "1929":-0.006496910272001687,
                  "1930":-0.037949728534719854,
                  "1931":0.1046350842909498,
                  "1932":0.04363711683759804,
                  "1933":-0.03118164599747001,
                  "1934":-0.0000784841226530343,
                  "1935":0.015477899076374101,
                  "1936":-0.0623665294400829,
                  "1937":-0.04246306875969705,
                  "1938":-0.01098198194079142,
                  "1939":0.06993188979406977,
                  "1940":0.06372684719002072,
                  "1941":-0.032135024198401134,
                  "1942":0.0024584521216813224,
                  "1943":-0.03747665206527138,
                  "1944":-0.09371248777242874,
                  "1945":-0.04843847259612921,
                  "1946":-0.019285285768295562,
                  "1947":0.05871046069791095,
                  "1948":0.02828639735780775,
                  "1949":-0.02073564302811947,
                  "1950":0.013193775981238899,
                  "1951":-0.0026291669725025577,
                  "1952":-0.037527420474149566,
                  "1953":-0.03550842436975977,
                  "1954":-0.03890205040154899,
                  "1955":0.11105499695164595,
                  "1956":0.026981638838509573,
                  "1957":-0.03672118074835381,
                  "1958":0.013901995398575527,
                  "1959":-0.03741767633151076,
                  "1960":-0.08959223468869575,
                  "1961":-0.0056843424537771844,
                  "1962":-0.03569728512258722,
                  "1963":0.05351202077471682,
                  "1964":0.08640444532503576,
                  "1965":-0.04178071835004465,
                  "1966":-0.015746015073153617,
                  "1967":-0.06395488413549548,
                  "1968":-0.0511128545387756,
                  "1969":-0.04113005719895179,
                  "1970":-0.026052514748952125,
                  "1971":0.06377079033085384,
                  "1972":0.035199712311757864,
                  "1973":0.010854588734857775,
                  "1974":-0.008067949433260968,
                  "1975":-0.0689434885795673,
                  "1976":-0.012450359335075148,
                  "1977":-0.017489775540621158,
                  "1978":-0.03809911103426224,
